


    // !!! This file is generated using emlearn !!!

    #include <eml_trees.h>
    

static const EmlTreesNode pmbus_classifier_nodes[8566] = {
  { 0, 15, 1, 8 },
  { 0, 8, 1, -1 },
  { 0, 0, -2, 1 },
  { 0, 2, -3, 1 },
  { 0, 5, 1, 3 },
  { 0, 4, 1, -4 },
  { 0, 3, -5, -6 },
  { 0, 7, -7, -8 },
  { 0, 23, 1, 2 },
  { 0, 19, -9, -10 },
  { 0, 37, 1, 7 },
  { 0, 35, 1, -11 },
  { 0, 33, 1, -12 },
  { 0, 30, 1, -13 },
  { 0, 25, -14, 1 },
  { 0, 26, -15, 1 },
  { 0, 27, -16, -17 },
  { 0, 70, 1, 21 },
  { 0, 69, 1, -18 },
  { 0, 67, 1, -19 },
  { 0, 65, 1, -20 },
  { 0, 59, 1, 14 },
  { 0, 58, 1, -21 },
  { 0, 55, 1, -22 },
  { 0, 42, 1, 3 },
  { 0, 40, 1, -23 },
  { 0, 38, -24, -25 },
  { 0, 45, 1, 2 },
  { 0, 44, -26, -27 },
  { 0, 47, 1, 2 },
  { 0, 46, -28, -29 },
  { 0, 48, -30, 1 },
  { 0, 50, -31, 1 },
  { 0, 51, -32, 1 },
  { 0, 52, -33, -34 },
  { 0, 61, -35, 1 },
  { 0, 63, -36, 1 },
  { 0, 64, -37, -38 },
  { 0, 84, 1, 11 },
  { 0, 83, 1, -39 },
  { 0, 81, 1, -40 },
  { 0, 80, 1, -41 },
  { 0, 74, 1, 3 },
  { 0, 73, 1, -42 },
  { 0, 72, -43, -44 },
  { 0, 76, 1, 2 },
  { 0, 75, -45, -46 },
  { 0, 78, -47, 1 },
  { 0, 79, -48, -49 },
  { 0, 112, 1, 21 },
  { 0, 110, 1, -50 },
  { 0, 102, 1, 14 },
  { 0, 96, 1, 9 },
  { 0, 92, 1, 6 },
  { 0, 85, -51, 1 },
  { 0, 86, -52, 1 },
  { 0, 88, -53, 1 },
  { 0, 90, -54, 1 },
  { 0, 91, -55, -56 },
  { 0, 94, -57, 1 },
  { 0, 95, -58, -59 },
  { 0, 98, -60, 1 },
  { 0, 99, -61, 1 },
  { 0, 100, -62, 1 },
  { 0, 101, -63, -64 },
  { 0, 103, -65, 1 },
  { 0, 104, -66, 1 },
  { 0, 106, -67, 1 },
  { 0, 108, -68, 1 },
  { 0, 109, -69, -70 },
  { 0, 114, -71, 1 },
  { 0, 116, 1, 2 },
  { 0, 115, -72, -73 },
  { 0, 122, 1, 5 },
  { 0, 121, 1, -74 },
  { 0, 119, 1, 2 },
  { 0, 118, -75, -76 },
  { 0, 120, -77, -78 },
  { 0, 124, -79, 1 },
  { 0, 126, -80, 1 },
  { 0, 127, -81, 1 },
  { 0, 128, -82, 1 },
  { 0, 129, -83, 1 },
  { 0, 130, -84, 1 },
  { 0, 131, -85, 1 },
  { 0, 133, -86, 1 },
  { 0, 136, -87, 1 },
  { 0, 137, -88, 1 },
  { 0, 139, -89, -90 },
  { 0, 15, 1, 6 },
  { 0, 8, 1, -1 },
  { 0, 5, 1, -91 },
  { 0, 2, 1, -5 },
  { 0, 0, -2, 1 },
  { 0, 1, -3, -92 },
  { 0, 136, 1, 80 },
  { 0, 130, 1, 74 },
  { 0, 82, 1, 40 },
  { 0, 71, 1, 33 },
  { 0, 69, 1, -43 },
  { 0, 58, 1, 26 },
  { 0, 57, 1, -93 },
  { 0, 56, 1, -22 },
  { 0, 28, 1, 8 },
  { 0, 26, 1, -16 },
  { 0, 19, 1, 3 },
  { 0, 17, 1, -94 },
  { 0, 16, -9, -95 },
  { 0, 20, -96, 1 },
  { 0, 22, -97, 1 },
  { 0, 24, -10, -98 },
  { 0, 35, 1, 3 },
  { 0, 32, 1, -12 },
  { 0, 30, -99, -100 },
  { 0, 42, 1, 3 },
  { 0, 40, 1, -23 },
  { 0, 37, -11, -25 },
  { 0, 44, -101, 1 },
  { 0, 45, -27, 1 },
  { 0, 46, -28, 1 },
  { 0, 48, -29, 1 },
  { 0, 50, -102, 1 },
  { 0, 52, -32, 1 },
  { 0, 53, -34, 1 },
  { 0, 54, -103, 1 },
  { 0, 55, -104, -105 },
  { 0, 59, -21, 1 },
  { 0, 60, -35, 1 },
  { 0, 63, -106, 1 },
  { 0, 66, -20, 1 },
  { 0, 67, -107, -19 },
  { 0, 72, -108, 1 },
  { 0, 73, -44, 1 },
  { 0, 76, 1, 2 },
  { 0, 74, -42, -45 },
  { 0, 79, -109, 1 },
  { 0, 81, -49, -40 },
  { 0, 83, -110, 1 },
  { 0, 84, -39, 1 },
  { 0, 88, 1, 3 },
  { 0, 86, 1, -53 },
  { 0, 85, -51, -52 },
  { 0, 90, -54, 1 },
  { 0, 100, 1, 4 },
  { 0, 98, 1, -61 },
  { 0, 92, -55, 1 },
  { 0, 96, -111, -112 },
  { 0, 105, 1, 4 },
  { 0, 103, 1, -66 },
  { 0, 102, 1, -65 },
  { 0, 101, -63, -64 },
  { 0, 120, 1, 12 },
  { 0, 118, 1, 10 },
  { 0, 106, -113, 1 },
  { 0, 107, -68, 1 },
  { 0, 108, -114, 1 },
  { 0, 109, -69, 1 },
  { 0, 110, -70, 1 },
  { 0, 112, -50, 1 },
  { 0, 113, -115, 1 },
  { 0, 114, -71, 1 },
  { 0, 116, -72, -75 },
  { 0, 119, -76, -77 },
  { 0, 121, -78, 1 },
  { 0, 123, -74, 1 },
  { 0, 124, -116, 1 },
  { 0, 125, -80, 1 },
  { 0, 126, -117, 1 },
  { 0, 128, -81, 1 },
  { 0, 129, -83, -84 },
  { 0, 131, -85, 1 },
  { 0, 133, 1, 2 },
  { 0, 132, -86, -118 },
  { 0, 134, -119, 1 },
  { 0, 135, -87, -120 },
  { 0, 137, -88, 1 },
  { 0, 138, -89, -121 },
  { 0, 15, 1, 4 },
  { 0, 9, 1, -1 },
  { 0, 3, -92, 1 },
  { 0, 6, -4, -8 },
  { 0, 18, 1, 3 },
  { 0, 17, 1, -94 },
  { 0, 16, -9, -95 },
  { 0, 29, 1, 9 },
  { 0, 28, 1, -99 },
  { 0, 19, -122, 1 },
  { 0, 20, -96, 1 },
  { 0, 23, 1, 2 },
  { 0, 21, -97, -123 },
  { 0, 26, 1, 2 },
  { 0, 24, -14, -98 },
  { 0, 27, -16, -17 },
  { 0, 52, 1, 15 },
  { 0, 51, 1, -33 },
  { 0, 43, 1, 10 },
  { 0, 39, 1, 8 },
  { 0, 37, 1, -24 },
  { 0, 34, 1, 5 },
  { 0, 31, 1, 2 },
  { 0, 30, -124, -100 },
  { 0, 32, -13, 1 },
  { 0, 33, -125, -12 },
  { 0, 35, -126, -11 },
  { 0, 40, -127, -23 },
  { 0, 47, -27, 1 },
  { 0, 50, 1, -32 },
  { 0, 49, -31, -102 },
  { 0, 81, 1, 16 },
  { 0, 79, 1, -49 },
  { 0, 75, 1, 12 },
  { 0, 73, 1, -42 },
  { 0, 70, 1, 9 },
  { 0, 69, 1, -18 },
  { 0, 53, -34, 1 },
  { 0, 55, -103, 1 },
  { 0, 56, -105, 1 },
  { 0, 57, -22, 1 },
  { 0, 59, -93, 1 },
  { 0, 62, -106, 1 },
  { 0, 66, -37, -128 },
  { 0, 72, -43, -44 },
  { 0, 77, -47, 1 },
  { 0, 78, -109, -48 },
  { 0, 88, 1, 5 },
  { 0, 86, 1, -53 },
  { 0, 85, 1, -52 },
  { 0, 84, 1, -51 },
  { 0, 82, -40, -110 },
  { 0, 91, -54, 1 },
  { 0, 94, -57, 1 },
  { 0, 100, 1, 2 },
  { 0, 97, -59, -61 },
  { 0, 112, 1, 8 },
  { 0, 111, 1, -129 },
  { 0, 109, 1, -50 },
  { 0, 107, 1, -114 },
  { 0, 104, 1, 3 },
  { 0, 101, -63, 1 },
  { 0, 103, -64, -66 },
  { 0, 106, -67, -68 },
  { 0, 119, 1, 6 },
  { 0, 118, 1, -76 },
  { 0, 117, 1, -130 },
  { 0, 113, -115, 1 },
  { 0, 114, -71, 1 },
  { 0, 116, -72, -75 },
  { 0, 121, -77, 1 },
  { 0, 122, -74, 1 },
  { 0, 123, -79, 1 },
  { 0, 125, -116, 1 },
  { 0, 128, -117, 1 },
  { 0, 130, -84, 1 },
  { 0, 131, -85, 1 },
  { 0, 132, -86, 1 },
  { 0, 134, -118, 1 },
  { 0, 137, -120, 1 },
  { 0, 139, -89, 1 },
  { 0, 140, -131, -90 },
  { 0, 15, 1, 9 },
  { 0, 8, 1, -1 },
  { 0, 0, -2, 1 },
  { 0, 1, -3, 1 },
  { 0, 3, 1, 2 },
  { 0, 2, -92, -5 },
  { 0, 4, -6, 1 },
  { 0, 6, -4, 1 },
  { 0, 7, -91, -8 },
  { 0, 32, 1, 12 },
  { 0, 31, 1, -13 },
  { 0, 27, 1, 9 },
  { 0, 18, -95, 1 },
  { 0, 23, 1, 4 },
  { 0, 22, 1, -10 },
  { 0, 19, -122, 1 },
  { 0, 21, -96, -123 },
  { 0, 24, -14, 1 },
  { 0, 25, -98, 1 },
  { 0, 26, -15, -16 },
  { 0, 29, -17, -100 },
  { 0, 97, 1, 42 },
  { 0, 89, 1, 38 },
  { 0, 88, 1, -132 },
  { 0, 37, 1, 4 },
  { 0, 36, 1, -133 },
  { 0, 35, 1, -11 },
  { 0, 33, -125, -12 },
  { 0, 56, 1, 11 },
  { 0, 54, 1, -104 },
  { 0, 40, 1, 2 },
  { 0, 39, -24, -127 },
  { 0, 41, -23, 1 },
  { 0, 48, 1, 3 },
  { 0, 42, -134, 1 },
  { 0, 45, -26, -30 },
  { 0, 50, -31, 1 },
  { 0, 51, -32, 1 },
  { 0, 52, -33, -34 },
  { 0, 61, 1, 4 },
  { 0, 60, 1, -106 },
  { 0, 58, 1, -21 },
  { 0, 57, -22, -93 },
  { 0, 62, -36, 1 },
  { 0, 65, 1, 3 },
  { 0, 64, 1, -38 },
  { 0, 63, -135, -37 },
  { 0, 80, 1, 9 },
  { 0, 78, 1, -48 },
  { 0, 66, -20, 1 },
  { 0, 67, -107, 1 },
  { 0, 68, -19, 1 },
  { 0, 69, -128, 1 },
  { 0, 71, -18, 1 },
  { 0, 73, -108, 1 },
  { 0, 76, -42, -109 },
  { 0, 82, -40, 1 },
  { 0, 84, -110, 1 },
  { 0, 86, -52, 1 },
  { 0, 87, -53, -136 },
  { 0, 90, -54, 1 },
  { 0, 93, -55, 1 },
  { 0, 95, -58, -59 },
  { 0, 99, -61, 1 },
  { 0, 109, 1, 8 },
  { 0, 106, 1, -68 },
  { 0, 104, 1, 5 },
  { 0, 101, 1, 2 },
  { 0, 100, -62, -63 },
  { 0, 102, -64, 1 },
  { 0, 103, -65, -66 },
  { 0, 105, -67, -113 },
  { 0, 115, 1, 2 },
  { 0, 112, -50, -115 },
  { 0, 123, 1, 4 },
  { 0, 121, 1, -74 },
  { 0, 118, -130, 1 },
  { 0, 119, -76, -77 },
  { 0, 130, 1, 3 },
  { 0, 128, 1, -83 },
  { 0, 126, -80, -81 },
  { 0, 136, 1, 3 },
  { 0, 132, -85, 1 },
  { 0, 134, -118, -120 },
  { 0, 138, -88, 1 },
  { 0, 139, -121, 1 },
  { 0, 140, -131, -90 },
  { 0, 1, 1, 2 },
  { 0, 0, -2, -3 },
  { 0, 20, 1, 8 },
  { 0, 18, 1, -122 },
  { 0, 2, -92, 1 },
  { 0, 8, 1, 4 },
  { 0, 7, 1, -8 },
  { 0, 3, -5, 1 },
  { 0, 5, -6, -7 },
  { 0, 13, -1, -95 },
  { 0, 113, 1, 62 },
  { 0, 98, 1, 53 },
  { 0, 88, 1, 45 },
  { 0, 60, 1, 27 },
  { 0, 59, 1, -35 },
  { 0, 54, 1, 22 },
  { 0, 49, 1, 19 },
  { 0, 38, 1, 12 },
  { 0, 24, 1, 4 },
  { 0, 23, 1, -14 },
  { 0, 21, -97, 1 },
  { 0, 22, -123, -10 },
  { 0, 28, 1, 3 },
  { 0, 27, 1, -17 },
  { 0, 25, -98, -15 },
  { 0, 33, 1, 2 },
  { 0, 30, -99, -13 },
  { 0, 36, -126, 1 },
  { 0, 37, -133, -24 },
  { 0, 39, -25, 1 },
  { 0, 41, -127, 1 },
  { 0, 44, 1, 2 },
  { 0, 43, -26, -101 },
  { 0, 46, -27, 1 },
  { 0, 47, -29, -30 },
  { 0, 50, -102, 1 },
  { 0, 52, -32, -34 },
  { 0, 56, -104, 1 },
  { 0, 57, -22, 1 },
  { 0, 58, -93, -21 },
  { 0, 61, -106, 1 },
  { 0, 63, -36, 1 },
  { 0, 68, 1, 4 },
  { 0, 67, 1, -19 },
  { 0, 64, -37, 1 },
  { 0, 66, -38, -107 },
  { 0, 69, -128, 1 },
  { 0, 74, 1, 3 },
  { 0, 73, 1, -42 },
  { 0, 71, -18, -44 },
  { 0, 78, 1, 3 },
  { 0, 77, 1, -109 },
  { 0, 75, -45, -46 },
  { 0, 82, 1, 2 },
  { 0, 80, -48, -41 },
  { 0, 84, -110, 1 },
  { 0, 86, -51, -53 },
  { 0, 92, 1, 2 },
  { 0, 90, -54, -55 },
  { 0, 93, -57, 1 },
  { 0, 96, 1, 3 },
  { 0, 94, -111, 1 },
  { 0, 95, -58, -59 },
  { 0, 97, -60, -112 },
  { 0, 100, -61, 1 },
  { 0, 104, 1, 4 },
  { 0, 103, 1, -66 },
  { 0, 102, 1, -65 },
  { 0, 101, -63, -64 },
  { 0, 106, -67, 1 },
  { 0, 109, -68, 1 },
  { 0, 112, -129, -115 },
  { 0, 120, 1, 2 },
  { 0, 116, -71, -76 },
  { 0, 124, 1, 3 },
  { 0, 123, 1, -116 },
  { 0, 122, -74, -79 },
  { 0, 138, 1, -131 },
  { 0, 128, 1, 3 },
  { 0, 127, 1, -82 },
  { 0, 125, -80, -117 },
  { 0, 130, -83, 1 },
  { 0, 131, -85, 1 },
  { 0, 132, -86, 1 },
  { 0, 134, -118, 1 },
  { 0, 135, -87, -120 },
  { 0, 15, 1, 7 },
  { 0, 8, 1, -1 },
  { 0, 6, 1, -91 },
  { 0, 4, 1, 3 },
  { 0, 2, -3, 1 },
  { 0, 3, -5, -6 },
  { 0, 5, -4, -7 },
  { 0, 17, -9, 1 },
  { 0, 138, 1, -121 },
  { 0, 86, 1, 42 },
  { 0, 76, 1, 36 },
  { 0, 32, 1, 11 },
  { 0, 31, 1, -13 },
  { 0, 25, 1, 7 },
  { 0, 19, 1, 2 },
  { 0, 18, -94, -122 },
  { 0, 21, 1, 2 },
  { 0, 20, -96, -97 },
  { 0, 22, -123, 1 },
  { 0, 23, -10, -14 },
  { 0, 26, -15, 1 },
  { 0, 28, -16, -124 },
  { 0, 35, 1, 3 },
  { 0, 34, 1, -126 },
  { 0, 33, -125, -12 },
  { 0, 64, 1, 17 },
  { 0, 45, 1, 5 },
  { 0, 43, 1, -101 },
  { 0, 41, 1, 2 },
  { 0, 38, -11, -23 },
  { 0, 42, -134, -26 },
  { 0, 49, 1, 2 },
  { 0, 47, -29, -30 },
  { 0, 50, -102, 1 },
  { 0, 52, -32, 1 },
  { 0, 53, -34, 1 },
  { 0, 54, -103, 1 },
  { 0, 56, -104, 1 },
  { 0, 58, -93, 1 },
  { 0, 59, -21, 1 },
  { 0, 61, -35, 1 },
  { 0, 63, -36, -37 },
  { 0, 66, -38, 1 },
  { 0, 68, -107, 1 },
  { 0, 71, -18, 1 },
  { 0, 73, -108, -42 },
  { 0, 79, -48, 1 },
  { 0, 80, -49, 1 },
  { 0, 85, 1, -52 },
  { 0, 84, 1, -51 },
  { 0, 82, -41, -39 },
  { 0, 88, -53, 1 },
  { 0, 90, -132, 1 },
  { 0, 99, 1, 6 },
  { 0, 98, 1, -61 },
  { 0, 95, 1, 2 },
  { 0, 93, -56, -58 },
  { 0, 96, -59, 1 },
  { 0, 97, -60, -112 },
  { 0, 104, 1, 4 },
  { 0, 102, 1, -65 },
  { 0, 100, -62, 1 },
  { 0, 101, -63, -64 },
  { 0, 127, 1, 15 },
  { 0, 106, 1, 2 },
  { 0, 105, -67, -113 },
  { 0, 124, 1, 11 },
  { 0, 116, 1, 8 },
  { 0, 114, 1, 6 },
  { 0, 112, 1, -115 },
  { 0, 107, -68, 1 },
  { 0, 108, -114, 1 },
  { 0, 109, -69, 1 },
  { 0, 111, -70, -129 },
  { 0, 115, -72, -73 },
  { 0, 117, -75, 1 },
  { 0, 121, -130, -116 },
  { 0, 126, -80, -81 },
  { 0, 129, -82, 1 },
  { 0, 131, -84, 1 },
  { 0, 134, -118, 1 },
  { 0, 137, -120, -89 },
  { 0, 140, 1, -90 },
  { 0, 127, 1, 73 },
  { 0, 16, 1, 7 },
  { 0, 8, 1, -1 },
  { 0, 4, 1, 3 },
  { 0, 1, -3, 1 },
  { 0, 3, -92, -6 },
  { 0, 5, -4, 1 },
  { 0, 6, -7, -91 },
  { 0, 114, 1, 54 },
  { 0, 112, 1, -71 },
  { 0, 109, 1, -70 },
  { 0, 106, 1, -114 },
  { 0, 77, 1, 33 },
  { 0, 58, 1, 22 },
  { 0, 56, 1, -22 },
  { 0, 49, 1, 18 },
  { 0, 22, 1, 4 },
  { 0, 21, 1, -123 },
  { 0, 19, -94, 1 },
  { 0, 20, -96, -97 },
  { 0, 32, 1, 4 },
  { 0, 30, 1, -13 },
  { 0, 24, -10, 1 },
  { 0, 26, -98, -17 },
  { 0, 39, 1, 3 },
  { 0, 37, 1, -25 },
  { 0, 34, -125, -126 },
  { 0, 40, -127, 1 },
  { 0, 41, -23, 1 },
  { 0, 42, -134, 1 },
  { 0, 43, -26, 1 },
  { 0, 45, -101, 1 },
  { 0, 48, -29, -31 },
  { 0, 51, -102, 1 },
  { 0, 54, -34, -104 },
  { 0, 60, -21, 1 },
  { 0, 63, -36, 1 },
  { 0, 66, 1, 2 },
  { 0, 65, -37, -20 },
  { 0, 68, -107, 1 },
  { 0, 70, -128, 1 },
  { 0, 71, -43, 1 },
  { 0, 72, -108, 1 },
  { 0, 74, -44, 1 },
  { 0, 76, -46, -47 },
  { 0, 79, -109, 1 },
  { 0, 82, 1, 2 },
  { 0, 81, -49, -40 },
  { 0, 100, 1, 12 },
  { 0, 87, 1, 4 },
  { 0, 86, 1, -53 },
  { 0, 84, 1, -51 },
  { 0, 83, -110, -39 },
  { 0, 91, 1, 3 },
  { 0, 89, 1, -54 },
  { 0, 88, -136, -132 },
  { 0, 93, -56, 1 },
  { 0, 95, -111, 1 },
  { 0, 96, -59, 1 },
  { 0, 98, -60, -62 },
  { 0, 102, -63, 1 },
  { 0, 103, -65, -66 },
  { 0, 115, -72, 1 },
  { 0, 116, -73, 1 },
  { 0, 120, 1, 3 },
  { 0, 119, 1, -77 },
  { 0, 117, -75, -130 },
  { 0, 121, -78, 1 },
  { 0, 124, 1, 3 },
  { 0, 123, 1, -116 },
  { 0, 122, -74, -79 },
  { 0, 125, -80, 1 },
  { 0, 126, -117, -81 },
  { 0, 128, -82, 1 },
  { 0, 129, -83, 1 },
  { 0, 138, 1, 6 },
  { 0, 132, 1, 3 },
  { 0, 130, -84, 1 },
  { 0, 131, -85, -86 },
  { 0, 133, -118, 1 },
  { 0, 136, -119, -89 },
  { 0, 139, -121, -131 },
  { 0, 14, 1, 9 },
  { 0, 9, 1, -1 },
  { 0, 5, 1, 6 },
  { 0, 3, 1, 4 },
  { 0, 0, -2, 1 },
  { 0, 1, -3, 1 },
  { 0, 2, -92, -5 },
  { 0, 4, -6, -4 },
  { 0, 6, -7, -91 },
  { 0, 17, -9, 1 },
  { 0, 122, 1, 68 },
  { 0, 110, 1, 63 },
  { 0, 96, 1, 53 },
  { 0, 94, 1, -58 },
  { 0, 93, 1, -111 },
  { 0, 36, 1, 11 },
  { 0, 35, 1, -11 },
  { 0, 33, 1, -12 },
  { 0, 26, 1, 5 },
  { 0, 22, 1, 2 },
  { 0, 19, -94, -97 },
  { 0, 24, -10, 1 },
  { 0, 25, -98, -15 },
  { 0, 28, -16, 1 },
  { 0, 30, -99, 1 },
  { 0, 31, -100, -13 },
  { 0, 37, -133, 1 },
  { 0, 39, -24, 1 },
  { 0, 40, -127, 1 },
  { 0, 41, -23, 1 },
  { 0, 43, -134, 1 },
  { 0, 53, 1, 7 },
  { 0, 51, 1, -33 },
  { 0, 48, 1, 4 },
  { 0, 44, -101, 1 },
  { 0, 46, -27, 1 },
  { 0, 47, -29, -30 },
  { 0, 50, -31, -32 },
  { 0, 55, 1, 2 },
  { 0, 54, -103, -104 },
  { 0, 69, 1, 12 },
  { 0, 67, 1, -19 },
  { 0, 63, 1, 7 },
  { 0, 60, 1, 5 },
  { 0, 56, -105, 1 },
  { 0, 57, -22, 1 },
  { 0, 58, -93, 1 },
  { 0, 59, -21, -35 },
  { 0, 61, -106, -36 },
  { 0, 64, -37, 1 },
  { 0, 65, -38, 1 },
  { 0, 66, -20, -107 },
  { 0, 79, 1, 5 },
  { 0, 77, 1, -109 },
  { 0, 72, 1, 2 },
  { 0, 70, -18, -43 },
  { 0, 74, -44, -46 },
  { 0, 80, -49, 1 },
  { 0, 88, 1, 4 },
  { 0, 82, -41, 1 },
  { 0, 85, -39, 1 },
  { 0, 87, -53, -136 },
  { 0, 89, -132, 1 },
  { 0, 91, -54, 1 },
  { 0, 92, -56, -57 },
  { 0, 97, -60, 1 },
  { 0, 99, -112, 1 },
  { 0, 106, 1, 4 },
  { 0, 101, -62, 1 },
  { 0, 103, -64, 1 },
  { 0, 105, -67, -113 },
  { 0, 107, -68, 1 },
  { 0, 108, -114, 1 },
  { 0, 109, -69, -70 },
  { 0, 113, -50, 1 },
  { 0, 115, -72, 1 },
  { 0, 118, 1, -76 },
  { 0, 116, -73, -75 },
  { 0, 127, -80, 1 },
  { 0, 132, 1, 3 },
  { 0, 131, 1, -86 },
  { 0, 130, -84, -85 },
  { 0, 133, -118, 1 },
  { 0, 136, 1, 2 },
  { 0, 135, -119, -120 },
  { 0, 138, -88, 1 },
  { 0, 139, -121, 1 },
  { 0, 140, -131, -90 },
  { 0, 4, 1, 2 },
  { 0, 2, -3, -5 },
  { 0, 15, 1, 4 },
  { 0, 8, 1, -1 },
  { 0, 6, -7, 1 },
  { 0, 7, -91, -8 },
  { 0, 17, -9, 1 },
  { 0, 104, 1, 54 },
  { 0, 76, 1, 40 },
  { 0, 74, 1, 38 },
  { 0, 73, 1, -42 },
  { 0, 58, 1, 26 },
  { 0, 54, 1, 23 },
  { 0, 29, 1, 7 },
  { 0, 28, 1, -99 },
  { 0, 23, 1, 3 },
  { 0, 21, 1, -123 },
  { 0, 19, -122, -96 },
  { 0, 25, -98, 1 },
  { 0, 27, -15, -17 },
  { 0, 40, 1, 7 },
  { 0, 38, 1, -25 },
  { 0, 36, 1, -24 },
  { 0, 34, 1, -126 },
  { 0, 31, -124, 1 },
  { 0, 32, -13, 1 },
  { 0, 33, -125, -12 },
  { 0, 42, 1, 2 },
  { 0, 41, -23, -134 },
  { 0, 46, 1, 2 },
  { 0, 44, -26, -27 },
  { 0, 49, -30, 1 },
  { 0, 51, -32, 1 },
  { 0, 52, -33, 1 },
  { 0, 53, -34, -103 },
  { 0, 55, -104, 1 },
  { 0, 56, -105, -22 },
  { 0, 59, -21, 1 },
  { 0, 60, -35, 1 },
  { 0, 70, 1, 7 },
  { 0, 69, 1, -18 },
  { 0, 65, 1, 3 },
  { 0, 63, 1, -37 },
  { 0, 61, -106, -36 },
  { 0, 66, -20, 1 },
  { 0, 67, -107, -19 },
  { 0, 71, -43, -108 },
  { 0, 75, -45, -46 },
  { 0, 77, -47, 1 },
  { 0, 80, 1, 2 },
  { 0, 79, -109, -49 },
  { 0, 81, -41, 1 },
  { 0, 99, 1, 8 },
  { 0, 90, 1, 4 },
  { 0, 83, 1, 2 },
  { 0, 82, -40, -110 },
  { 0, 86, -39, -136 },
  { 0, 93, -57, 1 },
  { 0, 94, -111, 1 },
  { 0, 96, -58, -112 },
  { 0, 102, -62, -66 },
  { 0, 105, -67, 1 },
  { 0, 109, 1, 3 },
  { 0, 108, 1, -69 },
  { 0, 107, -113, -114 },
  { 0, 139, 1, -131 },
  { 0, 138, 1, -121 },
  { 0, 128, 1, 11 },
  { 0, 121, 1, 7 },
  { 0, 113, 1, 3 },
  { 0, 111, -70, 1 },
  { 0, 112, -129, -115 },
  { 0, 114, -71, 1 },
  { 0, 116, -72, 1 },
  { 0, 119, -130, -78 },
  { 0, 123, -74, 1 },
  { 0, 124, -116, 1 },
  { 0, 126, -80, -81 },
  { 0, 130, -83, 1 },
  { 0, 133, 1, 3 },
  { 0, 132, 1, -118 },
  { 0, 131, -85, -86 },
  { 0, 134, -119, 1 },
  { 0, 135, -87, 1 },
  { 0, 136, -120, -88 },
  { 0, 15, 1, 7 },
  { 0, 9, 1, -1 },
  { 0, 7, 1, -8 },
  { 0, 4, 1, 2 },
  { 0, 2, -92, -5 },
  { 0, 5, -4, 1 },
  { 0, 6, -7, -91 },
  { 0, 100, 1, 54 },
  { 0, 75, 1, 38 },
  { 0, 64, 1, 29 },
  { 0, 55, 1, 22 },
  { 0, 23, 1, 5 },
  { 0, 22, 1, -10 },
  { 0, 16, -9, 1 },
  { 0, 18, -95, 1 },
  { 0, 21, -96, -123 },
  { 0, 24, -14, 1 },
  { 0, 31, 1, 3 },
  { 0, 29, 1, -100 },
  { 0, 26, -98, -16 },
  { 0, 39, 1, 4 },
  { 0, 38, 1, -25 },
  { 0, 35, 1, -133 },
  { 0, 32, -13, -125 },
  { 0, 40, -127, 1 },
  { 0, 44, -23, 1 },
  { 0, 47, -29, 1 },
  { 0, 48, -30, 1 },
  { 0, 50, -31, 1 },
  { 0, 52, -32, 1 },
  { 0, 53, -34, 1 },
  { 0, 54, -103, -104 },
  { 0, 56, -105, 1 },
  { 0, 60, 1, 3 },
  { 0, 59, 1, -35 },
  { 0, 57, -22, -93 },
  { 0, 61, -106, 1 },
  { 0, 63, -36, -37 },
  { 0, 66, -38, 1 },
  { 0, 71, 1, 5 },
  { 0, 67, -107, 1 },
  { 0, 68, -19, 1 },
  { 0, 69, -128, 1 },
  { 0, 70, -18, -43 },
  { 0, 72, -108, 1 },
  { 0, 73, -44, -42 },
  { 0, 76, -46, 1 },
  { 0, 81, 1, 3 },
  { 0, 80, 1, -41 },
  { 0, 78, -47, -49 },
  { 0, 96, 1, 9 },
  { 0, 94, 1, -58 },
  { 0, 92, 1, -57 },
  { 0, 89, 1, 5 },
  { 0, 83, -40, 1 },
  { 0, 85, -39, 1 },
  { 0, 87, -52, 1 },
  { 0, 88, -136, -132 },
  { 0, 91, -54, -56 },
  { 0, 98, -60, 1 },
  { 0, 99, -61, -62 },
  { 0, 102, -63, 1 },
  { 0, 105, 1, 3 },
  { 0, 104, 1, -67 },
  { 0, 103, -65, -66 },
  { 0, 120, 1, 7 },
  { 0, 118, 1, -76 },
  { 0, 109, 1, 2 },
  { 0, 107, -113, -114 },
  { 0, 114, 1, 2 },
  { 0, 111, -50, -129 },
  { 0, 116, -73, -75 },
  { 0, 121, -78, 1 },
  { 0, 123, -74, 1 },
  { 0, 128, 1, 3 },
  { 0, 126, 1, -81 },
  { 0, 125, -116, -117 },
  { 0, 136, 1, 3 },
  { 0, 134, 1, -120 },
  { 0, 131, -84, -118 },
  { 0, 137, -88, 1 },
  { 0, 138, -89, 1 },
  { 0, 139, -121, 1 },
  { 0, 140, -131, -90 },
  { 0, 16, 1, 8 },
  { 0, 8, 1, -1 },
  { 0, 0, -2, 1 },
  { 0, 4, 1, 3 },
  { 0, 3, 1, -6 },
  { 0, 2, -3, -5 },
  { 0, 5, -4, 1 },
  { 0, 6, -7, -91 },
  { 0, 19, 1, 2 },
  { 0, 17, -95, -94 },
  { 0, 128, 1, 75 },
  { 0, 72, 1, 36 },
  { 0, 71, 1, -108 },
  { 0, 51, 1, 22 },
  { 0, 48, 1, 20 },
  { 0, 36, 1, 10 },
  { 0, 30, 1, 6 },
  { 0, 27, 1, -17 },
  { 0, 20, -96, 1 },
  { 0, 22, -97, 1 },
  { 0, 24, -14, 1 },
  { 0, 25, -98, -15 },
  { 0, 32, -13, 1 },
  { 0, 33, -125, 1 },
  { 0, 34, -12, -126 },
  { 0, 37, -133, 1 },
  { 0, 42, 1, 4 },
  { 0, 38, -24, 1 },
  { 0, 40, -25, 1 },
  { 0, 41, -23, -134 },
  { 0, 43, -26, 1 },
  { 0, 44, -101, 1 },
  { 0, 45, -27, 1 },
  { 0, 46, -28, -29 },
  { 0, 50, -102, -32 },
  { 0, 52, -33, 1 },
  { 0, 56, 1, 3 },
  { 0, 55, 1, -105 },
  { 0, 53, -34, -103 },
  { 0, 58, -22, 1 },
  { 0, 59, -21, 1 },
  { 0, 62, -35, 1 },
  { 0, 68, 1, 3 },
  { 0, 66, 1, -19 },
  { 0, 64, -37, -38 },
  { 0, 69, -128, 1 },
  { 0, 70, -18, -43 },
  { 0, 74, 1, 2 },
  { 0, 73, -44, -42 },
  { 0, 79, 1, 3 },
  { 0, 77, 1, -109 },
  { 0, 76, -45, -47 },
  { 0, 80, -49, 1 },
  { 0, 84, 1, 3 },
  { 0, 82, 1, -110 },
  { 0, 81, -41, -40 },
  { 0, 94, 1, 7 },
  { 0, 92, 1, -57 },
  { 0, 91, 1, -56 },
  { 0, 87, 1, 2 },
  { 0, 86, -51, -53 },
  { 0, 88, -136, 1 },
  { 0, 90, -132, -55 },
  { 0, 121, 1, 18 },
  { 0, 107, 1, 8 },
  { 0, 104, 1, -67 },
  { 0, 95, -58, 1 },
  { 0, 97, -59, 1 },
  { 0, 98, -112, 1 },
  { 0, 100, -61, 1 },
  { 0, 102, -64, 1 },
  { 0, 103, -65, -66 },
  { 0, 113, 1, 3 },
  { 0, 112, 1, -115 },
  { 0, 111, -70, -129 },
  { 0, 114, -71, 1 },
  { 0, 116, -72, 1 },
  { 0, 117, -75, 1 },
  { 0, 118, -130, 1 },
  { 0, 119, -76, 1 },
  { 0, 120, -77, -78 },
  { 0, 123, -74, 1 },
  { 0, 125, -116, 1 },
  { 0, 126, -117, 1 },
  { 0, 127, -81, -82 },
  { 0, 129, -83, 1 },
  { 0, 133, 1, 3 },
  { 0, 131, 1, -86 },
  { 0, 130, -84, -85 },
  { 0, 137, -87, -131 },
  { 0, 16, 1, 5 },
  { 0, 8, 1, -1 },
  { 0, 3, -5, 1 },
  { 0, 4, -6, 1 },
  { 0, 6, -4, -91 },
  { 0, 133, 1, 77 },
  { 0, 127, 1, 72 },
  { 0, 41, 1, 17 },
  { 0, 40, 1, -23 },
  { 0, 39, 1, -127 },
  { 0, 38, 1, -25 },
  { 0, 36, 1, -133 },
  { 0, 24, 1, 6 },
  { 0, 23, 1, -14 },
  { 0, 20, 1, 2 },
  { 0, 18, -95, -122 },
  { 0, 21, -97, 1 },
  { 0, 22, -123, -10 },
  { 0, 27, 1, 2 },
  { 0, 26, -98, -16 },
  { 0, 29, -17, 1 },
  { 0, 32, -100, 1 },
  { 0, 33, -125, 1 },
  { 0, 34, -12, -126 },
  { 0, 98, 1, 38 },
  { 0, 80, 1, 28 },
  { 0, 74, 1, 22 },
  { 0, 69, 1, 18 },
  { 0, 56, 1, 10 },
  { 0, 48, 1, 5 },
  { 0, 47, 1, -30 },
  { 0, 42, -134, 1 },
  { 0, 44, -26, 1 },
  { 0, 46, -27, -29 },
  { 0, 49, -31, 1 },
  { 0, 51, -102, 1 },
  { 0, 53, -34, 1 },
  { 0, 55, -103, -105 },
  { 0, 57, -22, 1 },
  { 0, 62, 1, 3 },
  { 0, 60, 1, -106 },
  { 0, 59, -93, -35 },
  { 0, 64, -135, 1 },
  { 0, 66, -20, 1 },
  { 0, 67, -107, -19 },
  { 0, 70, -18, 1 },
  { 0, 71, -43, 1 },
  { 0, 72, -108, -44 },
  { 0, 75, -45, 1 },
  { 0, 76, -46, 1 },
  { 0, 77, -47, 1 },
  { 0, 78, -109, 1 },
  { 0, 79, -48, -49 },
  { 0, 82, -41, 1 },
  { 0, 96, 1, -60 },
  { 0, 94, 1, 6 },
  { 0, 88, 1, 3 },
  { 0, 86, 1, -136 },
  { 0, 84, -110, -51 },
  { 0, 90, -132, 1 },
  { 0, 92, -55, -57 },
  { 0, 95, -58, -59 },
  { 0, 101, -61, 1 },
  { 0, 105, -66, 1 },
  { 0, 106, -113, 1 },
  { 0, 118, 1, 8 },
  { 0, 116, 1, 6 },
  { 0, 113, 1, 3 },
  { 0, 109, -68, 1 },
  { 0, 111, -50, -129 },
  { 0, 114, -71, 1 },
  { 0, 115, -72, -73 },
  { 0, 117, -75, -130 },
  { 0, 119, -76, 1 },
  { 0, 120, -77, 1 },
  { 0, 121, -78, 1 },
  { 0, 123, -74, 1 },
  { 0, 126, -80, -81 },
  { 0, 128, -82, 1 },
  { 0, 132, 1, -118 },
  { 0, 131, 1, -86 },
  { 0, 129, -83, -84 },
  { 0, 136, -119, 1 },
  { 0, 139, -89, -131 },
  { 0, 16, 1, 5 },
  { 0, 8, 1, -1 },
  { 0, 3, -92, 1 },
  { 0, 6, 1, -91 },
  { 0, 5, -6, -7 },
  { 0, 124, 1, 69 },
  { 0, 116, 1, 62 },
  { 0, 93, 1, 48 },
  { 0, 92, 1, -57 },
  { 0, 29, 1, 7 },
  { 0, 27, 1, -17 },
  { 0, 26, 1, -16 },
  { 0, 19, -94, 1 },
  { 0, 21, -97, 1 },
  { 0, 23, -123, 1 },
  { 0, 25, -98, -15 },
  { 0, 40, 1, 9 },
  { 0, 39, 1, -127 },
  { 0, 38, 1, -25 },
  { 0, 36, 1, -133 },
  { 0, 35, 1, -11 },
  { 0, 34, 1, -126 },
  { 0, 31, 1, 2 },
  { 0, 30, -124, -100 },
  { 0, 32, -13, -125 },
  { 0, 53, 1, 7 },
  { 0, 52, 1, -34 },
  { 0, 49, 1, -33 },
  { 0, 46, 1, -29 },
  { 0, 43, 1, 2 },
  { 0, 41, -23, -134 },
  { 0, 45, -27, -28 },
  { 0, 59, 1, 3 },
  { 0, 57, 1, -93 },
  { 0, 55, -103, -22 },
  { 0, 68, 1, 5 },
  { 0, 67, 1, -19 },
  { 0, 63, -106, 1 },
  { 0, 65, -38, 1 },
  { 0, 66, -20, -107 },
  { 0, 70, 1, 2 },
  { 0, 69, -128, -18 },
  { 0, 75, 1, 3 },
  { 0, 73, 1, -45 },
  { 0, 71, -43, -108 },
  { 0, 85, 1, 7 },
  { 0, 82, 1, 5 },
  { 0, 76, -46, 1 },
  { 0, 77, -47, 1 },
  { 0, 79, -109, 1 },
  { 0, 80, -49, -41 },
  { 0, 84, -39, -51 },
  { 0, 87, -52, 1 },
  { 0, 88, -136, 1 },
  { 0, 90, -132, -56 },
  { 0, 94, -111, 1 },
  { 0, 102, 1, 2 },
  { 0, 97, -58, -62 },
  { 0, 108, 1, 4 },
  { 0, 106, 1, -68 },
  { 0, 104, -66, 1 },
  { 0, 105, -67, -113 },
  { 0, 111, 1, 2 },
  { 0, 110, -69, -50 },
  { 0, 112, -129, 1 },
  { 0, 113, -115, 1 },
  { 0, 114, -71, 1 },
  { 0, 115, -72, -73 },
  { 0, 117, -75, 1 },
  { 0, 120, 1, 2 },
  { 0, 119, -130, -77 },
  { 0, 122, 1, 2 },
  { 0, 121, -78, -74 },
  { 0, 123, -79, -116 },
  { 0, 125, -80, 1 },
  { 0, 140, 1, -90 },
  { 0, 127, 1, 2 },
  { 0, 126, -117, -81 },
  { 0, 132, 1, 4 },
  { 0, 130, 1, -85 },
  { 0, 129, 1, -84 },
  { 0, 128, -82, -83 },
  { 0, 133, -118, 1 },
  { 0, 137, 1, 2 },
  { 0, 135, -119, -120 },
  { 0, 139, -121, -131 },
  { 0, 15, 1, 7 },
  { 0, 9, 1, -1 },
  { 0, 0, -2, 1 },
  { 0, 2, -3, 1 },
  { 0, 4, -6, 1 },
  { 0, 5, -4, 1 },
  { 0, 6, -7, -91 },
  { 0, 21, 1, 3 },
  { 0, 20, 1, -97 },
  { 0, 17, -9, -122 },
  { 0, 62, 1, 27 },
  { 0, 61, 1, -36 },
  { 0, 53, 1, 22 },
  { 0, 51, 1, 20 },
  { 0, 24, 1, 2 },
  { 0, 23, -123, -14 },
  { 0, 45, 1, 13 },
  { 0, 32, 1, 6 },
  { 0, 30, 1, -100 },
  { 0, 25, -98, 1 },
  { 0, 27, -15, 1 },
  { 0, 28, -17, 1 },
  { 0, 29, -99, -124 },
  { 0, 33, -125, 1 },
  { 0, 35, -12, 1 },
  { 0, 37, -133, 1 },
  { 0, 39, -24, 1 },
  { 0, 42, -127, 1 },
  { 0, 44, -101, -27 },
  { 0, 47, -28, 1 },
  { 0, 49, 1, 2 },
  { 0, 48, -30, -31 },
  { 0, 50, -102, -32 },
  { 0, 52, -33, -34 },
  { 0, 55, -103, 1 },
  { 0, 57, -105, 1 },
  { 0, 59, -93, -106 },
  { 0, 70, 1, 6 },
  { 0, 67, 1, -19 },
  { 0, 63, -135, 1 },
  { 0, 65, 1, 2 },
  { 0, 64, -37, -38 },
  { 0, 66, -20, -107 },
  { 0, 73, -44, 1 },
  { 0, 122, 1, 32 },
  { 0, 118, 1, 28 },
  { 0, 99, 1, 17 },
  { 0, 97, 1, -112 },
  { 0, 96, 1, -60 },
  { 0, 93, 1, 12 },
  { 0, 78, 1, 2 },
  { 0, 75, -42, -46 },
  { 0, 81, -41, 1 },
  { 0, 83, -40, 1 },
  { 0, 85, -39, 1 },
  { 0, 86, -52, 1 },
  { 0, 87, -53, 1 },
  { 0, 88, -136, 1 },
  { 0, 89, -132, 1 },
  { 0, 90, -54, 1 },
  { 0, 92, -55, -57 },
  { 0, 94, -111, 1 },
  { 0, 95, -58, -59 },
  { 0, 100, -62, 1 },
  { 0, 101, -63, 1 },
  { 0, 102, -64, 1 },
  { 0, 106, 1, 2 },
  { 0, 104, -65, -113 },
  { 0, 109, -68, 1 },
  { 0, 111, -50, 1 },
  { 0, 112, -129, 1 },
  { 0, 114, -115, 1 },
  { 0, 116, -72, -75 },
  { 0, 119, -76, 1 },
  { 0, 120, -77, 1 },
  { 0, 121, -78, -74 },
  { 0, 123, -79, 1 },
  { 0, 125, 1, 2 },
  { 0, 124, -116, -80 },
  { 0, 136, 1, 8 },
  { 0, 134, 1, 6 },
  { 0, 128, 1, 3 },
  { 0, 127, 1, -82 },
  { 0, 126, -117, -81 },
  { 0, 130, -83, 1 },
  { 0, 132, -86, -118 },
  { 0, 135, -87, -120 },
  { 0, 138, -88, -121 },
  { 0, 16, 1, 5 },
  { 0, 8, 1, -1 },
  { 0, 6, 1, -91 },
  { 0, 4, 1, -4 },
  { 0, 1, -2, -5 },
  { 0, 118, 1, 65 },
  { 0, 109, 1, 58 },
  { 0, 18, -94, 1 },
  { 0, 58, 1, 25 },
  { 0, 57, 1, -93 },
  { 0, 55, 1, -105 },
  { 0, 48, 1, 18 },
  { 0, 34, 1, 9 },
  { 0, 32, 1, -125 },
  { 0, 20, -122, 1 },
  { 0, 22, -123, 1 },
  { 0, 24, -10, 1 },
  { 0, 25, -98, 1 },
  { 0, 26, -15, 1 },
  { 0, 28, -16, 1 },
  { 0, 30, -99, -100 },
  { 0, 35, -126, 1 },
  { 0, 36, -11, 1 },
  { 0, 38, -133, 1 },
  { 0, 41, -127, 1 },
  { 0, 42, -134, 1 },
  { 0, 44, -26, 1 },
  { 0, 45, -27, 1 },
  { 0, 46, -28, -29 },
  { 0, 49, -31, 1 },
  { 0, 50, -102, 1 },
  { 0, 52, -32, 1 },
  { 0, 54, -34, -104 },
  { 0, 60, -21, 1 },
  { 0, 71, 1, 10 },
  { 0, 70, 1, -43 },
  { 0, 69, 1, -18 },
  { 0, 68, 1, -128 },
  { 0, 67, 1, -19 },
  { 0, 62, 1, 2 },
  { 0, 61, -106, -36 },
  { 0, 65, 1, 2 },
  { 0, 63, -135, -37 },
  { 0, 66, -20, -107 },
  { 0, 77, 1, 4 },
  { 0, 76, 1, -47 },
  { 0, 74, 1, -45 },
  { 0, 73, -108, -42 },
  { 0, 89, 1, 5 },
  { 0, 87, 1, -136 },
  { 0, 82, 1, 2 },
  { 0, 79, -109, -49 },
  { 0, 85, -51, -52 },
  { 0, 100, 1, 5 },
  { 0, 99, 1, -62 },
  { 0, 97, 1, -112 },
  { 0, 93, -55, 1 },
  { 0, 96, -58, -60 },
  { 0, 104, 1, 3 },
  { 0, 103, 1, -66 },
  { 0, 101, -63, -64 },
  { 0, 106, 1, 2 },
  { 0, 105, -67, -113 },
  { 0, 107, -68, -114 },
  { 0, 110, -70, 1 },
  { 0, 112, -50, 1 },
  { 0, 113, -115, 1 },
  { 0, 115, 1, 2 },
  { 0, 114, -71, -72 },
  { 0, 116, -73, -75 },
  { 0, 119, -76, 1 },
  { 0, 121, -77, 1 },
  { 0, 124, 1, 3 },
  { 0, 123, 1, -116 },
  { 0, 122, -74, -79 },
  { 0, 126, 1, 2 },
  { 0, 125, -80, -117 },
  { 0, 133, 1, 5 },
  { 0, 130, 1, -85 },
  { 0, 127, -81, 1 },
  { 0, 128, -82, 1 },
  { 0, 129, -83, -84 },
  { 0, 137, -120, 1 },
  { 0, 138, -89, 1 },
  { 0, 139, -121, 1 },
  { 0, 140, -131, -90 },
  { 0, 139, 1, 87 },
  { 0, 15, 1, 8 },
  { 0, 9, 1, -1 },
  { 0, 2, 1, 3 },
  { 0, 1, 1, -92 },
  { 0, 0, -2, -3 },
  { 0, 3, -5, 1 },
  { 0, 5, -6, 1 },
  { 0, 7, -7, -8 },
  { 0, 18, 1, 3 },
  { 0, 17, 1, -94 },
  { 0, 16, -9, -95 },
  { 0, 22, 1, 3 },
  { 0, 21, 1, -123 },
  { 0, 20, -122, -97 },
  { 0, 25, -10, 1 },
  { 0, 28, -17, 1 },
  { 0, 133, 1, 65 },
  { 0, 32, 1, 3 },
  { 0, 31, 1, -13 },
  { 0, 29, -99, -124 },
  { 0, 53, 1, 12 },
  { 0, 50, 1, -33 },
  { 0, 47, 1, 9 },
  { 0, 44, 1, 7 },
  { 0, 36, 1, 3 },
  { 0, 35, 1, -11 },
  { 0, 34, -125, -126 },
  { 0, 40, 1, 2 },
  { 0, 38, -133, -25 },
  { 0, 41, -23, -134 },
  { 0, 46, -28, -29 },
  { 0, 48, -30, -31 },
  { 0, 67, 1, 7 },
  { 0, 66, 1, -107 },
  { 0, 65, 1, -20 },
  { 0, 62, 1, -38 },
  { 0, 59, 1, -35 },
  { 0, 55, -103, 1 },
  { 0, 57, -22, -93 },
  { 0, 101, 1, 24 },
  { 0, 97, 1, 21 },
  { 0, 96, 1, -60 },
  { 0, 95, 1, -59 },
  { 0, 89, 1, 13 },
  { 0, 86, 1, 11 },
  { 0, 76, 1, 5 },
  { 0, 74, 1, -45 },
  { 0, 69, -19, 1 },
  { 0, 72, -43, 1 },
  { 0, 73, -44, -42 },
  { 0, 78, -109, 1 },
  { 0, 80, -48, 1 },
  { 0, 82, -40, 1 },
  { 0, 84, -110, 1 },
  { 0, 85, -51, -52 },
  { 0, 87, -53, -136 },
  { 0, 90, -54, 1 },
  { 0, 91, -55, 1 },
  { 0, 92, -56, 1 },
  { 0, 93, -57, 1 },
  { 0, 94, -111, -58 },
  { 0, 98, -112, 1 },
  { 0, 100, -61, -63 },
  { 0, 103, -64, 1 },
  { 0, 105, -66, 1 },
  { 0, 112, 1, 5 },
  { 0, 111, 1, -129 },
  { 0, 109, 1, -70 },
  { 0, 106, -113, 1 },
  { 0, 108, -68, -69 },
  { 0, 113, -115, 1 },
  { 0, 121, 1, 5 },
  { 0, 114, -71, 1 },
  { 0, 115, -72, 1 },
  { 0, 118, -73, 1 },
  { 0, 120, -77, -78 },
  { 0, 122, -74, 1 },
  { 0, 124, -79, 1 },
  { 0, 126, -80, 1 },
  { 0, 128, -81, 1 },
  { 0, 131, -84, -118 },
  { 0, 134, -119, 1 },
  { 0, 135, -87, 1 },
  { 0, 136, -120, 1 },
  { 0, 137, -88, 1 },
  { 0, 138, -89, -121 },
  { 0, 140, -131, -90 },
  { 0, 15, 1, 6 },
  { 0, 7, 1, -1 },
  { 0, 0, -2, 1 },
  { 0, 1, -3, 1 },
  { 0, 2, -92, 1 },
  { 0, 3, -5, -6 },
  { 0, 34, 1, 13 },
  { 0, 33, 1, -12 },
  { 0, 32, 1, -125 },
  { 0, 30, 1, 9 },
  { 0, 29, 1, -124 },
  { 0, 25, 1, 5 },
  { 0, 17, -9, 1 },
  { 0, 19, -122, 1 },
  { 0, 22, -96, 1 },
  { 0, 24, -14, -98 },
  { 0, 27, -15, 1 },
  { 0, 28, -17, -99 },
  { 0, 31, -100, -13 },
  { 0, 125, 1, 55 },
  { 0, 106, 1, 44 },
  { 0, 103, 1, -66 },
  { 0, 70, 1, 25 },
  { 0, 68, 1, -128 },
  { 0, 59, 1, 17 },
  { 0, 37, 1, 3 },
  { 0, 36, 1, -133 },
  { 0, 35, -126, -11 },
  { 0, 40, 1, 3 },
  { 0, 39, 1, -127 },
  { 0, 38, -24, -25 },
  { 0, 48, 1, 4 },
  { 0, 46, 1, -30 },
  { 0, 43, 1, -27 },
  { 0, 41, -23, -134 },
  { 0, 51, 1, 2 },
  { 0, 50, -31, -32 },
  { 0, 54, 1, 2 },
  { 0, 52, -33, -34 },
  { 0, 56, -104, 1 },
  { 0, 58, -93, -21 },
  { 0, 60, -35, 1 },
  { 0, 61, -106, 1 },
  { 0, 64, 1, 2 },
  { 0, 63, -36, -37 },
  { 0, 66, -38, 1 },
  { 0, 67, -107, -19 },
  { 0, 71, -43, 1 },
  { 0, 75, 1, 4 },
  { 0, 74, 1, -45 },
  { 0, 72, -108, 1 },
  { 0, 73, -44, -42 },
  { 0, 76, -46, 1 },
  { 0, 77, -47, 1 },
  { 0, 101, 1, 9 },
  { 0, 100, 1, -63 },
  { 0, 78, -109, 1 },
  { 0, 80, -48, 1 },
  { 0, 84, -40, 1 },
  { 0, 87, -53, 1 },
  { 0, 91, -136, 1 },
  { 0, 96, -58, 1 },
  { 0, 98, -60, -62 },
  { 0, 102, -64, -65 },
  { 0, 108, -114, 1 },
  { 0, 109, -69, 1 },
  { 0, 110, -70, 1 },
  { 0, 111, -50, 1 },
  { 0, 113, -129, 1 },
  { 0, 116, -71, 1 },
  { 0, 118, -130, 1 },
  { 0, 120, -76, 1 },
  { 0, 122, -74, 1 },
  { 0, 123, -79, -116 },
  { 0, 126, -117, 1 },
  { 0, 130, 1, 2 },
  { 0, 128, -81, -83 },
  { 0, 134, 1, 3 },
  { 0, 132, 1, -118 },
  { 0, 131, -85, -86 },
  { 0, 135, -87, 1 },
  { 0, 136, -120, 1 },
  { 0, 138, -88, 1 },
  { 0, 139, -121, -131 },
  { 0, 17, 1, 8 },
  { 0, 8, 1, -1 },
  { 0, 7, 1, -8 },
  { 0, 4, 1, 4 },
  { 0, 2, 1, -5 },
  { 0, 0, -2, 1 },
  { 0, 1, -3, -92 },
  { 0, 6, -7, -91 },
  { 0, 135, 1, 72 },
  { 0, 130, 1, 70 },
  { 0, 109, 1, 56 },
  { 0, 88, 1, 44 },
  { 0, 83, 1, 41 },
  { 0, 65, 1, 31 },
  { 0, 54, 1, 23 },
  { 0, 43, 1, 15 },
  { 0, 39, 1, 12 },
  { 0, 32, 1, 8 },
  { 0, 19, -122, 1 },
  { 0, 21, -96, 1 },
  { 0, 22, -123, 1 },
  { 0, 24, -10, 1 },
  { 0, 26, -98, 1 },
  { 0, 28, -17, 1 },
  { 0, 30, -99, -100 },
  { 0, 35, -12, 1 },
  { 0, 36, -11, 1 },
  { 0, 38, -133, -25 },
  { 0, 41, -127, 1 },
  { 0, 42, -134, -26 },
  { 0, 44, -101, 1 },
  { 0, 49, 1, 3 },
  { 0, 47, 1, -30 },
  { 0, 45, -27, -28 },
  { 0, 51, -102, 1 },
  { 0, 52, -33, 1 },
  { 0, 53, -34, -103 },
  { 0, 55, -104, 1 },
  { 0, 60, 1, 4 },
  { 0, 58, 1, -21 },
  { 0, 56, -105, 1 },
  { 0, 57, -22, -93 },
  { 0, 62, -36, 1 },
  { 0, 63, -135, -37 },
  { 0, 67, -20, 1 },
  { 0, 72, 1, 3 },
  { 0, 71, 1, -108 },
  { 0, 69, -128, -18 },
  { 0, 77, 1, 2 },
  { 0, 73, -44, -42 },
  { 0, 80, -49, 1 },
  { 0, 81, -41, 1 },
  { 0, 82, -40, -110 },
  { 0, 85, -39, 1 },
  { 0, 86, -52, -53 },
  { 0, 91, -54, 1 },
  { 0, 94, 1, 2 },
  { 0, 93, -57, -111 },
  { 0, 97, 1, 2 },
  { 0, 96, -58, -60 },
  { 0, 107, 1, 5 },
  { 0, 102, 1, 3 },
  { 0, 100, 1, -63 },
  { 0, 99, -112, -62 },
  { 0, 105, -66, -68 },
  { 0, 108, -114, -69 },
  { 0, 110, -70, 1 },
  { 0, 114, 1, 3 },
  { 0, 112, 1, -115 },
  { 0, 111, -50, -129 },
  { 0, 115, -72, 1 },
  { 0, 116, -73, 1 },
  { 0, 118, 1, 2 },
  { 0, 117, -75, -130 },
  { 0, 119, -76, 1 },
  { 0, 121, -77, 1 },
  { 0, 123, -74, 1 },
  { 0, 125, -116, 1 },
  { 0, 128, -81, -83 },
  { 0, 133, -86, -87 },
  { 0, 136, -120, 1 },
  { 0, 138, -88, 1 },
  { 0, 139, -121, 1 },
  { 0, 140, -131, -90 },
  { 0, 15, 1, 7 },
  { 0, 7, 1, -1 },
  { 0, 0, -2, 1 },
  { 0, 5, 1, -7 },
  { 0, 3, 1, 2 },
  { 0, 2, -3, -5 },
  { 0, 4, -6, -4 },
  { 0, 138, 1, 77 },
  { 0, 20, 1, 5 },
  { 0, 19, 1, -96 },
  { 0, 16, -9, 1 },
  { 0, 17, -95, 1 },
  { 0, 18, -94, -122 },
  { 0, 33, 1, 10 },
  { 0, 31, 1, -13 },
  { 0, 28, 1, 7 },
  { 0, 24, 1, 4 },
  { 0, 21, -97, 1 },
  { 0, 22, -123, 1 },
  { 0, 23, -10, -14 },
  { 0, 25, -98, 1 },
  { 0, 27, -15, -17 },
  { 0, 30, -99, -100 },
  { 0, 137, 1, -89 },
  { 0, 64, 1, 15 },
  { 0, 63, 1, -37 },
  { 0, 62, 1, -135 },
  { 0, 46, 1, 6 },
  { 0, 44, 1, -28 },
  { 0, 35, -12, 1 },
  { 0, 37, -133, 1 },
  { 0, 39, -24, 1 },
  { 0, 41, -127, -134 },
  { 0, 49, -29, 1 },
  { 0, 56, 1, 2 },
  { 0, 53, -33, -103 },
  { 0, 58, -93, 1 },
  { 0, 59, -21, 1 },
  { 0, 61, -35, -36 },
  { 0, 82, 1, 11 },
  { 0, 81, 1, -40 },
  { 0, 77, 1, 8 },
  { 0, 74, 1, -45 },
  { 0, 73, 1, -42 },
  { 0, 69, 1, 3 },
  { 0, 65, -38, 1 },
  { 0, 66, -20, -107 },
  { 0, 71, -43, 1 },
  { 0, 72, -108, -44 },
  { 0, 79, -48, -49 },
  { 0, 99, 1, 9 },
  { 0, 96, 1, -60 },
  { 0, 86, 1, 3 },
  { 0, 85, 1, -52 },
  { 0, 83, -110, -39 },
  { 0, 89, 1, 2 },
  { 0, 88, -53, -132 },
  { 0, 91, -54, 1 },
  { 0, 94, -57, -59 },
  { 0, 115, 1, 9 },
  { 0, 113, 1, -71 },
  { 0, 106, 1, 3 },
  { 0, 104, 1, -67 },
  { 0, 102, -64, -65 },
  { 0, 108, 1, 2 },
  { 0, 107, -68, -114 },
  { 0, 109, -69, 1 },
  { 0, 111, -70, -115 },
  { 0, 125, 1, 8 },
  { 0, 124, 1, -80 },
  { 0, 122, 1, -79 },
  { 0, 121, 1, -74 },
  { 0, 116, -73, 1 },
  { 0, 117, -75, 1 },
  { 0, 118, -130, 1 },
  { 0, 119, -76, -77 },
  { 0, 127, 1, 2 },
  { 0, 126, -117, -81 },
  { 0, 130, 1, 2 },
  { 0, 128, -82, -83 },
  { 0, 131, -85, 1 },
  { 0, 132, -86, 1 },
  { 0, 134, -118, 1 },
  { 0, 135, -87, -120 },
  { 0, 140, -121, -90 },
  { 0, 17, 1, 9 },
  { 0, 8, 1, -1 },
  { 0, 0, -2, 1 },
  { 0, 1, -3, 1 },
  { 0, 2, -92, 1 },
  { 0, 3, -5, 1 },
  { 0, 4, -6, 1 },
  { 0, 5, -4, 1 },
  { 0, 6, -7, -91 },
  { 0, 129, 1, 77 },
  { 0, 126, 1, 75 },
  { 0, 125, 1, -117 },
  { 0, 124, 1, -80 },
  { 0, 24, 1, 5 },
  { 0, 23, 1, -14 },
  { 0, 20, 1, 2 },
  { 0, 19, -122, -96 },
  { 0, 22, -97, -10 },
  { 0, 25, -98, 1 },
  { 0, 113, 1, 58 },
  { 0, 104, 1, 52 },
  { 0, 103, 1, -66 },
  { 0, 29, 1, 3 },
  { 0, 28, 1, -99 },
  { 0, 27, -15, -17 },
  { 0, 58, 1, 20 },
  { 0, 56, 1, -93 },
  { 0, 52, 1, 16 },
  { 0, 51, 1, -33 },
  { 0, 43, 1, 10 },
  { 0, 39, 1, 6 },
  { 0, 30, -124, 1 },
  { 0, 32, -100, 1 },
  { 0, 33, -125, 1 },
  { 0, 35, -12, 1 },
  { 0, 37, -11, -25 },
  { 0, 40, -127, 1 },
  { 0, 41, -23, 1 },
  { 0, 42, -134, -26 },
  { 0, 44, -101, 1 },
  { 0, 46, -27, 1 },
  { 0, 48, -30, 1 },
  { 0, 49, -31, -102 },
  { 0, 53, -34, 1 },
  { 0, 54, -103, -104 },
  { 0, 65, 1, 4 },
  { 0, 64, 1, -38 },
  { 0, 62, 1, -37 },
  { 0, 59, -21, -35 },
  { 0, 73, 1, 3 },
  { 0, 70, 1, -44 },
  { 0, 67, -20, -19 },
  { 0, 85, 1, 8 },
  { 0, 83, 1, -39 },
  { 0, 81, 1, -40 },
  { 0, 79, 1, 4 },
  { 0, 74, -42, 1 },
  { 0, 75, -45, 1 },
  { 0, 77, -46, -109 },
  { 0, 80, -49, -41 },
  { 0, 87, 1, 2 },
  { 0, 86, -52, -53 },
  { 0, 94, 1, 7 },
  { 0, 88, -136, 1 },
  { 0, 89, -132, 1 },
  { 0, 90, -54, 1 },
  { 0, 91, -55, 1 },
  { 0, 92, -56, 1 },
  { 0, 93, -57, -111 },
  { 0, 97, -58, 1 },
  { 0, 99, -61, 1 },
  { 0, 101, -62, -64 },
  { 0, 105, -67, 1 },
  { 0, 107, -113, 1 },
  { 0, 109, 1, 2 },
  { 0, 108, -114, -69 },
  { 0, 111, -70, -129 },
  { 0, 114, -71, 1 },
  { 0, 115, -72, 1 },
  { 0, 120, 1, 3 },
  { 0, 117, -73, 1 },
  { 0, 118, -130, -76 },
  { 0, 121, -78, 1 },
  { 0, 122, -74, 1 },
  { 0, 123, -79, -116 },
  { 0, 128, -81, -83 },
  { 0, 130, -84, 1 },
  { 0, 138, 1, 4 },
  { 0, 136, 1, -89 },
  { 0, 132, -85, 1 },
  { 0, 133, -118, -119 },
  { 0, 139, -121, 1 },
  { 0, 140, -131, -90 },
  { 0, 16, 1, 5 },
  { 0, 9, 1, -1 },
  { 0, 1, -2, 1 },
  { 0, 5, -5, 1 },
  { 0, 7, -91, -8 },
  { 0, 131, 1, 72 },
  { 0, 22, 1, 4 },
  { 0, 20, 1, -97 },
  { 0, 18, -95, 1 },
  { 0, 19, -122, -96 },
  { 0, 71, 1, 31 },
  { 0, 67, 1, -19 },
  { 0, 24, -10, 1 },
  { 0, 45, 1, 16 },
  { 0, 42, 1, 14 },
  { 0, 36, 1, 9 },
  { 0, 35, 1, -11 },
  { 0, 33, 1, 6 },
  { 0, 25, -98, 1 },
  { 0, 26, -15, 1 },
  { 0, 28, -16, 1 },
  { 0, 30, -124, 1 },
  { 0, 31, -100, -13 },
  { 0, 34, -12, -126 },
  { 0, 37, -133, 1 },
  { 0, 39, 1, 2 },
  { 0, 38, -24, -25 },
  { 0, 41, -127, -134 },
  { 0, 43, -26, -101 },
  { 0, 47, -29, 1 },
  { 0, 64, 1, 10 },
  { 0, 54, 1, 4 },
  { 0, 52, 1, -34 },
  { 0, 49, -30, 1 },
  { 0, 51, -32, -33 },
  { 0, 56, -105, 1 },
  { 0, 58, -22, 1 },
  { 0, 59, -21, 1 },
  { 0, 60, -35, 1 },
  { 0, 62, -106, -135 },
  { 0, 66, -38, -107 },
  { 0, 75, 1, 2 },
  { 0, 74, -42, -45 },
  { 0, 77, 1, 2 },
  { 0, 76, -46, -47 },
  { 0, 104, 1, 16 },
  { 0, 93, 1, 11 },
  { 0, 89, 1, 8 },
  { 0, 81, 1, 3 },
  { 0, 79, 1, -49 },
  { 0, 78, -109, -48 },
  { 0, 84, 1, 2 },
  { 0, 83, -110, -39 },
  { 0, 86, -51, 1 },
  { 0, 88, -136, -132 },
  { 0, 90, -54, 1 },
  { 0, 91, -55, -56 },
  { 0, 96, -58, 1 },
  { 0, 99, -112, 1 },
  { 0, 101, -62, 1 },
  { 0, 102, -64, -65 },
  { 0, 106, -67, 1 },
  { 0, 110, 1, 3 },
  { 0, 109, 1, -70 },
  { 0, 108, -114, -69 },
  { 0, 112, 1, 2 },
  { 0, 111, -50, -129 },
  { 0, 123, 1, 6 },
  { 0, 114, -115, 1 },
  { 0, 117, -73, 1 },
  { 0, 118, -130, 1 },
  { 0, 119, -76, 1 },
  { 0, 121, -77, -79 },
  { 0, 125, -116, 1 },
  { 0, 127, -117, 1 },
  { 0, 129, -83, 1 },
  { 0, 130, -84, -85 },
  { 0, 132, -86, 1 },
  { 0, 133, -118, 1 },
  { 0, 140, 1, -90 },
  { 0, 138, 1, -131 },
  { 0, 135, 1, -120 },
  { 0, 134, -119, -87 },
  { 0, 16, 1, 6 },
  { 0, 10, 1, -1 },
  { 0, 1, -2, 1 },
  { 0, 4, -5, 1 },
  { 0, 7, 1, -8 },
  { 0, 5, -4, -7 },
  { 0, 131, 1, 69 },
  { 0, 121, 1, 64 },
  { 0, 114, 1, 58 },
  { 0, 34, 1, 11 },
  { 0, 32, 1, -125 },
  { 0, 22, 1, 4 },
  { 0, 21, 1, -123 },
  { 0, 19, 1, -96 },
  { 0, 18, -94, -122 },
  { 0, 25, 1, 2 },
  { 0, 23, -10, -14 },
  { 0, 28, 1, 2 },
  { 0, 26, -15, -16 },
  { 0, 30, -124, -100 },
  { 0, 92, 1, 35 },
  { 0, 84, 1, 29 },
  { 0, 58, 1, 15 },
  { 0, 52, 1, 12 },
  { 0, 46, 1, 7 },
  { 0, 45, 1, -28 },
  { 0, 36, -11, 1 },
  { 0, 38, -133, 1 },
  { 0, 39, -25, 1 },
  { 0, 40, -127, 1 },
  { 0, 42, -23, -101 },
  { 0, 47, -29, 1 },
  { 0, 48, -30, 1 },
  { 0, 49, -31, 1 },
  { 0, 50, -102, -32 },
  { 0, 54, -103, 1 },
  { 0, 55, -104, -105 },
  { 0, 61, -35, 1 },
  { 0, 65, 1, 3 },
  { 0, 64, 1, -38 },
  { 0, 63, -135, -37 },
  { 0, 70, 1, 3 },
  { 0, 67, 1, -19 },
  { 0, 66, -20, -107 },
  { 0, 76, 1, 2 },
  { 0, 73, -108, -42 },
  { 0, 79, -48, 1 },
  { 0, 80, -49, 1 },
  { 0, 81, -41, 1 },
  { 0, 82, -40, -110 },
  { 0, 85, -51, 1 },
  { 0, 86, -52, 1 },
  { 0, 87, -53, 1 },
  { 0, 88, -136, 1 },
  { 0, 90, -132, -56 },
  { 0, 93, -57, 1 },
  { 0, 95, 1, 2 },
  { 0, 94, -111, -58 },
  { 0, 96, -59, 1 },
  { 0, 100, 1, 2 },
  { 0, 98, -60, -61 },
  { 0, 108, 1, 3 },
  { 0, 105, 1, -68 },
  { 0, 103, -64, -66 },
  { 0, 110, -69, 1 },
  { 0, 113, -129, -71 },
  { 0, 115, -72, 1 },
  { 0, 117, -73, 1 },
  { 0, 118, -130, 1 },
  { 0, 119, -76, 1 },
  { 0, 120, -77, -78 },
  { 0, 122, -74, 1 },
  { 0, 123, -79, 1 },
  { 0, 125, -116, 1 },
  { 0, 128, -117, -85 },
  { 0, 133, -86, 1 },
  { 0, 134, -119, 1 },
  { 0, 135, -87, 1 },
  { 0, 138, -120, -131 },
  { 0, 15, 1, 9 },
  { 0, 8, 1, -1 },
  { 0, 0, -2, 1 },
  { 0, 1, -3, 1 },
  { 0, 3, 1, 2 },
  { 0, 2, -92, -5 },
  { 0, 6, 1, 2 },
  { 0, 4, -6, -4 },
  { 0, 7, -91, -8 },
  { 0, 132, 1, 74 },
  { 0, 101, 1, 56 },
  { 0, 22, 1, 3 },
  { 0, 20, 1, -123 },
  { 0, 17, -9, -122 },
  { 0, 39, 1, 8 },
  { 0, 38, 1, -25 },
  { 0, 37, 1, -24 },
  { 0, 32, 1, -11 },
  { 0, 27, 1, 3 },
  { 0, 25, 1, -15 },
  { 0, 23, -10, -14 },
  { 0, 28, -17, -99 },
  { 0, 52, 1, 9 },
  { 0, 50, 1, 7 },
  { 0, 49, 1, -102 },
  { 0, 47, 1, -31 },
  { 0, 41, -127, 1 },
  { 0, 42, -134, 1 },
  { 0, 43, -26, 1 },
  { 0, 45, -101, -28 },
  { 0, 51, -32, -33 },
  { 0, 58, 1, 5 },
  { 0, 56, 1, -22 },
  { 0, 55, 1, -105 },
  { 0, 54, 1, -104 },
  { 0, 53, -34, -103 },
  { 0, 73, 1, 10 },
  { 0, 72, 1, -44 },
  { 0, 71, 1, -108 },
  { 0, 67, 1, 5 },
  { 0, 65, 1, -107 },
  { 0, 59, -21, 1 },
  { 0, 61, -35, 1 },
  { 0, 63, -135, -37 },
  { 0, 69, -19, 1 },
  { 0, 70, -18, -43 },
  { 0, 77, 1, 3 },
  { 0, 75, 1, -46 },
  { 0, 74, -42, -45 },
  { 0, 78, -109, 1 },
  { 0, 93, 1, 12 },
  { 0, 91, 1, 10 },
  { 0, 79, -48, 1 },
  { 0, 80, -49, 1 },
  { 0, 81, -41, 1 },
  { 0, 83, -40, 1 },
  { 0, 85, -51, 1 },
  { 0, 86, -52, 1 },
  { 0, 87, -53, 1 },
  { 0, 88, -136, 1 },
  { 0, 90, -132, -55 },
  { 0, 92, -56, -57 },
  { 0, 94, -111, 1 },
  { 0, 97, -58, 1 },
  { 0, 99, -61, 1 },
  { 0, 100, -62, -63 },
  { 0, 105, 1, 3 },
  { 0, 103, 1, -66 },
  { 0, 102, -64, -65 },
  { 0, 109, 1, 3 },
  { 0, 108, 1, -69 },
  { 0, 107, -113, -114 },
  { 0, 111, 1, 2 },
  { 0, 110, -70, -50 },
  { 0, 126, 1, 5 },
  { 0, 124, 1, -80 },
  { 0, 115, -129, 1 },
  { 0, 120, -76, 1 },
  { 0, 122, -78, -79 },
  { 0, 128, -81, 1 },
  { 0, 129, -83, 1 },
  { 0, 130, -84, 1 },
  { 0, 131, -85, -86 },
  { 0, 134, -118, 1 },
  { 0, 135, -87, 1 },
  { 0, 136, -120, 1 },
  { 0, 137, -88, -89 },
  { 0, 15, 1, 8 },
  { 0, 8, 1, -1 },
  { 0, 7, 1, -8 },
  { 0, 6, 1, -91 },
  { 0, 1, 1, 2 },
  { 0, 0, -2, -3 },
  { 0, 2, -92, 1 },
  { 0, 4, -5, -7 },
  { 0, 115, 1, 64 },
  { 0, 31, 1, 11 },
  { 0, 30, 1, -100 },
  { 0, 23, 1, 5 },
  { 0, 16, -9, 1 },
  { 0, 17, -95, 1 },
  { 0, 18, -94, 1 },
  { 0, 21, -122, -10 },
  { 0, 24, -14, 1 },
  { 0, 25, -98, 1 },
  { 0, 26, -15, 1 },
  { 0, 28, -16, -99 },
  { 0, 39, 1, 5 },
  { 0, 37, 1, -25 },
  { 0, 33, 1, 2 },
  { 0, 32, -13, -125 },
  { 0, 34, -12, -126 },
  { 0, 66, 1, 18 },
  { 0, 64, 1, -20 },
  { 0, 61, 1, -36 },
  { 0, 58, 1, 13 },
  { 0, 57, 1, -93 },
  { 0, 46, 1, 4 },
  { 0, 43, 1, -101 },
  { 0, 42, 1, -26 },
  { 0, 41, -127, -134 },
  { 0, 52, 1, 4 },
  { 0, 48, -30, 1 },
  { 0, 49, -31, 1 },
  { 0, 50, -102, -32 },
  { 0, 53, -34, 1 },
  { 0, 54, -103, 1 },
  { 0, 55, -104, -105 },
  { 0, 59, -21, 1 },
  { 0, 60, -35, -106 },
  { 0, 69, 1, 2 },
  { 0, 68, -107, -128 },
  { 0, 86, 1, 11 },
  { 0, 84, 1, -51 },
  { 0, 82, 1, -110 },
  { 0, 81, 1, -40 },
  { 0, 79, 1, 6 },
  { 0, 76, 1, 4 },
  { 0, 73, 1, 2 },
  { 0, 71, -18, -108 },
  { 0, 75, -45, -46 },
  { 0, 77, -47, -109 },
  { 0, 80, -49, -41 },
  { 0, 90, 1, 2 },
  { 0, 88, -136, -132 },
  { 0, 92, 1, 2 },
  { 0, 91, -55, -56 },
  { 0, 99, 1, 5 },
  { 0, 98, 1, -61 },
  { 0, 94, -57, 1 },
  { 0, 95, -58, 1 },
  { 0, 97, -59, -112 },
  { 0, 104, 1, 2 },
  { 0, 101, -62, -65 },
  { 0, 105, -67, 1 },
  { 0, 106, -113, 1 },
  { 0, 109, -68, 1 },
  { 0, 112, -50, 1 },
  { 0, 113, -115, -71 },
  { 0, 116, -73, 1 },
  { 0, 120, 1, 3 },
  { 0, 118, 1, -76 },
  { 0, 117, -75, -130 },
  { 0, 124, 1, 2 },
  { 0, 122, -78, -79 },
  { 0, 125, -80, 1 },
  { 0, 127, 1, 2 },
  { 0, 126, -117, -81 },
  { 0, 129, -82, 1 },
  { 0, 131, -84, 1 },
  { 0, 134, -118, 1 },
  { 0, 137, -87, -131 },
  { 0, 15, 1, 6 },
  { 0, 8, 1, -1 },
  { 0, 3, 1, 2 },
  { 0, 2, -92, -5 },
  { 0, 4, -6, 1 },
  { 0, 5, -4, -7 },
  { 0, 18, 1, 2 },
  { 0, 17, -9, -94 },
  { 0, 70, 1, 32 },
  { 0, 66, 1, 29 },
  { 0, 59, 1, 23 },
  { 0, 57, 1, -93 },
  { 0, 54, 1, -105 },
  { 0, 22, 1, 3 },
  { 0, 21, 1, -123 },
  { 0, 19, -122, -96 },
  { 0, 29, 1, 5 },
  { 0, 26, 1, -16 },
  { 0, 25, 1, -15 },
  { 0, 23, -10, 1 },
  { 0, 24, -14, -98 },
  { 0, 34, 1, 2 },
  { 0, 33, -13, -12 },
  { 0, 39, 1, 3 },
  { 0, 37, 1, -25 },
  { 0, 35, -126, -11 },
  { 0, 40, -127, 1 },
  { 0, 41, -23, 1 },
  { 0, 43, -134, 1 },
  { 0, 46, -27, 1 },
  { 0, 48, -30, 1 },
  { 0, 49, -31, 1 },
  { 0, 51, -102, -33 },
  { 0, 61, -35, 1 },
  { 0, 62, -36, 1 },
  { 0, 63, -135, 1 },
  { 0, 64, -37, 1 },
  { 0, 65, -38, -20 },
  { 0, 67, -107, 1 },
  { 0, 68, -19, -128 },
  { 0, 97, 1, 19 },
  { 0, 96, 1, -60 },
  { 0, 94, 1, -59 },
  { 0, 91, 1, -56 },
  { 0, 82, 1, 10 },
  { 0, 78, 1, 7 },
  { 0, 76, 1, 5 },
  { 0, 74, 1, -45 },
  { 0, 71, -43, 1 },
  { 0, 72, -108, 1 },
  { 0, 73, -44, -42 },
  { 0, 77, -47, -109 },
  { 0, 80, -48, 1 },
  { 0, 81, -41, -40 },
  { 0, 84, -110, 1 },
  { 0, 85, -51, 1 },
  { 0, 86, -52, 1 },
  { 0, 87, -53, 1 },
  { 0, 89, -136, -55 },
  { 0, 105, 1, 5 },
  { 0, 104, 1, -67 },
  { 0, 101, 1, 2 },
  { 0, 99, -112, -62 },
  { 0, 103, -64, -66 },
  { 0, 106, -113, 1 },
  { 0, 114, 1, 8 },
  { 0, 113, 1, -71 },
  { 0, 108, 1, 2 },
  { 0, 107, -68, -114 },
  { 0, 110, 1, 2 },
  { 0, 109, -69, -70 },
  { 0, 111, -50, 1 },
  { 0, 112, -129, -115 },
  { 0, 124, 1, 7 },
  { 0, 123, 1, -116 },
  { 0, 116, -72, 1 },
  { 0, 117, -75, 1 },
  { 0, 118, -130, 1 },
  { 0, 120, -76, 1 },
  { 0, 121, -78, -74 },
  { 0, 125, -80, 1 },
  { 0, 128, 1, 2 },
  { 0, 126, -117, -81 },
  { 0, 130, -84, 1 },
  { 0, 136, 1, 4 },
  { 0, 132, -85, 1 },
  { 0, 134, -119, 1 },
  { 0, 135, -87, -120 },
  { 0, 137, -88, 1 },
  { 0, 139, -89, 1 },
  { 0, 140, -131, -90 },
  { 0, 15, 1, 7 },
  { 0, 8, 1, -1 },
  { 0, 4, 1, 3 },
  { 0, 2, 1, -5 },
  { 0, 1, -3, -92 },
  { 0, 6, -4, 1 },
  { 0, 7, -91, -8 },
  { 0, 61, 1, 28 },
  { 0, 59, 1, 26 },
  { 0, 55, 1, 24 },
  { 0, 16, -9, 1 },
  { 0, 34, 1, 13 },
  { 0, 32, 1, 11 },
  { 0, 27, 1, 7 },
  { 0, 21, 1, 3 },
  { 0, 19, 1, -96 },
  { 0, 18, -95, -122 },
  { 0, 23, -10, 1 },
  { 0, 25, -14, 1 },
  { 0, 26, -15, -16 },
  { 0, 28, -17, 1 },
  { 0, 29, -99, 1 },
  { 0, 30, -124, -100 },
  { 0, 33, -125, -12 },
  { 0, 35, -126, 1 },
  { 0, 37, -11, 1 },
  { 0, 51, 1, 5 },
  { 0, 50, 1, -32 },
  { 0, 42, 1, 2 },
  { 0, 40, -25, -134 },
  { 0, 46, -26, -31 },
  { 0, 52, -33, 1 },
  { 0, 53, -34, -103 },
  { 0, 58, -22, -21 },
  { 0, 60, -35, -106 },
  { 0, 63, -36, 1 },
  { 0, 64, -37, 1 },
  { 0, 98, 1, 22 },
  { 0, 96, 1, -60 },
  { 0, 92, 1, 18 },
  { 0, 90, 1, -55 },
  { 0, 70, 1, 5 },
  { 0, 69, 1, -18 },
  { 0, 65, -38, 1 },
  { 0, 67, -20, 1 },
  { 0, 68, -19, -128 },
  { 0, 73, 1, 3 },
  { 0, 72, 1, -44 },
  { 0, 71, -43, -108 },
  { 0, 76, -42, 1 },
  { 0, 79, -48, 1 },
  { 0, 82, -49, 1 },
  { 0, 84, -39, 1 },
  { 0, 86, -51, 1 },
  { 0, 87, -53, 1 },
  { 0, 88, -136, 1 },
  { 0, 89, -132, -54 },
  { 0, 94, -57, 1 },
  { 0, 95, -58, -59 },
  { 0, 103, 1, 4 },
  { 0, 102, 1, -65 },
  { 0, 99, -61, 1 },
  { 0, 100, -62, -63 },
  { 0, 116, 1, 8 },
  { 0, 115, 1, -73 },
  { 0, 114, 1, -72 },
  { 0, 113, 1, -71 },
  { 0, 106, 1, 2 },
  { 0, 105, -66, -113 },
  { 0, 109, -68, 1 },
  { 0, 111, -50, -129 },
  { 0, 117, -75, 1 },
  { 0, 129, 1, 5 },
  { 0, 126, 1, -82 },
  { 0, 123, 1, 2 },
  { 0, 120, -130, -79 },
  { 0, 124, -116, -80 },
  { 0, 130, -84, 1 },
  { 0, 132, -85, 1 },
  { 0, 134, -118, 1 },
  { 0, 136, -87, 1 },
  { 0, 137, -88, 1 },
  { 0, 138, -89, -121 },
  { 0, 15, 1, 8 },
  { 0, 8, 1, -1 },
  { 0, 7, 1, -8 },
  { 0, 0, -2, 1 },
  { 0, 1, -3, 1 },
  { 0, 2, -92, 1 },
  { 0, 3, -5, 1 },
  { 0, 5, -6, -91 },
  { 0, 134, 1, 75 },
  { 0, 23, 1, 3 },
  { 0, 20, 1, -97 },
  { 0, 17, -9, -122 },
  { 0, 53, 1, 14 },
  { 0, 51, 1, -33 },
  { 0, 48, 1, 11 },
  { 0, 35, 1, 5 },
  { 0, 30, 1, -13 },
  { 0, 28, 1, -99 },
  { 0, 25, -98, 1 },
  { 0, 26, -15, -16 },
  { 0, 43, 1, 3 },
  { 0, 38, -24, 1 },
  { 0, 41, -25, -26 },
  { 0, 45, -101, 1 },
  { 0, 46, -28, -29 },
  { 0, 49, -31, -102 },
  { 0, 119, 1, 48 },
  { 0, 118, 1, -76 },
  { 0, 77, 1, 17 },
  { 0, 74, 1, -45 },
  { 0, 69, 1, 13 },
  { 0, 68, 1, -128 },
  { 0, 67, 1, -19 },
  { 0, 64, 1, 8 },
  { 0, 59, 1, 4 },
  { 0, 55, -104, 1 },
  { 0, 57, -105, 1 },
  { 0, 58, -93, -21 },
  { 0, 60, -35, 1 },
  { 0, 62, -106, 1 },
  { 0, 63, -135, -37 },
  { 0, 65, -38, 1 },
  { 0, 66, -20, -107 },
  { 0, 71, -18, 1 },
  { 0, 72, -108, -44 },
  { 0, 81, 1, 2 },
  { 0, 79, -48, -49 },
  { 0, 113, 1, 23 },
  { 0, 91, 1, 7 },
  { 0, 90, 1, -55 },
  { 0, 84, 1, 3 },
  { 0, 82, -40, 1 },
  { 0, 83, -110, -39 },
  { 0, 86, -51, 1 },
  { 0, 88, -136, -132 },
  { 0, 97, 1, 4 },
  { 0, 96, 1, -60 },
  { 0, 92, -56, 1 },
  { 0, 94, -57, -58 },
  { 0, 98, -112, 1 },
  { 0, 99, -61, 1 },
  { 0, 100, -62, 1 },
  { 0, 101, -63, 1 },
  { 0, 102, -64, 1 },
  { 0, 104, -65, 1 },
  { 0, 105, -67, 1 },
  { 0, 107, -113, 1 },
  { 0, 108, -114, 1 },
  { 0, 109, -69, 1 },
  { 0, 111, -70, -129 },
  { 0, 114, -71, 1 },
  { 0, 115, -72, 1 },
  { 0, 116, -73, 1 },
  { 0, 117, -75, -130 },
  { 0, 121, -77, 1 },
  { 0, 124, 1, 2 },
  { 0, 123, -74, -116 },
  { 0, 127, 1, 2 },
  { 0, 126, -80, -81 },
  { 0, 129, -82, 1 },
  { 0, 130, -84, 1 },
  { 0, 131, -85, 1 },
  { 0, 133, -86, -119 },
  { 0, 135, -87, 1 },
  { 0, 137, 1, 2 },
  { 0, 136, -120, -88 },
  { 0, 139, -89, 1 },
  { 0, 140, -131, -90 },
  { 0, 16, 1, 6 },
  { 0, 6, 1, -1 },
  { 0, 3, 1, -6 },
  { 0, 1, 1, 2 },
  { 0, 0, -2, -3 },
  { 0, 2, -92, -5 },
  { 0, 124, 1, 71 },
  { 0, 119, 1, 69 },
  { 0, 112, 1, 66 },
  { 0, 82, 1, 47 },
  { 0, 70, 1, 41 },
  { 0, 68, 1, 39 },
  { 0, 28, 1, 10 },
  { 0, 27, 1, -17 },
  { 0, 23, 1, 5 },
  { 0, 18, -95, 1 },
  { 0, 20, -122, 1 },
  { 0, 21, -97, 1 },
  { 0, 22, -123, -10 },
  { 0, 24, -14, 1 },
  { 0, 25, -98, 1 },
  { 0, 26, -15, -16 },
  { 0, 38, 1, 9 },
  { 0, 37, 1, -24 },
  { 0, 35, 1, -11 },
  { 0, 31, 1, 3 },
  { 0, 30, 1, -100 },
  { 0, 29, -99, -124 },
  { 0, 32, -13, 1 },
  { 0, 33, -125, 1 },
  { 0, 34, -12, -126 },
  { 0, 63, 1, 17 },
  { 0, 45, 1, 7 },
  { 0, 44, 1, -27 },
  { 0, 43, 1, -101 },
  { 0, 39, -25, 1 },
  { 0, 40, -127, 1 },
  { 0, 41, -23, 1 },
  { 0, 42, -134, -26 },
  { 0, 48, -28, 1 },
  { 0, 57, 1, 4 },
  { 0, 56, 1, -22 },
  { 0, 52, -32, 1 },
  { 0, 54, -103, -104 },
  { 0, 58, -93, 1 },
  { 0, 59, -21, 1 },
  { 0, 60, -35, 1 },
  { 0, 61, -106, -36 },
  { 0, 65, -37, 1 },
  { 0, 67, -107, -19 },
  { 0, 69, -128, -18 },
  { 0, 72, -43, 1 },
  { 0, 74, -44, 1 },
  { 0, 76, -45, 1 },
  { 0, 77, -47, 1 },
  { 0, 79, -109, -41 },
  { 0, 83, -110, 1 },
  { 0, 85, -39, 1 },
  { 0, 90, 1, 4 },
  { 0, 89, 1, -54 },
  { 0, 88, 1, -132 },
  { 0, 87, -52, -136 },
  { 0, 91, -55, 1 },
  { 0, 104, 1, 6 },
  { 0, 101, 1, -66 },
  { 0, 97, 1, -112 },
  { 0, 94, 1, 2 },
  { 0, 93, -56, -111 },
  { 0, 95, -58, -59 },
  { 0, 105, -67, 1 },
  { 0, 108, 1, 2 },
  { 0, 106, -113, -68 },
  { 0, 109, -69, 1 },
  { 0, 111, -70, -129 },
  { 0, 115, -115, 1 },
  { 0, 117, -75, -130 },
  { 0, 122, -77, -116 },
  { 0, 126, -80, 1 },
  { 0, 129, 1, 3 },
  { 0, 128, 1, -83 },
  { 0, 127, -81, -82 },
  { 0, 130, -84, 1 },
  { 0, 131, -85, 1 },
  { 0, 132, -86, 1 },
  { 0, 133, -118, 1 },
  { 0, 135, -119, 1 },
  { 0, 139, -88, -90 },
  { 0, 15, 1, 8 },
  { 0, 9, 1, -1 },
  { 0, 1, -3, 1 },
  { 0, 3, 1, 2 },
  { 0, 2, -92, -5 },
  { 0, 4, -6, 1 },
  { 0, 5, -4, 1 },
  { 0, 7, -7, -8 },
  { 0, 16, -9, 1 },
  { 0, 139, 1, -131 },
  { 0, 137, 1, -89 },
  { 0, 131, 1, 74 },
  { 0, 104, 1, 56 },
  { 0, 101, 1, 53 },
  { 0, 80, 1, 42 },
  { 0, 27, 1, 8 },
  { 0, 25, 1, -15 },
  { 0, 23, 1, -14 },
  { 0, 21, 1, -123 },
  { 0, 20, 1, -97 },
  { 0, 18, 1, 2 },
  { 0, 17, -95, -94 },
  { 0, 19, -122, -96 },
  { 0, 56, 1, 18 },
  { 0, 55, 1, -105 },
  { 0, 36, 1, 6 },
  { 0, 34, 1, -126 },
  { 0, 33, 1, -12 },
  { 0, 28, -17, 1 },
  { 0, 30, -99, 1 },
  { 0, 32, -100, -125 },
  { 0, 38, -133, 1 },
  { 0, 44, 1, 6 },
  { 0, 39, -25, 1 },
  { 0, 40, -127, 1 },
  { 0, 41, -23, 1 },
  { 0, 42, -134, 1 },
  { 0, 43, -26, -101 },
  { 0, 48, -27, 1 },
  { 0, 52, -32, 1 },
  { 0, 54, -103, -104 },
  { 0, 57, -22, 1 },
  { 0, 60, -93, 1 },
  { 0, 62, -36, 1 },
  { 0, 74, 1, 8 },
  { 0, 73, 1, -42 },
  { 0, 63, -135, 1 },
  { 0, 65, -37, 1 },
  { 0, 66, -20, 1 },
  { 0, 68, -107, 1 },
  { 0, 69, -128, 1 },
  { 0, 71, -18, -108 },
  { 0, 76, -45, 1 },
  { 0, 77, -47, 1 },
  { 0, 78, -109, 1 },
  { 0, 79, -48, -49 },
  { 0, 83, 1, 2 },
  { 0, 81, -41, -40 },
  { 0, 90, 1, 3 },
  { 0, 89, 1, -54 },
  { 0, 86, -39, -132 },
  { 0, 91, -55, 1 },
  { 0, 94, 1, 2 },
  { 0, 93, -56, -111 },
  { 0, 97, -58, 1 },
  { 0, 100, -61, -63 },
  { 0, 102, -64, 1 },
  { 0, 103, -65, -66 },
  { 0, 105, -67, 1 },
  { 0, 107, 1, 2 },
  { 0, 106, -113, -68 },
  { 0, 114, 1, 5 },
  { 0, 112, 1, -115 },
  { 0, 111, 1, -129 },
  { 0, 110, 1, -50 },
  { 0, 108, -114, -69 },
  { 0, 123, 1, 4 },
  { 0, 122, 1, -79 },
  { 0, 116, -72, 1 },
  { 0, 120, -130, -74 },
  { 0, 124, -116, 1 },
  { 0, 126, -80, 1 },
  { 0, 127, -81, 1 },
  { 0, 129, -82, 1 },
  { 0, 130, -84, -85 },
  { 0, 132, -86, 1 },
  { 0, 134, -118, 1 },
  { 0, 136, -87, -88 },
  { 0, 17, 1, 6 },
  { 0, 7, 1, -1 },
  { 0, 1, -3, 1 },
  { 0, 3, 1, 2 },
  { 0, 2, -92, -5 },
  { 0, 5, -6, -7 },
  { 0, 23, 1, 3 },
  { 0, 21, 1, -123 },
  { 0, 20, -96, -97 },
  { 0, 53, 1, 19 },
  { 0, 51, 1, -33 },
  { 0, 36, 1, 8 },
  { 0, 34, 1, -126 },
  { 0, 33, 1, -12 },
  { 0, 25, 1, 2 },
  { 0, 24, -14, -98 },
  { 0, 27, -15, 1 },
  { 0, 29, -17, 1 },
  { 0, 31, -100, -13 },
  { 0, 37, -133, 1 },
  { 0, 38, -24, 1 },
  { 0, 43, 1, 3 },
  { 0, 41, 1, -134 },
  { 0, 39, -25, -127 },
  { 0, 48, 1, 2 },
  { 0, 46, -101, -30 },
  { 0, 49, -31, 1 },
  { 0, 50, -102, -32 },
  { 0, 62, 1, 6 },
  { 0, 60, 1, -106 },
  { 0, 59, 1, -35 },
  { 0, 57, 1, -93 },
  { 0, 54, -103, 1 },
  { 0, 56, -104, -22 },
  { 0, 131, 1, 48 },
  { 0, 113, 1, 36 },
  { 0, 101, 1, 26 },
  { 0, 100, 1, -63 },
  { 0, 66, 1, 3 },
  { 0, 65, 1, -20 },
  { 0, 64, -135, -38 },
  { 0, 70, 1, 3 },
  { 0, 69, 1, -18 },
  { 0, 68, -107, -128 },
  { 0, 80, 1, 8 },
  { 0, 79, 1, -49 },
  { 0, 74, 1, 3 },
  { 0, 71, -43, 1 },
  { 0, 72, -108, -44 },
  { 0, 76, -46, 1 },
  { 0, 77, -47, 1 },
  { 0, 78, -109, -48 },
  { 0, 85, 1, 2 },
  { 0, 82, -41, -110 },
  { 0, 92, 1, 4 },
  { 0, 90, 1, -55 },
  { 0, 87, -53, 1 },
  { 0, 88, -136, -132 },
  { 0, 94, -57, 1 },
  { 0, 96, -58, 1 },
  { 0, 98, -112, 1 },
  { 0, 99, -61, -62 },
  { 0, 102, -64, 1 },
  { 0, 103, -65, 1 },
  { 0, 105, -66, 1 },
  { 0, 106, -113, 1 },
  { 0, 109, 1, 3 },
  { 0, 107, -68, 1 },
  { 0, 108, -114, -69 },
  { 0, 110, -70, 1 },
  { 0, 111, -50, -129 },
  { 0, 114, -71, 1 },
  { 0, 115, -72, 1 },
  { 0, 130, 1, -85 },
  { 0, 122, 1, 4 },
  { 0, 116, -73, 1 },
  { 0, 119, -75, 1 },
  { 0, 121, -78, -74 },
  { 0, 123, -79, 1 },
  { 0, 125, -116, 1 },
  { 0, 127, -81, 1 },
  { 0, 129, -82, -84 },
  { 0, 134, -86, 1 },
  { 0, 137, -88, 1 },
  { 0, 139, -89, 1 },
  { 0, 140, -131, -90 },
  { 0, 16, 1, 6 },
  { 0, 8, 1, -1 },
  { 0, 7, 1, -8 },
  { 0, 6, 1, -91 },
  { 0, 1, -2, 1 },
  { 0, 4, -92, -7 },
  { 0, 59, 1, 26 },
  { 0, 57, 1, -93 },
  { 0, 31, 1, 9 },
  { 0, 29, 1, -124 },
  { 0, 25, 1, 5 },
  { 0, 23, 1, -98 },
  { 0, 18, 1, 2 },
  { 0, 17, -95, -94 },
  { 0, 20, -122, -97 },
  { 0, 26, -15, 1 },
  { 0, 28, -16, -99 },
  { 0, 36, 1, 4 },
  { 0, 35, 1, -11 },
  { 0, 34, 1, -126 },
  { 0, 32, -13, -125 },
  { 0, 45, 1, 7 },
  { 0, 44, 1, -27 },
  { 0, 43, 1, -101 },
  { 0, 37, -133, 1 },
  { 0, 39, -24, 1 },
  { 0, 40, -127, 1 },
  { 0, 42, -23, -26 },
  { 0, 46, -28, 1 },
  { 0, 47, -29, 1 },
  { 0, 50, -30, 1 },
  { 0, 54, -33, -22 },
  { 0, 60, -35, 1 },
  { 0, 85, 1, 16 },
  { 0, 83, 1, -51 },
  { 0, 72, 1, 7 },
  { 0, 71, 1, -108 },
  { 0, 69, 1, -43 },
  { 0, 62, -106, 1 },
  { 0, 63, -135, 1 },
  { 0, 65, -37, 1 },
  { 0, 67, -107, -19 },
  { 0, 76, 1, 4 },
  { 0, 73, -44, 1 },
  { 0, 74, -42, 1 },
  { 0, 75, -45, -46 },
  { 0, 78, -47, 1 },
  { 0, 80, -48, 1 },
  { 0, 81, -41, -40 },
  { 0, 94, 1, 6 },
  { 0, 92, 1, -57 },
  { 0, 91, 1, -56 },
  { 0, 86, -52, 1 },
  { 0, 88, -53, 1 },
  { 0, 90, -54, -55 },
  { 0, 103, 1, 6 },
  { 0, 101, 1, -64 },
  { 0, 98, 1, 2 },
  { 0, 96, -58, -112 },
  { 0, 99, -61, 1 },
  { 0, 100, -62, -63 },
  { 0, 127, 1, 15 },
  { 0, 122, 1, 11 },
  { 0, 105, 1, 2 },
  { 0, 104, -66, -67 },
  { 0, 109, 1, 2 },
  { 0, 107, -113, -114 },
  { 0, 113, 1, 2 },
  { 0, 111, -70, -129 },
  { 0, 114, -71, 1 },
  { 0, 117, -72, 1 },
  { 0, 120, -76, 1 },
  { 0, 121, -78, -74 },
  { 0, 123, -79, 1 },
  { 0, 124, -116, 1 },
  { 0, 126, -80, -81 },
  { 0, 128, -82, 1 },
  { 0, 130, -83, 1 },
  { 0, 137, 1, 5 },
  { 0, 134, 1, 3 },
  { 0, 131, -85, 1 },
  { 0, 132, -86, -118 },
  { 0, 136, -87, -88 },
  { 0, 138, -89, 1 },
  { 0, 140, -121, -90 },
  { 0, 15, 1, 7 },
  { 0, 8, 1, -1 },
  { 0, 0, -2, 1 },
  { 0, 5, 1, 3 },
  { 0, 2, -3, 1 },
  { 0, 3, -5, -6 },
  { 0, 7, -7, -8 },
  { 0, 23, 1, 4 },
  { 0, 22, 1, -10 },
  { 0, 20, 1, -97 },
  { 0, 18, -9, -96 },
  { 0, 37, 1, 6 },
  { 0, 35, 1, -11 },
  { 0, 32, 1, -12 },
  { 0, 24, -14, 1 },
  { 0, 25, -98, 1 },
  { 0, 28, -15, -100 },
  { 0, 45, 1, 7 },
  { 0, 43, 1, -101 },
  { 0, 40, 1, 3 },
  { 0, 39, 1, -127 },
  { 0, 38, -24, -25 },
  { 0, 41, -23, 1 },
  { 0, 42, -134, -26 },
  { 0, 51, 1, 3 },
  { 0, 49, 1, -102 },
  { 0, 47, -28, -30 },
  { 0, 129, 1, 54 },
  { 0, 104, 1, 39 },
  { 0, 61, 1, 7 },
  { 0, 60, 1, -106 },
  { 0, 59, 1, -35 },
  { 0, 58, 1, -21 },
  { 0, 57, 1, -93 },
  { 0, 53, -33, 1 },
  { 0, 55, -104, -105 },
  { 0, 63, 1, 2 },
  { 0, 62, -36, -135 },
  { 0, 81, 1, 13 },
  { 0, 79, 1, -41 },
  { 0, 69, 1, 5 },
  { 0, 68, 1, -128 },
  { 0, 64, -37, 1 },
  { 0, 65, -38, 1 },
  { 0, 66, -20, -107 },
  { 0, 72, 1, 2 },
  { 0, 71, -18, -108 },
  { 0, 73, -44, 1 },
  { 0, 75, -42, 1 },
  { 0, 76, -46, 1 },
  { 0, 77, -47, -109 },
  { 0, 82, -40, 1 },
  { 0, 85, 1, 3 },
  { 0, 84, 1, -51 },
  { 0, 83, -110, -39 },
  { 0, 87, -52, 1 },
  { 0, 93, 1, 5 },
  { 0, 91, 1, -56 },
  { 0, 88, -136, 1 },
  { 0, 89, -132, 1 },
  { 0, 90, -54, -55 },
  { 0, 97, 1, 3 },
  { 0, 96, 1, -60 },
  { 0, 94, -111, -58 },
  { 0, 99, -112, 1 },
  { 0, 101, -63, 1 },
  { 0, 103, -64, -66 },
  { 0, 106, -67, 1 },
  { 0, 110, 1, 3 },
  { 0, 109, 1, -70 },
  { 0, 108, -68, -69 },
  { 0, 115, 1, 3 },
  { 0, 114, 1, -72 },
  { 0, 112, -50, -71 },
  { 0, 124, 1, 4 },
  { 0, 117, -73, 1 },
  { 0, 119, -130, 1 },
  { 0, 122, -77, -116 },
  { 0, 125, -80, 1 },
  { 0, 126, -117, 1 },
  { 0, 128, -81, -83 },
  { 0, 130, -84, 1 },
  { 0, 137, 1, 6 },
  { 0, 133, 1, 3 },
  { 0, 131, -85, 1 },
  { 0, 132, -86, -118 },
  { 0, 135, -119, 1 },
  { 0, 136, -120, -88 },
  { 0, 139, -89, -90 },
  { 0, 15, 1, 7 },
  { 0, 8, 1, -1 },
  { 0, 4, 1, 3 },
  { 0, 2, 1, -5 },
  { 0, 1, -2, -92 },
  { 0, 5, -4, 1 },
  { 0, 6, -7, -91 },
  { 0, 129, 1, 75 },
  { 0, 115, 1, 66 },
  { 0, 83, 1, 48 },
  { 0, 74, 1, 42 },
  { 0, 73, 1, -42 },
  { 0, 53, 1, 27 },
  { 0, 41, 1, 20 },
  { 0, 36, 1, 15 },
  { 0, 26, 1, 9 },
  { 0, 24, 1, -15 },
  { 0, 16, -9, 1 },
  { 0, 17, -95, 1 },
  { 0, 18, -94, 1 },
  { 0, 19, -122, 1 },
  { 0, 20, -96, 1 },
  { 0, 21, -97, 1 },
  { 0, 22, -123, -10 },
  { 0, 27, -16, 1 },
  { 0, 28, -17, 1 },
  { 0, 29, -99, 1 },
  { 0, 31, -124, 1 },
  { 0, 33, -13, -126 },
  { 0, 37, -133, 1 },
  { 0, 38, -24, 1 },
  { 0, 39, -25, 1 },
  { 0, 40, -127, -23 },
  { 0, 42, -134, 1 },
  { 0, 49, 1, 3 },
  { 0, 48, 1, -31 },
  { 0, 45, -26, -29 },
  { 0, 50, -102, 1 },
  { 0, 51, -32, -33 },
  { 0, 58, 1, 3 },
  { 0, 56, 1, -93 },
  { 0, 54, -103, -104 },
  { 0, 68, 1, 8 },
  { 0, 64, 1, 4 },
  { 0, 60, -21, 1 },
  { 0, 62, -36, 1 },
  { 0, 63, -135, -37 },
  { 0, 65, -38, 1 },
  { 0, 66, -20, 1 },
  { 0, 67, -107, -19 },
  { 0, 70, -128, 1 },
  { 0, 71, -43, -108 },
  { 0, 76, -45, 1 },
  { 0, 77, -47, 1 },
  { 0, 79, -109, 1 },
  { 0, 81, -41, 1 },
  { 0, 82, -40, -110 },
  { 0, 84, -39, 1 },
  { 0, 94, 1, 6 },
  { 0, 91, 1, -57 },
  { 0, 86, -51, 1 },
  { 0, 87, -53, 1 },
  { 0, 88, -136, 1 },
  { 0, 89, -132, -54 },
  { 0, 109, 1, 8 },
  { 0, 103, 1, 5 },
  { 0, 102, 1, -65 },
  { 0, 100, 1, -63 },
  { 0, 98, 1, -61 },
  { 0, 96, -59, -60 },
  { 0, 105, -66, 1 },
  { 0, 107, -68, -114 },
  { 0, 110, -70, 1 },
  { 0, 112, -50, -71 },
  { 0, 117, -75, 1 },
  { 0, 119, -130, 1 },
  { 0, 127, 1, 5 },
  { 0, 121, -78, 1 },
  { 0, 123, -74, 1 },
  { 0, 125, -80, 1 },
  { 0, 126, -117, -81 },
  { 0, 128, -82, -83 },
  { 0, 131, -84, 1 },
  { 0, 132, -86, 1 },
  { 0, 133, -118, 1 },
  { 0, 134, -119, 1 },
  { 0, 135, -87, 1 },
  { 0, 137, -120, 1 },
  { 0, 139, -121, -131 },
  { 0, 15, 1, 9 },
  { 0, 8, 1, -1 },
  { 0, 0, -2, 1 },
  { 0, 5, 1, 5 },
  { 0, 4, 1, -4 },
  { 0, 1, -3, 1 },
  { 0, 3, 1, -6 },
  { 0, 2, -92, -5 },
  { 0, 6, -7, -91 },
  { 0, 16, -9, 1 },
  { 0, 25, 1, 7 },
  { 0, 24, 1, -98 },
  { 0, 21, 1, 4 },
  { 0, 18, 1, 2 },
  { 0, 17, -95, -94 },
  { 0, 19, -122, -96 },
  { 0, 22, -123, -10 },
  { 0, 57, 1, 23 },
  { 0, 55, 1, 21 },
  { 0, 48, 1, 17 },
  { 0, 44, 1, 14 },
  { 0, 31, 1, 4 },
  { 0, 30, 1, -100 },
  { 0, 29, 1, -124 },
  { 0, 27, -15, -17 },
  { 0, 33, 1, 2 },
  { 0, 32, -13, -125 },
  { 0, 34, -12, 1 },
  { 0, 39, 1, 4 },
  { 0, 35, -126, 1 },
  { 0, 37, -11, 1 },
  { 0, 38, -24, -25 },
  { 0, 41, -127, 1 },
  { 0, 43, -134, -101 },
  { 0, 45, -27, 1 },
  { 0, 47, -28, -30 },
  { 0, 49, -31, 1 },
  { 0, 53, 1, -104 },
  { 0, 51, -102, -33 },
  { 0, 56, -105, -22 },
  { 0, 80, 1, 13 },
  { 0, 78, 1, -49 },
  { 0, 70, 1, 8 },
  { 0, 67, 1, -128 },
  { 0, 65, 1, -20 },
  { 0, 58, -93, 1 },
  { 0, 59, -21, 1 },
  { 0, 60, -35, 1 },
  { 0, 61, -106, 1 },
  { 0, 63, -36, -37 },
  { 0, 72, -43, 1 },
  { 0, 74, -42, 1 },
  { 0, 76, -45, -47 },
  { 0, 102, 1, 10 },
  { 0, 100, 1, -63 },
  { 0, 98, 1, -62 },
  { 0, 96, 1, -60 },
  { 0, 93, 1, 5 },
  { 0, 81, -41, 1 },
  { 0, 83, -40, 1 },
  { 0, 87, -39, 1 },
  { 0, 92, -55, -57 },
  { 0, 95, -111, -59 },
  { 0, 108, 1, 5 },
  { 0, 106, 1, -68 },
  { 0, 105, 1, -113 },
  { 0, 104, 1, -67 },
  { 0, 103, -65, -66 },
  { 0, 136, 1, 14 },
  { 0, 112, 1, 4 },
  { 0, 111, 1, -129 },
  { 0, 109, -69, 1 },
  { 0, 110, -70, -50 },
  { 0, 113, -115, 1 },
  { 0, 115, -71, 1 },
  { 0, 116, -73, 1 },
  { 0, 120, -75, 1 },
  { 0, 125, -79, 1 },
  { 0, 128, -81, 1 },
  { 0, 131, -84, 1 },
  { 0, 132, -86, 1 },
  { 0, 134, -118, -87 },
  { 0, 138, -89, 1 },
  { 0, 140, -121, -90 },
  { 0, 15, 1, 6 },
  { 0, 7, 1, -1 },
  { 0, 3, 1, 3 },
  { 0, 0, -2, 1 },
  { 0, 2, -3, -5 },
  { 0, 5, -6, -7 },
  { 0, 22, 1, 4 },
  { 0, 19, 1, -96 },
  { 0, 18, 1, -122 },
  { 0, 16, -9, -95 },
  { 0, 29, 1, 5 },
  { 0, 28, 1, -99 },
  { 0, 27, 1, -17 },
  { 0, 26, 1, -16 },
  { 0, 24, -14, -98 },
  { 0, 40, 1, 9 },
  { 0, 38, 1, -25 },
  { 0, 37, 1, -24 },
  { 0, 34, 1, 4 },
  { 0, 33, 1, -12 },
  { 0, 30, -124, 1 },
  { 0, 31, -100, -13 },
  { 0, 35, -126, 1 },
  { 0, 36, -11, -133 },
  { 0, 133, 1, 54 },
  { 0, 99, 1, 37 },
  { 0, 92, 1, 32 },
  { 0, 87, 1, 28 },
  { 0, 85, 1, -52 },
  { 0, 84, 1, -51 },
  { 0, 82, 1, -110 },
  { 0, 81, 1, -40 },
  { 0, 80, 1, -41 },
  { 0, 76, 1, 21 },
  { 0, 73, 1, 19 },
  { 0, 50, 1, 6 },
  { 0, 48, 1, -102 },
  { 0, 45, 1, 3 },
  { 0, 43, -134, 1 },
  { 0, 44, -101, -27 },
  { 0, 46, -28, -29 },
  { 0, 60, 1, 6 },
  { 0, 59, 1, -35 },
  { 0, 52, -32, 1 },
  { 0, 54, -34, 1 },
  { 0, 55, -104, 1 },
  { 0, 57, -105, -21 },
  { 0, 61, -106, 1 },
  { 0, 63, -36, 1 },
  { 0, 65, -37, 1 },
  { 0, 67, -20, 1 },
  { 0, 69, -128, 1 },
  { 0, 70, -18, -43 },
  { 0, 75, -45, -46 },
  { 0, 78, -47, -49 },
  { 0, 88, -136, 1 },
  { 0, 89, -132, 1 },
  { 0, 90, -54, -55 },
  { 0, 94, -57, 1 },
  { 0, 96, 1, 2 },
  { 0, 95, -58, -59 },
  { 0, 98, -60, -61 },
  { 0, 101, 1, 2 },
  { 0, 100, -62, -63 },
  { 0, 129, 1, 12 },
  { 0, 120, 1, 7 },
  { 0, 113, 1, 4 },
  { 0, 104, -64, 1 },
  { 0, 109, -68, 1 },
  { 0, 111, -50, -129 },
  { 0, 114, -71, 1 },
  { 0, 117, -72, -76 },
  { 0, 122, -78, 1 },
  { 0, 124, -79, 1 },
  { 0, 126, -80, 1 },
  { 0, 128, -81, -83 },
  { 0, 130, -84, 1 },
  { 0, 131, -85, -86 },
  { 0, 135, -87, 1 },
  { 0, 137, -120, 1 },
  { 0, 139, -89, -90 },
  { 0, 15, 1, 7 },
  { 0, 8, 1, -1 },
  { 0, 6, 1, 4 },
  { 0, 5, 1, -7 },
  { 0, 1, -2, 1 },
  { 0, 3, -92, -4 },
  { 0, 7, -91, -8 },
  { 0, 140, 1, -90 },
  { 0, 132, 1, 74 },
  { 0, 22, 1, 3 },
  { 0, 18, 1, -96 },
  { 0, 16, -9, -95 },
  { 0, 130, 1, -86 },
  { 0, 116, 1, 58 },
  { 0, 94, 1, 46 },
  { 0, 92, 1, -57 },
  { 0, 66, 1, 29 },
  { 0, 65, 1, -20 },
  { 0, 62, 1, -37 },
  { 0, 57, 1, 23 },
  { 0, 50, 1, 20 },
  { 0, 28, 1, 4 },
  { 0, 27, 1, -17 },
  { 0, 25, -14, 1 },
  { 0, 26, -15, -16 },
  { 0, 33, 1, 3 },
  { 0, 32, 1, -125 },
  { 0, 30, -99, -100 },
  { 0, 37, 1, 4 },
  { 0, 36, 1, -133 },
  { 0, 34, -12, 1 },
  { 0, 35, -126, -11 },
  { 0, 39, -24, 1 },
  { 0, 40, -127, 1 },
  { 0, 41, -23, 1 },
  { 0, 42, -134, 1 },
  { 0, 44, -26, 1 },
  { 0, 46, -27, 1 },
  { 0, 48, -30, 1 },
  { 0, 49, -31, -102 },
  { 0, 52, -32, 1 },
  { 0, 54, -34, -105 },
  { 0, 58, -93, 1 },
  { 0, 59, -21, 1 },
  { 0, 60, -35, -106 },
  { 0, 70, -107, 1 },
  { 0, 75, 1, 2 },
  { 0, 73, -44, -42 },
  { 0, 77, 1, 2 },
  { 0, 76, -46, -47 },
  { 0, 81, 1, 3 },
  { 0, 80, 1, -41 },
  { 0, 79, -109, -49 },
  { 0, 82, -40, 1 },
  { 0, 83, -110, 1 },
  { 0, 84, -39, 1 },
  { 0, 86, -51, 1 },
  { 0, 88, -53, 1 },
  { 0, 90, -54, 1 },
  { 0, 91, -55, -56 },
  { 0, 96, -59, 1 },
  { 0, 98, -60, 1 },
  { 0, 102, 1, 3 },
  { 0, 101, 1, -64 },
  { 0, 100, -61, -63 },
  { 0, 103, -65, 1 },
  { 0, 107, 1, 2 },
  { 0, 105, -66, -68 },
  { 0, 112, 1, 2 },
  { 0, 110, -114, -129 },
  { 0, 114, -115, -72 },
  { 0, 118, 1, 2 },
  { 0, 117, -75, -130 },
  { 0, 119, -76, 1 },
  { 0, 120, -77, 1 },
  { 0, 123, 1, 2 },
  { 0, 122, -78, -79 },
  { 0, 124, -116, 1 },
  { 0, 125, -80, 1 },
  { 0, 126, -117, 1 },
  { 0, 127, -81, 1 },
  { 0, 128, -82, -83 },
  { 0, 133, -118, 1 },
  { 0, 135, -119, 1 },
  { 0, 137, -120, 1 },
  { 0, 138, -89, -121 },
  { 0, 16, 1, 9 },
  { 0, 9, 1, -1 },
  { 0, 6, 1, 6 },
  { 0, 1, 1, 2 },
  { 0, 0, -2, -3 },
  { 0, 2, -92, 1 },
  { 0, 4, -5, 1 },
  { 0, 5, -4, -7 },
  { 0, 7, -91, -8 },
  { 0, 134, 1, -87 },
  { 0, 26, 1, 10 },
  { 0, 25, 1, -15 },
  { 0, 21, 1, 5 },
  { 0, 20, 1, -97 },
  { 0, 18, 1, 2 },
  { 0, 17, -95, -94 },
  { 0, 19, -122, -96 },
  { 0, 22, -123, 1 },
  { 0, 23, -10, 1 },
  { 0, 24, -14, -98 },
  { 0, 116, 1, 53 },
  { 0, 111, 1, 49 },
  { 0, 93, 1, 38 },
  { 0, 47, 1, 11 },
  { 0, 46, 1, -29 },
  { 0, 29, 1, 2 },
  { 0, 28, -16, -99 },
  { 0, 35, 1, 3 },
  { 0, 33, 1, -126 },
  { 0, 30, -124, -100 },
  { 0, 39, 1, 2 },
  { 0, 36, -11, -133 },
  { 0, 41, -23, 1 },
  { 0, 44, -134, -28 },
  { 0, 59, 1, 8 },
  { 0, 57, 1, -93 },
  { 0, 56, 1, -22 },
  { 0, 55, 1, -105 },
  { 0, 48, -30, 1 },
  { 0, 50, -31, 1 },
  { 0, 51, -32, 1 },
  { 0, 53, -33, -103 },
  { 0, 77, 1, 9 },
  { 0, 76, 1, -47 },
  { 0, 72, 1, 6 },
  { 0, 61, -35, 1 },
  { 0, 62, -36, 1 },
  { 0, 65, -135, 1 },
  { 0, 67, -107, 1 },
  { 0, 69, -19, -43 },
  { 0, 74, -44, -45 },
  { 0, 78, -109, 1 },
  { 0, 79, -48, 1 },
  { 0, 85, 1, 4 },
  { 0, 82, 1, -110 },
  { 0, 80, -49, 1 },
  { 0, 81, -41, -40 },
  { 0, 88, -53, 1 },
  { 0, 90, -54, 1 },
  { 0, 91, -55, -56 },
  { 0, 94, -111, 1 },
  { 0, 95, -58, 1 },
  { 0, 96, -59, 1 },
  { 0, 98, -60, 1 },
  { 0, 100, -62, 1 },
  { 0, 104, 1, 3 },
  { 0, 101, -63, 1 },
  { 0, 103, -64, -66 },
  { 0, 106, -67, 1 },
  { 0, 108, -68, -69 },
  { 0, 113, -115, 1 },
  { 0, 114, -71, 1 },
  { 0, 115, -72, -73 },
  { 0, 118, -75, 1 },
  { 0, 121, 1, 2 },
  { 0, 119, -76, -77 },
  { 0, 124, 1, 2 },
  { 0, 123, -79, -116 },
  { 0, 126, -80, 1 },
  { 0, 127, -81, 1 },
  { 0, 133, 1, -119 },
  { 0, 130, 1, 2 },
  { 0, 129, -82, -84 },
  { 0, 132, -85, -118 },
  { 0, 15, 1, 6 },
  { 0, 8, 1, -1 },
  { 0, 6, 1, -91 },
  { 0, 5, 1, -7 },
  { 0, 4, 1, -4 },
  { 0, 3, -92, -6 },
  { 0, 137, 1, 77 },
  { 0, 87, 1, 50 },
  { 0, 45, 1, 22 },
  { 0, 39, 1, 18 },
  { 0, 28, 1, 11 },
  { 0, 23, 1, 7 },
  { 0, 21, 1, -123 },
  { 0, 16, -9, 1 },
  { 0, 17, -95, 1 },
  { 0, 18, -94, 1 },
  { 0, 19, -122, 1 },
  { 0, 20, -96, -97 },
  { 0, 24, -14, 1 },
  { 0, 25, -98, 1 },
  { 0, 27, -15, -17 },
  { 0, 30, -99, 1 },
  { 0, 31, -100, 1 },
  { 0, 33, 1, 2 },
  { 0, 32, -13, -125 },
  { 0, 34, -12, 1 },
  { 0, 37, -126, -25 },
  { 0, 40, -127, 1 },
  { 0, 41, -23, 1 },
  { 0, 42, -134, -26 },
  { 0, 57, 1, 7 },
  { 0, 56, 1, -22 },
  { 0, 54, 1, 4 },
  { 0, 48, -29, 1 },
  { 0, 50, -102, 1 },
  { 0, 52, -32, -34 },
  { 0, 55, -104, -105 },
  { 0, 75, 1, 11 },
  { 0, 59, 1, 2 },
  { 0, 58, -93, -21 },
  { 0, 62, 1, 2 },
  { 0, 61, -35, -36 },
  { 0, 67, 1, 2 },
  { 0, 63, -135, -37 },
  { 0, 71, 1, 2 },
  { 0, 70, -18, -43 },
  { 0, 73, -108, 1 },
  { 0, 74, -42, -45 },
  { 0, 76, -46, 1 },
  { 0, 80, 1, 3 },
  { 0, 78, 1, -48 },
  { 0, 77, -47, -109 },
  { 0, 81, -41, 1 },
  { 0, 84, 1, 2 },
  { 0, 82, -40, -110 },
  { 0, 85, -51, 1 },
  { 0, 86, -52, -53 },
  { 0, 88, -136, 1 },
  { 0, 99, 1, 5 },
  { 0, 96, 1, -61 },
  { 0, 93, 1, -111 },
  { 0, 92, 1, -57 },
  { 0, 90, -132, -56 },
  { 0, 105, 1, 3 },
  { 0, 104, 1, -67 },
  { 0, 101, -62, -65 },
  { 0, 122, 1, 9 },
  { 0, 120, 1, -78 },
  { 0, 119, 1, -77 },
  { 0, 117, 1, -76 },
  { 0, 108, -113, 1 },
  { 0, 110, -70, 1 },
  { 0, 111, -50, 1 },
  { 0, 112, -129, 1 },
  { 0, 114, -115, -72 },
  { 0, 129, 1, 4 },
  { 0, 127, 1, -82 },
  { 0, 124, -79, 1 },
  { 0, 125, -80, -117 },
  { 0, 131, 1, 2 },
  { 0, 130, -84, -85 },
  { 0, 133, -86, 1 },
  { 0, 135, -119, -88 },
  { 0, 139, -89, -90 },
  { 0, 15, 1, 6 },
  { 0, 8, 1, -1 },
  { 0, 7, 1, -8 },
  { 0, 6, 1, -91 },
  { 0, 2, -3, 1 },
  { 0, 4, -6, -4 },
  { 0, 22, 1, 2 },
  { 0, 18, -95, -122 },
  { 0, 26, -98, 1 },
  { 0, 140, 1, -90 },
  { 0, 139, 1, -131 },
  { 0, 123, 1, 66 },
  { 0, 42, 1, 11 },
  { 0, 39, 1, 9 },
  { 0, 28, 1, 2 },
  { 0, 27, -16, -17 },
  { 0, 30, 1, 2 },
  { 0, 29, -99, -124 },
  { 0, 32, -100, 1 },
  { 0, 33, -125, 1 },
  { 0, 35, -12, 1 },
  { 0, 38, -133, -25 },
  { 0, 41, -127, -134 },
  { 0, 56, 1, 10 },
  { 0, 55, 1, -105 },
  { 0, 45, 1, 2 },
  { 0, 44, -26, -27 },
  { 0, 51, 1, 5 },
  { 0, 47, 1, 2 },
  { 0, 46, -28, -29 },
  { 0, 49, -30, 1 },
  { 0, 50, -102, -32 },
  { 0, 53, -33, -103 },
  { 0, 121, 1, 43 },
  { 0, 74, 1, 7 },
  { 0, 73, 1, -42 },
  { 0, 72, 1, -44 },
  { 0, 69, 1, -108 },
  { 0, 58, -22, 1 },
  { 0, 60, -21, 1 },
  { 0, 64, -106, -107 },
  { 0, 79, 1, 5 },
  { 0, 78, 1, -48 },
  { 0, 76, 1, 2 },
  { 0, 75, -45, -46 },
  { 0, 77, -47, -109 },
  { 0, 113, 1, 26 },
  { 0, 92, 1, 9 },
  { 0, 91, 1, -56 },
  { 0, 90, 1, -55 },
  { 0, 87, 1, 5 },
  { 0, 81, -49, 1 },
  { 0, 83, -110, 1 },
  { 0, 84, -39, 1 },
  { 0, 86, -51, -53 },
  { 0, 88, -136, -132 },
  { 0, 95, 1, 3 },
  { 0, 94, 1, -58 },
  { 0, 93, -57, -111 },
  { 0, 101, 1, 3 },
  { 0, 99, 1, -62 },
  { 0, 97, -59, -61 },
  { 0, 104, 1, 3 },
  { 0, 103, 1, -66 },
  { 0, 102, -64, -65 },
  { 0, 105, -67, 1 },
  { 0, 106, -113, 1 },
  { 0, 107, -68, 1 },
  { 0, 108, -114, 1 },
  { 0, 109, -69, 1 },
  { 0, 110, -70, 1 },
  { 0, 111, -50, -129 },
  { 0, 115, -72, 1 },
  { 0, 117, 1, 2 },
  { 0, 116, -73, -75 },
  { 0, 119, -130, -77 },
  { 0, 122, -74, -79 },
  { 0, 124, -116, 1 },
  { 0, 126, 1, 2 },
  { 0, 125, -80, -117 },
  { 0, 128, 1, 2 },
  { 0, 127, -81, -82 },
  { 0, 131, 1, 3 },
  { 0, 130, 1, -85 },
  { 0, 129, -83, -84 },
  { 0, 133, -86, 1 },
  { 0, 136, 1, 2 },
  { 0, 134, -119, -87 },
  { 0, 138, -88, -121 },
  { 0, 15, 1, 6 },
  { 0, 8, 1, -1 },
  { 0, 0, -2, 1 },
  { 0, 2, -3, 1 },
  { 0, 4, -5, 1 },
  { 0, 7, -7, -8 },
  { 0, 135, 1, 79 },
  { 0, 17, -9, 1 },
  { 0, 112, 1, 66 },
  { 0, 55, 1, 27 },
  { 0, 53, 1, -104 },
  { 0, 51, 1, -33 },
  { 0, 19, 1, 2 },
  { 0, 18, -94, -122 },
  { 0, 27, 1, 6 },
  { 0, 26, 1, -16 },
  { 0, 25, 1, -15 },
  { 0, 22, 1, 2 },
  { 0, 20, -96, -97 },
  { 0, 23, -10, -14 },
  { 0, 38, 1, 7 },
  { 0, 36, 1, -24 },
  { 0, 29, -17, 1 },
  { 0, 30, -124, 1 },
  { 0, 31, -100, 1 },
  { 0, 33, -13, 1 },
  { 0, 34, -12, -126 },
  { 0, 45, 1, 7 },
  { 0, 41, 1, 3 },
  { 0, 39, -25, 1 },
  { 0, 40, -127, -23 },
  { 0, 42, -134, 1 },
  { 0, 43, -26, 1 },
  { 0, 44, -101, -27 },
  { 0, 47, -28, 1 },
  { 0, 49, -31, -102 },
  { 0, 102, 1, 34 },
  { 0, 60, 1, 3 },
  { 0, 59, 1, -35 },
  { 0, 57, -105, -93 },
  { 0, 80, 1, 17 },
  { 0, 75, 1, 12 },
  { 0, 68, 1, 8 },
  { 0, 63, 1, 3 },
  { 0, 62, 1, -135 },
  { 0, 61, -106, -36 },
  { 0, 64, -37, 1 },
  { 0, 65, -38, 1 },
  { 0, 66, -20, 1 },
  { 0, 67, -107, -19 },
  { 0, 70, -128, 1 },
  { 0, 73, -108, 1 },
  { 0, 74, -42, -45 },
  { 0, 76, -46, 1 },
  { 0, 78, 1, 2 },
  { 0, 77, -47, -109 },
  { 0, 79, -48, -49 },
  { 0, 81, -41, 1 },
  { 0, 83, -40, 1 },
  { 0, 86, 1, 2 },
  { 0, 84, -39, -51 },
  { 0, 92, 1, 3 },
  { 0, 90, 1, -56 },
  { 0, 88, -136, -132 },
  { 0, 93, -57, 1 },
  { 0, 94, -111, 1 },
  { 0, 95, -58, 1 },
  { 0, 96, -59, 1 },
  { 0, 98, -60, 1 },
  { 0, 100, -61, -64 },
  { 0, 105, -65, 1 },
  { 0, 109, -114, 1 },
  { 0, 110, -70, 1 },
  { 0, 111, -50, -129 },
  { 0, 113, -115, 1 },
  { 0, 114, -71, 1 },
  { 0, 115, -72, 1 },
  { 0, 124, 1, 3 },
  { 0, 123, 1, -116 },
  { 0, 119, -73, -74 },
  { 0, 126, -80, 1 },
  { 0, 130, 1, 2 },
  { 0, 128, -81, -83 },
  { 0, 133, -86, 1 },
  { 0, 134, -119, -87 },
  { 0, 136, -120, 1 },
  { 0, 138, -88, 1 },
  { 0, 139, -121, -131 },
  { 0, 15, 1, 6 },
  { 0, 9, 1, -1 },
  { 0, 2, -2, 1 },
  { 0, 6, 1, 2 },
  { 0, 5, -6, -7 },
  { 0, 7, -91, -8 },
  { 0, 138, 1, 77 },
  { 0, 18, 1, 3 },
  { 0, 17, 1, -94 },
  { 0, 16, -9, -95 },
  { 0, 47, 1, 19 },
  { 0, 45, 1, -29 },
  { 0, 37, 1, 13 },
  { 0, 35, 1, 11 },
  { 0, 32, 1, 9 },
  { 0, 31, 1, -13 },
  { 0, 23, 1, 3 },
  { 0, 22, 1, -10 },
  { 0, 20, -122, -123 },
  { 0, 25, -14, 1 },
  { 0, 28, -16, 1 },
  { 0, 29, -99, 1 },
  { 0, 30, -124, -100 },
  { 0, 34, -125, -126 },
  { 0, 36, -11, -133 },
  { 0, 39, -24, 1 },
  { 0, 42, 1, 2 },
  { 0, 41, -23, -134 },
  { 0, 43, -26, -101 },
  { 0, 81, 1, 22 },
  { 0, 78, 1, -48 },
  { 0, 74, 1, 19 },
  { 0, 53, 1, 4 },
  { 0, 52, 1, -34 },
  { 0, 48, -30, 1 },
  { 0, 50, -31, -32 },
  { 0, 65, 1, 11 },
  { 0, 61, 1, 7 },
  { 0, 59, 1, 5 },
  { 0, 58, 1, -21 },
  { 0, 54, -103, 1 },
  { 0, 55, -104, 1 },
  { 0, 56, -105, -22 },
  { 0, 60, -35, -106 },
  { 0, 62, -36, 1 },
  { 0, 63, -135, 1 },
  { 0, 64, -37, -38 },
  { 0, 66, -20, 1 },
  { 0, 68, -107, 1 },
  { 0, 70, -18, -43 },
  { 0, 77, -47, -109 },
  { 0, 99, 1, 10 },
  { 0, 98, 1, -61 },
  { 0, 96, 1, -60 },
  { 0, 95, 1, -59 },
  { 0, 92, 1, 5 },
  { 0, 91, 1, -56 },
  { 0, 86, -39, 1 },
  { 0, 89, -136, 1 },
  { 0, 90, -54, -55 },
  { 0, 94, -57, -58 },
  { 0, 136, 1, -88 },
  { 0, 117, 1, 11 },
  { 0, 115, 1, -75 },
  { 0, 105, 1, 4 },
  { 0, 104, 1, -67 },
  { 0, 100, -62, 1 },
  { 0, 102, -63, -66 },
  { 0, 106, -113, 1 },
  { 0, 107, -68, 1 },
  { 0, 109, -114, 1 },
  { 0, 110, -70, 1 },
  { 0, 112, -50, -71 },
  { 0, 118, -130, 1 },
  { 0, 120, -76, 1 },
  { 0, 132, 1, 6 },
  { 0, 130, 1, 4 },
  { 0, 128, 1, -84 },
  { 0, 124, 1, -117 },
  { 0, 122, -74, -79 },
  { 0, 131, -85, -86 },
  { 0, 133, -118, 1 },
  { 0, 135, -119, -120 },
  { 0, 140, -121, -90 },
  { 0, 15, 1, 6 },
  { 0, 8, 1, -1 },
  { 0, 2, -2, 1 },
  { 0, 4, -6, 1 },
  { 0, 6, -4, 1 },
  { 0, 7, -91, -8 },
  { 0, 18, 1, 3 },
  { 0, 17, 1, -94 },
  { 0, 16, -9, -95 },
  { 0, 19, -122, 1 },
  { 0, 119, 1, 62 },
  { 0, 21, -96, 1 },
  { 0, 109, 1, 56 },
  { 0, 70, 1, 36 },
  { 0, 63, 1, 29 },
  { 0, 56, 1, 23 },
  { 0, 48, 1, 18 },
  { 0, 46, 1, -29 },
  { 0, 45, 1, -28 },
  { 0, 42, 1, 13 },
  { 0, 23, -123, 1 },
  { 0, 25, -14, 1 },
  { 0, 26, -15, 1 },
  { 0, 28, -16, 1 },
  { 0, 30, -99, 1 },
  { 0, 31, -100, 1 },
  { 0, 32, -13, 1 },
  { 0, 35, -125, 1 },
  { 0, 38, -133, 1 },
  { 0, 39, -25, 1 },
  { 0, 40, -127, 1 },
  { 0, 41, -23, -134 },
  { 0, 43, -26, 1 },
  { 0, 44, -101, -27 },
  { 0, 49, -31, 1 },
  { 0, 52, -102, 1 },
  { 0, 54, -103, 1 },
  { 0, 55, -104, -105 },
  { 0, 58, -22, 1 },
  { 0, 60, 1, 2 },
  { 0, 59, -21, -35 },
  { 0, 61, -106, 1 },
  { 0, 62, -36, -135 },
  { 0, 65, 1, 2 },
  { 0, 64, -37, -38 },
  { 0, 66, -20, 1 },
  { 0, 67, -107, 1 },
  { 0, 68, -19, 1 },
  { 0, 69, -128, -18 },
  { 0, 72, -43, 1 },
  { 0, 75, 1, 2 },
  { 0, 73, -44, -42 },
  { 0, 87, 1, 7 },
  { 0, 85, 1, -52 },
  { 0, 81, 1, 2 },
  { 0, 78, -46, -41 },
  { 0, 83, 1, 2 },
  { 0, 82, -40, -110 },
  { 0, 84, -39, -51 },
  { 0, 97, 1, 4 },
  { 0, 94, 1, -58 },
  { 0, 93, 1, -111 },
  { 0, 90, -136, -56 },
  { 0, 99, -61, 1 },
  { 0, 102, -62, 1 },
  { 0, 104, -66, 1 },
  { 0, 106, -67, 1 },
  { 0, 107, -68, -114 },
  { 0, 110, -70, 1 },
  { 0, 112, -50, 1 },
  { 0, 113, -115, 1 },
  { 0, 116, -71, -76 },
  { 0, 120, -77, 1 },
  { 0, 126, 1, 5 },
  { 0, 125, 1, -117 },
  { 0, 121, -78, 1 },
  { 0, 122, -74, 1 },
  { 0, 124, -79, -80 },
  { 0, 127, -81, 1 },
  { 0, 128, -82, 1 },
  { 0, 132, 1, 2 },
  { 0, 129, -83, -84 },
  { 0, 136, 1, 2 },
  { 0, 135, -87, -120 },
  { 0, 137, -88, -89 },
  { 0, 15, 1, 3 },
  { 0, 8, 1, -1 },
  { 0, 5, -4, -7 },
  { 0, 16, -9, 1 },
  { 0, 21, 1, 4 },
  { 0, 19, 1, -96 },
  { 0, 17, -95, 1 },
  { 0, 18, -94, -122 },
  { 0, 25, 1, 3 },
  { 0, 23, 1, -14 },
  { 0, 22, -123, -10 },
  { 0, 43, 1, 10 },
  { 0, 41, 1, -134 },
  { 0, 40, 1, -23 },
  { 0, 27, -15, 1 },
  { 0, 28, -17, 1 },
  { 0, 39, 1, -127 },
  { 0, 38, 1, -25 },
  { 0, 36, 1, -24 },
  { 0, 31, -99, 1 },
  { 0, 33, -125, -12 },
  { 0, 45, -27, 1 },
  { 0, 140, 1, -90 },
  { 0, 51, 1, 5 },
  { 0, 49, 1, -102 },
  { 0, 46, -28, 1 },
  { 0, 47, -29, 1 },
  { 0, 48, -30, -31 },
  { 0, 80, 1, 18 },
  { 0, 78, 1, -48 },
  { 0, 77, 1, -109 },
  { 0, 57, 1, 3 },
  { 0, 56, 1, -22 },
  { 0, 54, -34, -104 },
  { 0, 62, 1, 3 },
  { 0, 61, 1, -36 },
  { 0, 59, -93, -106 },
  { 0, 66, 1, 2 },
  { 0, 64, -135, -38 },
  { 0, 74, 1, 5 },
  { 0, 68, -19, 1 },
  { 0, 69, -128, 1 },
  { 0, 70, -18, 1 },
  { 0, 72, -43, -44 },
  { 0, 75, -45, 1 },
  { 0, 76, -46, -47 },
  { 0, 103, 1, 14 },
  { 0, 100, 1, -65 },
  { 0, 95, 1, 10 },
  { 0, 87, 1, 5 },
  { 0, 84, 1, 3 },
  { 0, 81, -41, 1 },
  { 0, 82, -40, -110 },
  { 0, 85, -51, -52 },
  { 0, 88, -136, 1 },
  { 0, 89, -132, 1 },
  { 0, 92, -54, 1 },
  { 0, 94, -111, -58 },
  { 0, 96, -59, 1 },
  { 0, 97, -60, -112 },
  { 0, 107, 1, 2 },
  { 0, 105, -66, -113 },
  { 0, 113, 1, 5 },
  { 0, 112, 1, -115 },
  { 0, 110, 1, 2 },
  { 0, 109, -114, -70 },
  { 0, 111, -50, -129 },
  { 0, 121, 1, 3 },
  { 0, 119, 1, -77 },
  { 0, 116, -71, -76 },
  { 0, 130, 1, 7 },
  { 0, 128, 1, -83 },
  { 0, 122, -74, 1 },
  { 0, 123, -79, 1 },
  { 0, 124, -116, 1 },
  { 0, 125, -80, 1 },
  { 0, 127, -117, -82 },
  { 0, 132, -85, 1 },
  { 0, 134, -118, 1 },
  { 0, 136, -120, 1 },
  { 0, 137, -88, 1 },
  { 0, 138, -89, -121 },
  { 0, 15, 1, 6 },
  { 0, 7, 1, -1 },
  { 0, 1, -2, 1 },
  { 0, 3, 1, 2 },
  { 0, 2, -92, -5 },
  { 0, 4, -6, -4 },
  { 0, 135, 1, 78 },
  { 0, 30, 1, 8 },
  { 0, 28, 1, -99 },
  { 0, 26, 1, -17 },
  { 0, 17, -95, 1 },
  { 0, 18, -94, 1 },
  { 0, 20, -122, 1 },
  { 0, 24, 1, -98 },
  { 0, 22, -123, -10 },
  { 0, 127, 1, 67 },
  { 0, 36, 1, 5 },
  { 0, 34, 1, -126 },
  { 0, 33, 1, -12 },
  { 0, 31, -100, 1 },
  { 0, 32, -13, -125 },
  { 0, 76, 1, 26 },
  { 0, 75, 1, -46 },
  { 0, 73, 1, 23 },
  { 0, 64, 1, 18 },
  { 0, 55, 1, 12 },
  { 0, 45, 1, 4 },
  { 0, 42, 1, -27 },
  { 0, 37, -133, 1 },
  { 0, 38, -24, -25 },
  { 0, 47, -28, 1 },
  { 0, 49, -31, 1 },
  { 0, 50, -102, 1 },
  { 0, 51, -32, 1 },
  { 0, 52, -33, 1 },
  { 0, 53, -34, 1 },
  { 0, 54, -103, -104 },
  { 0, 56, -105, 1 },
  { 0, 57, -22, 1 },
  { 0, 58, -93, 1 },
  { 0, 59, -21, 1 },
  { 0, 61, -35, -36 },
  { 0, 67, -20, 1 },
  { 0, 68, -19, 1 },
  { 0, 69, -128, 1 },
  { 0, 71, -18, -44 },
  { 0, 74, -42, -45 },
  { 0, 88, 1, 8 },
  { 0, 87, 1, -136 },
  { 0, 77, -47, 1 },
  { 0, 85, 1, -53 },
  { 0, 82, 1, -110 },
  { 0, 79, -109, 1 },
  { 0, 80, -49, 1 },
  { 0, 81, -41, -40 },
  { 0, 108, 1, 14 },
  { 0, 106, 1, 12 },
  { 0, 99, 1, 6 },
  { 0, 90, -132, 1 },
  { 0, 93, -56, 1 },
  { 0, 96, -58, 1 },
  { 0, 97, -60, 1 },
  { 0, 98, -112, -61 },
  { 0, 100, -62, 1 },
  { 0, 101, -63, 1 },
  { 0, 102, -64, 1 },
  { 0, 103, -65, 1 },
  { 0, 104, -66, -67 },
  { 0, 107, -68, -114 },
  { 0, 111, 1, 2 },
  { 0, 109, -69, -70 },
  { 0, 115, 1, 2 },
  { 0, 113, -129, -71 },
  { 0, 117, 1, 2 },
  { 0, 116, -73, -75 },
  { 0, 119, -130, 1 },
  { 0, 120, -77, 1 },
  { 0, 121, -78, 1 },
  { 0, 122, -74, 1 },
  { 0, 124, -79, 1 },
  { 0, 125, -80, 1 },
  { 0, 126, -117, -81 },
  { 0, 129, -82, 1 },
  { 0, 132, -84, -119 },
  { 0, 137, -88, 1 },
  { 0, 138, -89, -121 },
  { 0, 15, 1, 6 },
  { 0, 9, 1, -1 },
  { 0, 6, 1, -91 },
  { 0, 4, 1, -4 },
  { 0, 3, 1, -6 },
  { 0, 1, -3, -92 },
  { 0, 119, 1, 65 },
  { 0, 32, 1, 11 },
  { 0, 31, 1, -13 },
  { 0, 25, 1, 6 },
  { 0, 24, 1, -98 },
  { 0, 20, 1, 3 },
  { 0, 17, 1, -94 },
  { 0, 16, -9, -95 },
  { 0, 23, -123, -14 },
  { 0, 27, -15, 1 },
  { 0, 28, -17, 1 },
  { 0, 29, -99, -124 },
  { 0, 40, 1, 4 },
  { 0, 37, 1, -24 },
  { 0, 36, 1, -133 },
  { 0, 34, -125, -11 },
  { 0, 117, 1, -130 },
  { 0, 48, 1, 5 },
  { 0, 47, 1, -30 },
  { 0, 44, 1, 2 },
  { 0, 42, -134, -26 },
  { 0, 45, -27, -28 },
  { 0, 113, 1, 41 },
  { 0, 87, 1, 23 },
  { 0, 77, 1, 18 },
  { 0, 51, 1, 2 },
  { 0, 50, -31, -32 },
  { 0, 75, 1, 14 },
  { 0, 70, 1, 10 },
  { 0, 65, 1, 7 },
  { 0, 60, 1, 4 },
  { 0, 53, -33, 1 },
  { 0, 55, -104, 1 },
  { 0, 58, -105, -35 },
  { 0, 62, -106, 1 },
  { 0, 64, -37, -38 },
  { 0, 67, -20, 1 },
  { 0, 69, -19, -18 },
  { 0, 71, -43, 1 },
  { 0, 72, -108, 1 },
  { 0, 73, -44, -42 },
  { 0, 76, -46, -47 },
  { 0, 79, -109, 1 },
  { 0, 81, -49, 1 },
  { 0, 82, -40, 1 },
  { 0, 84, -110, -52 },
  { 0, 88, -136, 1 },
  { 0, 90, -132, 1 },
  { 0, 100, 1, 6 },
  { 0, 99, 1, -62 },
  { 0, 98, 1, -61 },
  { 0, 96, 1, -60 },
  { 0, 93, -55, 1 },
  { 0, 95, -58, -59 },
  { 0, 102, -63, 1 },
  { 0, 107, 1, 4 },
  { 0, 104, -65, 1 },
  { 0, 105, -67, 1 },
  { 0, 106, -113, -68 },
  { 0, 108, -114, 1 },
  { 0, 109, -69, 1 },
  { 0, 110, -70, 1 },
  { 0, 111, -50, -129 },
  { 0, 115, -71, 1 },
  { 0, 116, -73, -75 },
  { 0, 121, -77, 1 },
  { 0, 124, -79, 1 },
  { 0, 125, -80, 1 },
  { 0, 127, -117, 1 },
  { 0, 129, -82, 1 },
  { 0, 140, 1, -90 },
  { 0, 139, 1, -131 },
  { 0, 131, 1, 2 },
  { 0, 130, -84, -85 },
  { 0, 132, -86, 1 },
  { 0, 135, -118, 1 },
  { 0, 138, -88, -121 },
  { 0, 16, 1, 4 },
  { 0, 8, 1, -1 },
  { 0, 1, -2, 1 },
  { 0, 5, -5, -91 },
  { 0, 29, 1, 12 },
  { 0, 28, 1, -99 },
  { 0, 27, 1, -17 },
  { 0, 17, -95, 1 },
  { 0, 21, 1, 3 },
  { 0, 19, 1, -96 },
  { 0, 18, -94, -122 },
  { 0, 22, -123, 1 },
  { 0, 23, -10, 1 },
  { 0, 25, 1, 2 },
  { 0, 24, -14, -98 },
  { 0, 26, -15, -16 },
  { 0, 64, 1, 23 },
  { 0, 60, 1, 21 },
  { 0, 30, -124, 1 },
  { 0, 34, 1, 2 },
  { 0, 32, -100, -125 },
  { 0, 57, 1, 15 },
  { 0, 43, 1, 4 },
  { 0, 40, 1, -134 },
  { 0, 36, -11, 1 },
  { 0, 37, -133, -24 },
  { 0, 46, 1, 2 },
  { 0, 45, -27, -28 },
  { 0, 47, -29, 1 },
  { 0, 48, -30, 1 },
  { 0, 49, -31, 1 },
  { 0, 50, -102, 1 },
  { 0, 51, -32, 1 },
  { 0, 52, -33, 1 },
  { 0, 53, -34, 1 },
  { 0, 55, -103, -105 },
  { 0, 58, -93, 1 },
  { 0, 59, -21, -35 },
  { 0, 62, -106, -37 },
  { 0, 70, 1, 4 },
  { 0, 69, 1, -18 },
  { 0, 67, 1, -19 },
  { 0, 65, -38, -20 },
  { 0, 72, -43, 1 },
  { 0, 73, -44, 1 },
  { 0, 75, -42, 1 },
  { 0, 77, -47, 1 },
  { 0, 91, 1, 9 },
  { 0, 89, 1, -54 },
  { 0, 88, 1, -132 },
  { 0, 86, 1, -53 },
  { 0, 79, 1, 2 },
  { 0, 78, -109, -48 },
  { 0, 83, 1, 2 },
  { 0, 81, -49, -110 },
  { 0, 85, -39, -52 },
  { 0, 97, 1, 3 },
  { 0, 94, 1, -58 },
  { 0, 93, -56, -111 },
  { 0, 99, -61, 1 },
  { 0, 100, -62, 1 },
  { 0, 119, 1, 11 },
  { 0, 117, 1, -76 },
  { 0, 113, 1, 8 },
  { 0, 112, 1, -115 },
  { 0, 105, 1, 3 },
  { 0, 103, 1, -66 },
  { 0, 102, -63, -65 },
  { 0, 107, -113, 1 },
  { 0, 108, -114, 1 },
  { 0, 110, -69, -50 },
  { 0, 114, -71, -72 },
  { 0, 121, -77, 1 },
  { 0, 123, -79, 1 },
  { 0, 127, 1, 2 },
  { 0, 125, -116, -81 },
  { 0, 129, -82, 1 },
  { 0, 136, 1, 4 },
  { 0, 135, 1, -120 },
  { 0, 131, -85, 1 },
  { 0, 133, -86, -119 },
  { 0, 137, -88, 1 },
  { 0, 138, -89, 1 },
  { 0, 139, -121, -131 },
  { 0, 15, 1, 7 },
  { 0, 8, 1, -1 },
  { 0, 3, 1, 3 },
  { 0, 2, 1, -5 },
  { 0, 1, -3, -92 },
  { 0, 5, -6, 1 },
  { 0, 7, -91, -8 },
  { 0, 19, 1, 4 },
  { 0, 18, 1, -122 },
  { 0, 16, -9, 1 },
  { 0, 17, -95, -94 },
  { 0, 132, 1, 69 },
  { 0, 127, 1, 65 },
  { 0, 100, 1, 48 },
  { 0, 95, 1, 43 },
  { 0, 93, 1, -111 },
  { 0, 76, 1, 31 },
  { 0, 34, 1, 6 },
  { 0, 32, 1, -125 },
  { 0, 20, -96, 1 },
  { 0, 25, -97, 1 },
  { 0, 29, -99, 1 },
  { 0, 30, -124, -100 },
  { 0, 48, 1, 9 },
  { 0, 47, 1, -30 },
  { 0, 46, 1, -29 },
  { 0, 38, 1, 3 },
  { 0, 36, 1, -133 },
  { 0, 35, -126, -11 },
  { 0, 42, 1, 2 },
  { 0, 40, -127, -23 },
  { 0, 44, -26, -28 },
  { 0, 54, 1, 3 },
  { 0, 53, 1, -103 },
  { 0, 50, -31, -33 },
  { 0, 65, 1, 6 },
  { 0, 63, 1, -38 },
  { 0, 56, -104, 1 },
  { 0, 58, -22, 1 },
  { 0, 60, -21, 1 },
  { 0, 61, -106, -36 },
  { 0, 66, -20, 1 },
  { 0, 67, -107, 1 },
  { 0, 70, -19, 1 },
  { 0, 73, -44, 1 },
  { 0, 74, -42, 1 },
  { 0, 75, -45, -46 },
  { 0, 77, -47, 1 },
  { 0, 80, 1, 2 },
  { 0, 79, -109, -49 },
  { 0, 85, 1, 3 },
  { 0, 83, 1, -39 },
  { 0, 82, -41, -110 },
  { 0, 88, 1, 2 },
  { 0, 86, -52, -53 },
  { 0, 91, -54, 1 },
  { 0, 92, -56, -57 },
  { 0, 96, -59, 1 },
  { 0, 97, -60, 1 },
  { 0, 98, -112, 1 },
  { 0, 99, -61, -62 },
  { 0, 102, -63, 1 },
  { 0, 107, 1, 4 },
  { 0, 106, 1, -68 },
  { 0, 104, -65, 1 },
  { 0, 105, -67, -113 },
  { 0, 108, -114, 1 },
  { 0, 109, -69, 1 },
  { 0, 112, 1, 2 },
  { 0, 110, -70, -50 },
  { 0, 113, -115, 1 },
  { 0, 114, -71, 1 },
  { 0, 115, -72, 1 },
  { 0, 118, -73, 1 },
  { 0, 120, -77, 1 },
  { 0, 122, -78, 1 },
  { 0, 124, -79, -80 },
  { 0, 129, -83, 1 },
  { 0, 130, -84, 1 },
  { 0, 131, -85, -86 },
  { 0, 133, -118, 1 },
  { 0, 134, -119, 1 },
  { 0, 135, -87, -120 },
  { 0, 15, 1, 5 },
  { 0, 8, 1, -1 },
  { 0, 6, 1, -8 },
  { 0, 2, -2, 1 },
  { 0, 4, -6, -4 },
  { 0, 138, 1, 80 },
  { 0, 85, 1, 45 },
  { 0, 74, 1, 37 },
  { 0, 36, 1, 15 },
  { 0, 35, 1, -11 },
  { 0, 34, 1, -126 },
  { 0, 27, 1, 10 },
  { 0, 26, 1, -16 },
  { 0, 18, 1, 3 },
  { 0, 17, 1, -94 },
  { 0, 16, -9, -95 },
  { 0, 20, 1, 2 },
  { 0, 19, -122, -96 },
  { 0, 22, 1, 2 },
  { 0, 21, -97, -123 },
  { 0, 24, -10, -98 },
  { 0, 28, -17, 1 },
  { 0, 31, -99, -125 },
  { 0, 54, 1, 9 },
  { 0, 52, 1, -34 },
  { 0, 50, 1, -32 },
  { 0, 42, 1, 3 },
  { 0, 40, 1, -23 },
  { 0, 38, -133, -127 },
  { 0, 47, 1, 2 },
  { 0, 44, -26, -28 },
  { 0, 49, -31, -102 },
  { 0, 55, -104, 1 },
  { 0, 62, 1, 5 },
  { 0, 61, 1, -36 },
  { 0, 56, -105, 1 },
  { 0, 58, -22, 1 },
  { 0, 60, -21, -106 },
  { 0, 65, 1, 2 },
  { 0, 63, -135, -37 },
  { 0, 67, -107, 1 },
  { 0, 69, -19, 1 },
  { 0, 71, -18, 1 },
  { 0, 72, -108, -44 },
  { 0, 76, -45, 1 },
  { 0, 79, 1, 3 },
  { 0, 78, 1, -48 },
  { 0, 77, -47, -109 },
  { 0, 80, -49, 1 },
  { 0, 82, -41, 1 },
  { 0, 83, -110, -39 },
  { 0, 87, -53, 1 },
  { 0, 89, -136, 1 },
  { 0, 90, -54, 1 },
  { 0, 103, 1, 8 },
  { 0, 102, 1, -65 },
  { 0, 97, 1, 4 },
  { 0, 94, 1, -58 },
  { 0, 92, -55, 1 },
  { 0, 93, -57, -111 },
  { 0, 100, -61, 1 },
  { 0, 101, -63, -64 },
  { 0, 112, 1, 6 },
  { 0, 111, 1, -129 },
  { 0, 108, 1, 3 },
  { 0, 104, -66, 1 },
  { 0, 106, -67, -68 },
  { 0, 109, -69, -70 },
  { 0, 136, 1, 16 },
  { 0, 118, 1, 3 },
  { 0, 117, 1, -130 },
  { 0, 115, -115, -75 },
  { 0, 124, 1, 6 },
  { 0, 123, 1, -116 },
  { 0, 119, -76, 1 },
  { 0, 120, -77, 1 },
  { 0, 121, -78, 1 },
  { 0, 122, -74, -79 },
  { 0, 131, 1, 4 },
  { 0, 125, -80, 1 },
  { 0, 126, -117, 1 },
  { 0, 129, -81, -85 },
  { 0, 133, -86, 1 },
  { 0, 135, -119, -120 },
  { 0, 137, -88, -89 },
  { 0, 139, -121, 1 },
  { 0, 140, -131, -90 },
  { 0, 15, 1, 9 },
  { 0, 9, 1, -1 },
  { 0, 2, 1, 2 },
  { 0, 1, -3, -92 },
  { 0, 5, 1, 3 },
  { 0, 4, 1, -4 },
  { 0, 3, -5, -6 },
  { 0, 6, -7, 1 },
  { 0, 7, -91, -8 },
  { 0, 135, 1, 74 },
  { 0, 115, 1, 62 },
  { 0, 90, 1, 45 },
  { 0, 17, -9, 1 },
  { 0, 88, 1, -132 },
  { 0, 35, 1, 10 },
  { 0, 32, 1, 8 },
  { 0, 23, 1, 2 },
  { 0, 20, -122, -123 },
  { 0, 25, 1, 2 },
  { 0, 24, -14, -98 },
  { 0, 26, -15, 1 },
  { 0, 28, -16, 1 },
  { 0, 30, -99, -13 },
  { 0, 33, -125, -12 },
  { 0, 43, 1, 4 },
  { 0, 42, 1, -26 },
  { 0, 38, -11, 1 },
  { 0, 41, -127, -134 },
  { 0, 47, 1, 4 },
  { 0, 46, 1, -29 },
  { 0, 45, 1, -28 },
  { 0, 44, -101, -27 },
  { 0, 50, 1, 2 },
  { 0, 48, -30, -31 },
  { 0, 54, 1, 2 },
  { 0, 53, -33, -103 },
  { 0, 56, 1, 2 },
  { 0, 55, -104, -105 },
  { 0, 70, 1, 9 },
  { 0, 69, 1, -18 },
  { 0, 60, 1, 3 },
  { 0, 59, 1, -35 },
  { 0, 57, -22, -93 },
  { 0, 61, -106, 1 },
  { 0, 63, -36, 1 },
  { 0, 66, -38, 1 },
  { 0, 68, -107, -128 },
  { 0, 71, -43, 1 },
  { 0, 73, 1, 2 },
  { 0, 72, -108, -44 },
  { 0, 75, 1, 2 },
  { 0, 74, -42, -45 },
  { 0, 79, 1, 2 },
  { 0, 77, -46, -48 },
  { 0, 83, -49, 1 },
  { 0, 86, -52, -53 },
  { 0, 92, -56, 1 },
  { 0, 93, -57, 1 },
  { 0, 96, 1, 2 },
  { 0, 94, -111, -58 },
  { 0, 97, -60, 1 },
  { 0, 110, 1, 8 },
  { 0, 101, 1, 4 },
  { 0, 98, -112, 1 },
  { 0, 99, -61, 1 },
  { 0, 100, -62, -63 },
  { 0, 104, -64, 1 },
  { 0, 107, -113, 1 },
  { 0, 108, -114, -69 },
  { 0, 111, -50, 1 },
  { 0, 112, -129, 1 },
  { 0, 113, -115, -71 },
  { 0, 118, -75, 1 },
  { 0, 120, -77, 1 },
  { 0, 122, -78, 1 },
  { 0, 134, 1, -87 },
  { 0, 132, 1, -118 },
  { 0, 129, 1, 5 },
  { 0, 123, -79, 1 },
  { 0, 124, -116, 1 },
  { 0, 126, -80, 1 },
  { 0, 128, -81, -83 },
  { 0, 130, -84, -85 },
  { 0, 136, -120, 1 },
  { 0, 140, 1, -90 },
  { 0, 139, 1, -131 },
  { 0, 137, -88, -89 },
  { 0, 16, 1, 8 },
  { 0, 8, 1, -1 },
  { 0, 5, 1, 4 },
  { 0, 4, 1, -4 },
  { 0, 2, -3, 1 },
  { 0, 3, -5, -6 },
  { 0, 6, -7, 1 },
  { 0, 7, -91, -8 },
  { 0, 18, -94, 1 },
  { 0, 19, -122, 1 },
  { 0, 134, 1, 73 },
  { 0, 20, -96, 1 },
  { 0, 50, 1, 17 },
  { 0, 49, 1, -102 },
  { 0, 45, 1, 14 },
  { 0, 35, 1, 10 },
  { 0, 34, 1, -126 },
  { 0, 30, 1, 5 },
  { 0, 27, 1, -99 },
  { 0, 21, -97, 1 },
  { 0, 22, -123, 1 },
  { 0, 24, -10, -15 },
  { 0, 31, -100, 1 },
  { 0, 32, -13, 1 },
  { 0, 33, -125, -12 },
  { 0, 38, -11, 1 },
  { 0, 41, -23, 1 },
  { 0, 42, -134, -26 },
  { 0, 47, -29, -30 },
  { 0, 113, 1, 39 },
  { 0, 65, 1, 10 },
  { 0, 63, 1, -37 },
  { 0, 53, 1, 2 },
  { 0, 51, -32, -33 },
  { 0, 56, 1, 3 },
  { 0, 55, 1, -105 },
  { 0, 54, -103, -104 },
  { 0, 59, 1, 2 },
  { 0, 57, -22, -93 },
  { 0, 61, -35, -135 },
  { 0, 70, 1, 2 },
  { 0, 68, -107, -18 },
  { 0, 86, 1, 8 },
  { 0, 85, 1, -52 },
  { 0, 75, 1, 3 },
  { 0, 74, 1, -45 },
  { 0, 72, -43, -42 },
  { 0, 78, -46, 1 },
  { 0, 80, -49, 1 },
  { 0, 82, -41, -39 },
  { 0, 96, 1, 7 },
  { 0, 95, 1, -59 },
  { 0, 90, 1, 3 },
  { 0, 88, 1, -132 },
  { 0, 87, -53, -136 },
  { 0, 92, -55, 1 },
  { 0, 94, -111, -58 },
  { 0, 97, -60, 1 },
  { 0, 99, -112, 1 },
  { 0, 100, -62, 1 },
  { 0, 101, -63, 1 },
  { 0, 102, -64, 1 },
  { 0, 103, -65, 1 },
  { 0, 104, -66, 1 },
  { 0, 105, -67, 1 },
  { 0, 107, -113, 1 },
  { 0, 109, -114, 1 },
  { 0, 111, -50, -129 },
  { 0, 114, -71, 1 },
  { 0, 115, -72, 1 },
  { 0, 116, -73, 1 },
  { 0, 132, 1, 11 },
  { 0, 119, 1, 3 },
  { 0, 118, 1, -76 },
  { 0, 117, -75, -130 },
  { 0, 125, 1, 4 },
  { 0, 120, -77, 1 },
  { 0, 122, -78, 1 },
  { 0, 123, -79, -116 },
  { 0, 127, -81, 1 },
  { 0, 128, -82, 1 },
  { 0, 130, -83, -86 },
  { 0, 133, -118, -119 },
  { 0, 135, -87, 1 },
  { 0, 137, -120, 1 },
  { 0, 139, -89, 1 },
  { 0, 140, -131, -90 },
  { 0, 15, 1, 7 },
  { 0, 8, 1, -1 },
  { 0, 5, 1, 3 },
  { 0, 3, 1, -6 },
  { 0, 1, -2, -5 },
  { 0, 6, -7, 1 },
  { 0, 7, -91, -8 },
  { 0, 128, 1, 71 },
  { 0, 120, 1, 63 },
  { 0, 96, 1, 45 },
  { 0, 92, 1, 42 },
  { 0, 72, 1, 33 },
  { 0, 70, 1, -108 },
  { 0, 35, 1, 10 },
  { 0, 33, 1, -12 },
  { 0, 25, 1, 4 },
  { 0, 22, 1, -14 },
  { 0, 17, -9, 1 },
  { 0, 19, -94, -96 },
  { 0, 27, -16, 1 },
  { 0, 29, -17, 1 },
  { 0, 30, -124, 1 },
  { 0, 32, -100, -125 },
  { 0, 38, 1, 3 },
  { 0, 37, 1, -24 },
  { 0, 36, -11, -133 },
  { 0, 41, 1, 2 },
  { 0, 40, -25, -23 },
  { 0, 59, 1, 12 },
  { 0, 54, 1, 9 },
  { 0, 48, 1, 4 },
  { 0, 46, 1, -29 },
  { 0, 42, -134, 1 },
  { 0, 44, -26, -27 },
  { 0, 51, 1, 2 },
  { 0, 49, -31, -102 },
  { 0, 52, -33, 1 },
  { 0, 53, -34, -103 },
  { 0, 56, -104, 1 },
  { 0, 57, -22, -93 },
  { 0, 61, -35, 1 },
  { 0, 67, 1, 2 },
  { 0, 64, -36, -107 },
  { 0, 68, -19, -128 },
  { 0, 76, 1, 2 },
  { 0, 73, -44, -42 },
  { 0, 82, 1, 2 },
  { 0, 80, -48, -41 },
  { 0, 87, 1, 3 },
  { 0, 83, -110, 1 },
  { 0, 85, -39, -52 },
  { 0, 90, -132, -56 },
  { 0, 93, -57, 1 },
  { 0, 95, -111, -59 },
  { 0, 98, 1, 2 },
  { 0, 97, -60, -112 },
  { 0, 114, 1, 10 },
  { 0, 110, 1, 7 },
  { 0, 108, 1, -69 },
  { 0, 101, 1, 2 },
  { 0, 99, -61, -62 },
  { 0, 105, 1, 2 },
  { 0, 103, -65, -66 },
  { 0, 107, -68, -114 },
  { 0, 112, -50, 1 },
  { 0, 113, -115, -71 },
  { 0, 115, -72, 1 },
  { 0, 118, 1, 3 },
  { 0, 117, 1, -130 },
  { 0, 116, -73, -75 },
  { 0, 119, -76, -77 },
  { 0, 121, -78, 1 },
  { 0, 123, 1, 2 },
  { 0, 122, -74, -79 },
  { 0, 124, -116, 1 },
  { 0, 125, -80, 1 },
  { 0, 126, -117, 1 },
  { 0, 127, -81, -82 },
  { 0, 130, -83, 1 },
  { 0, 138, 1, 5 },
  { 0, 133, -86, 1 },
  { 0, 134, -119, 1 },
  { 0, 135, -87, 1 },
  { 0, 137, -120, -89 },
  { 0, 140, -121, -90 },
  { 0, 16, 1, 7 },
  { 0, 8, 1, -1 },
  { 0, 5, 1, 4 },
  { 0, 4, 1, -4 },
  { 0, 0, -2, 1 },
  { 0, 2, -3, -5 },
  { 0, 7, -7, -8 },
  { 0, 140, 1, -90 },
  { 0, 39, 1, 15 },
  { 0, 37, 1, -24 },
  { 0, 36, 1, -133 },
  { 0, 34, 1, -126 },
  { 0, 25, 1, 5 },
  { 0, 24, 1, -98 },
  { 0, 22, 1, -10 },
  { 0, 19, -94, 1 },
  { 0, 20, -96, -97 },
  { 0, 29, 1, 2 },
  { 0, 27, -15, -17 },
  { 0, 30, -124, 1 },
  { 0, 31, -100, 1 },
  { 0, 32, -13, 1 },
  { 0, 33, -125, -12 },
  { 0, 43, 1, 3 },
  { 0, 42, 1, -26 },
  { 0, 41, -127, -134 },
  { 0, 72, 1, 19 },
  { 0, 66, 1, 16 },
  { 0, 50, 1, 5 },
  { 0, 49, 1, -102 },
  { 0, 44, -101, 1 },
  { 0, 45, -27, 1 },
  { 0, 47, -28, -31 },
  { 0, 56, 1, 4 },
  { 0, 54, 1, -104 },
  { 0, 51, -32, 1 },
  { 0, 52, -33, -34 },
  { 0, 58, -93, 1 },
  { 0, 59, -21, 1 },
  { 0, 60, -35, 1 },
  { 0, 62, -106, 1 },
  { 0, 63, -135, 1 },
  { 0, 64, -37, -38 },
  { 0, 69, -19, 1 },
  { 0, 71, -43, -108 },
  { 0, 79, 1, 6 },
  { 0, 78, 1, -48 },
  { 0, 77, 1, -109 },
  { 0, 74, -44, 1 },
  { 0, 75, -45, 1 },
  { 0, 76, -46, -47 },
  { 0, 100, 1, 13 },
  { 0, 98, 1, -61 },
  { 0, 97, 1, -112 },
  { 0, 95, 1, 9 },
  { 0, 86, 1, 3 },
  { 0, 84, 1, -51 },
  { 0, 81, -49, -110 },
  { 0, 90, 1, 2 },
  { 0, 88, -53, -132 },
  { 0, 92, -56, 1 },
  { 0, 93, -57, 1 },
  { 0, 94, -111, -58 },
  { 0, 96, -59, -60 },
  { 0, 114, 1, 10 },
  { 0, 112, 1, -115 },
  { 0, 111, 1, -129 },
  { 0, 106, 1, 3 },
  { 0, 104, 1, -67 },
  { 0, 102, -63, -66 },
  { 0, 108, 1, 2 },
  { 0, 107, -68, -114 },
  { 0, 109, -69, 1 },
  { 0, 110, -70, -50 },
  { 0, 118, 1, 2 },
  { 0, 116, -72, -130 },
  { 0, 137, 1, 12 },
  { 0, 132, 1, 9 },
  { 0, 124, 1, 4 },
  { 0, 123, 1, -116 },
  { 0, 119, -76, 1 },
  { 0, 121, -77, -79 },
  { 0, 126, -80, 1 },
  { 0, 127, -81, 1 },
  { 0, 129, -82, 1 },
  { 0, 131, -85, -86 },
  { 0, 134, -118, 1 },
  { 0, 136, -120, -88 },
  { 0, 138, -89, 1 },
  { 0, 139, -121, -131 },
  { 0, 15, 1, 8 },
  { 0, 8, 1, -1 },
  { 0, 0, -2, 1 },
  { 0, 1, -3, 1 },
  { 0, 7, 1, -8 },
  { 0, 3, -92, 1 },
  { 0, 4, -6, 1 },
  { 0, 5, -4, -7 },
  { 0, 126, 1, 68 },
  { 0, 63, 1, 28 },
  { 0, 60, 1, -106 },
  { 0, 49, 1, 22 },
  { 0, 48, 1, -31 },
  { 0, 18, 1, 2 },
  { 0, 16, -9, -95 },
  { 0, 32, 1, 10 },
  { 0, 27, 1, 7 },
  { 0, 23, 1, 4 },
  { 0, 21, 1, -123 },
  { 0, 19, -122, 1 },
  { 0, 20, -96, -97 },
  { 0, 24, -14, 1 },
  { 0, 26, -98, -16 },
  { 0, 29, -17, 1 },
  { 0, 30, -124, -100 },
  { 0, 34, -125, 1 },
  { 0, 38, 1, 2 },
  { 0, 36, -126, -133 },
  { 0, 43, 1, 3 },
  { 0, 40, -25, 1 },
  { 0, 42, -23, -26 },
  { 0, 44, -101, 1 },
  { 0, 46, -27, -30 },
  { 0, 52, -102, 1 },
  { 0, 58, 1, -21 },
  { 0, 56, 1, -22 },
  { 0, 55, -103, -105 },
  { 0, 66, -38, 1 },
  { 0, 69, -19, 1 },
  { 0, 71, -43, 1 },
  { 0, 92, 1, 11 },
  { 0, 89, 1, -54 },
  { 0, 87, 1, -136 },
  { 0, 86, 1, -53 },
  { 0, 82, 1, 6 },
  { 0, 76, 1, 3 },
  { 0, 73, -108, 1 },
  { 0, 74, -42, -45 },
  { 0, 79, -109, 1 },
  { 0, 80, -49, -41 },
  { 0, 84, -110, -51 },
  { 0, 94, -111, 1 },
  { 0, 97, 1, 2 },
  { 0, 96, -58, -60 },
  { 0, 124, 1, 21 },
  { 0, 106, 1, 6 },
  { 0, 103, 1, -67 },
  { 0, 101, 1, -64 },
  { 0, 100, 1, -63 },
  { 0, 98, -112, 1 },
  { 0, 99, -61, -62 },
  { 0, 109, 1, 3 },
  { 0, 108, 1, -69 },
  { 0, 107, -68, -114 },
  { 0, 116, 1, 6 },
  { 0, 115, 1, -73 },
  { 0, 110, -70, 1 },
  { 0, 111, -50, 1 },
  { 0, 112, -129, 1 },
  { 0, 113, -115, -71 },
  { 0, 117, -75, 1 },
  { 0, 118, -130, 1 },
  { 0, 120, -76, 1 },
  { 0, 121, -78, 1 },
  { 0, 122, -74, -79 },
  { 0, 125, -80, -117 },
  { 0, 127, -81, 1 },
  { 0, 137, 1, 7 },
  { 0, 134, 1, 4 },
  { 0, 131, 1, -118 },
  { 0, 128, -82, 1 },
  { 0, 129, -83, -84 },
  { 0, 135, -87, 1 },
  { 0, 136, -120, -88 },
  { 0, 139, -89, 1 },
  { 0, 140, -131, -90 },
  { 0, 15, 1, 6 },
  { 0, 8, 1, -1 },
  { 0, 1, -3, 1 },
  { 0, 3, -92, 1 },
  { 0, 4, -6, 1 },
  { 0, 6, -4, -91 },
  { 0, 18, 1, 3 },
  { 0, 17, 1, -94 },
  { 0, 16, -9, -95 },
  { 0, 132, 1, 71 },
  { 0, 39, 1, 11 },
  { 0, 38, 1, -25 },
  { 0, 20, -122, 1 },
  { 0, 36, 1, -133 },
  { 0, 30, 1, 4 },
  { 0, 27, 1, -124 },
  { 0, 21, -97, 1 },
  { 0, 23, -123, -14 },
  { 0, 31, -100, 1 },
  { 0, 33, -13, 1 },
  { 0, 35, -126, -11 },
  { 0, 57, 1, 15 },
  { 0, 56, 1, -22 },
  { 0, 51, 1, 10 },
  { 0, 40, -127, 1 },
  { 0, 46, 1, 5 },
  { 0, 43, 1, 3 },
  { 0, 41, -23, 1 },
  { 0, 42, -134, -26 },
  { 0, 44, -101, -27 },
  { 0, 47, -29, 1 },
  { 0, 48, -30, 1 },
  { 0, 50, -31, -32 },
  { 0, 52, -33, 1 },
  { 0, 53, -34, 1 },
  { 0, 55, -103, -105 },
  { 0, 58, -93, 1 },
  { 0, 114, 1, 32 },
  { 0, 100, 1, 28 },
  { 0, 92, 1, 22 },
  { 0, 91, 1, -56 },
  { 0, 90, 1, -55 },
  { 0, 81, 1, 15 },
  { 0, 79, 1, -49 },
  { 0, 70, 1, 7 },
  { 0, 69, 1, -18 },
  { 0, 68, 1, -128 },
  { 0, 61, -21, 1 },
  { 0, 63, -135, 1 },
  { 0, 65, -37, 1 },
  { 0, 67, -107, -19 },
  { 0, 75, 1, 3 },
  { 0, 73, 1, -42 },
  { 0, 72, -43, -44 },
  { 0, 76, -46, 1 },
  { 0, 77, -47, 1 },
  { 0, 78, -109, -48 },
  { 0, 83, -110, 1 },
  { 0, 87, 1, 2 },
  { 0, 85, -39, -53 },
  { 0, 89, -136, -54 },
  { 0, 93, -57, 1 },
  { 0, 98, 1, 3 },
  { 0, 96, 1, -60 },
  { 0, 94, -111, -58 },
  { 0, 99, -61, -62 },
  { 0, 104, -63, 1 },
  { 0, 110, -114, 1 },
  { 0, 113, -115, -71 },
  { 0, 115, -72, 1 },
  { 0, 116, -73, 1 },
  { 0, 119, 1, 3 },
  { 0, 118, 1, -76 },
  { 0, 117, -75, -130 },
  { 0, 123, 1, 2 },
  { 0, 121, -77, -74 },
  { 0, 125, -116, 1 },
  { 0, 130, 1, 2 },
  { 0, 128, -81, -84 },
  { 0, 131, -85, -86 },
  { 0, 133, -118, 1 },
  { 0, 135, 1, 2 },
  { 0, 134, -119, -87 },
  { 0, 137, -120, -121 },
  { 0, 21, 1, 10 },
  { 0, 19, 1, -97 },
  { 0, 8, 1, 6 },
  { 0, 4, 1, 4 },
  { 0, 0, -2, 1 },
  { 0, 1, -3, 1 },
  { 0, 2, -92, -5 },
