#pragma once
#include <cstdarg>
#include <cstdint>
namespace Eloquent {
    namespace ML {
        namespace Port {
            class RandomForest {
                public:
                    /**
                    * Predict class for features vector
                    */
                    int predict(float *x) {
                        uint8_t votes[136] = { 0 };
                        // tree #1
                        if (x[0] <= 15.5) {
                            if (x[0] <= 8.5) {
                                if (x[0] <= 0.5) {
                                    votes[43] += 1;
                                }

                                else {
                                    if (x[0] <= 2.0) {
                                        votes[39] += 1;
                                    }

                                    else {
                                        if (x[0] <= 5.5) {
                                            if (x[0] <= 4.5) {
                                                if (x[0] <= 3.5) {
                                                    votes[1] += 1;
                                                }

                                                else {
                                                    votes[46] += 1;
                                                }
                                            }

                                            else {
                                                votes[45] += 1;
                                            }
                                        }

                                        else {
                                            if (x[0] <= 7.0) {
                                                votes[44] += 1;
                                            }

                                            else {
                                                votes[135] += 1;
                                            }
                                        }
                                    }
                                }
                            }

                            else {
                                votes[72] += 1;
                            }
                        }

                        else {
                            if (x[0] <= 23.5) {
                                if (x[0] <= 19.5) {
                                    votes[133] += 1;
                                }

                                else {
                                    votes[88] += 1;
                                }
                            }

                            else {
                                if (x[0] <= 37.0) {
                                    if (x[0] <= 35.0) {
                                        if (x[0] <= 33.0) {
                                            if (x[0] <= 30.0) {
                                                if (x[0] <= 25.0) {
                                                    votes[71] += 1;
                                                }

                                                else {
                                                    if (x[0] <= 26.5) {
                                                        votes[73] += 1;
                                                    }

                                                    else {
                                                        if (x[0] <= 27.5) {
                                                            votes[123] += 1;
                                                        }

                                                        else {
                                                            votes[117] += 1;
                                                        }
                                                    }
                                                }
                                            }

                                            else {
                                                votes[121] += 1;
                                            }
                                        }

                                        else {
                                            votes[119] += 1;
                                        }
                                    }

                                    else {
                                        votes[128] += 1;
                                    }
                                }

                                else {
                                    if (x[0] <= 70.5) {
                                        if (x[0] <= 69.0) {
                                            if (x[0] <= 67.0) {
                                                if (x[0] <= 65.5) {
                                                    if (x[0] <= 59.5) {
                                                        if (x[0] <= 58.0) {
                                                            if (x[0] <= 55.0) {
                                                                if (x[0] <= 42.0) {
                                                                    if (x[0] <= 40.0) {
                                                                        if (x[0] <= 38.5) {
                                                                            votes[131] += 1;
                                                                        }

                                                                        else {
                                                                            votes[124] += 1;
                                                                        }
                                                                    }

                                                                    else {
                                                                        votes[132] += 1;
                                                                    }
                                                                }

                                                                else {
                                                                    if (x[0] <= 45.5) {
                                                                        if (x[0] <= 44.0) {
                                                                            votes[7] += 1;
                                                                        }

                                                                        else {
                                                                            votes[9] += 1;
                                                                        }
                                                                    }

                                                                    else {
                                                                        if (x[0] <= 47.5) {
                                                                            if (x[0] <= 46.5) {
                                                                                votes[10] += 1;
                                                                            }

                                                                            else {
                                                                                votes[11] += 1;
                                                                            }
                                                                        }

                                                                        else {
                                                                            if (x[0] <= 48.5) {
                                                                                votes[12] += 1;
                                                                            }

                                                                            else {
                                                                                if (x[0] <= 50.0) {
                                                                                    votes[13] += 1;
                                                                                }

                                                                                else {
                                                                                    if (x[0] <= 51.5) {
                                                                                        votes[15] += 1;
                                                                                    }

                                                                                    else {
                                                                                        if (x[0] <= 52.5) {
                                                                                            votes[40] += 1;
                                                                                        }

                                                                                        else {
                                                                                            votes[41] += 1;
                                                                                        }
                                                                                    }
                                                                                }
                                                                            }
                                                                        }
                                                                    }
                                                                }
                                                            }

                                                            else {
                                                                votes[113] += 1;
                                                            }
                                                        }

                                                        else {
                                                            votes[115] += 1;
                                                        }
                                                    }

                                                    else {
                                                        if (x[0] <= 61.0) {
                                                            votes[4] += 1;
                                                        }

                                                        else {
                                                            if (x[0] <= 63.0) {
                                                                votes[6] += 1;
                                                            }

                                                            else {
                                                                if (x[0] <= 64.5) {
                                                                    votes[52] += 1;
                                                                }

                                                                else {
                                                                    votes[92] += 1;
                                                                }
                                                            }
                                                        }
                                                    }
                                                }

                                                else {
                                                    votes[95] += 1;
                                                }
                                            }

                                            else {
                                                votes[94] += 1;
                                            }
                                        }

                                        else {
                                            votes[90] += 1;
                                        }
                                    }

                                    else {
                                        if (x[0] <= 96.5) {
                                            if (x[0] <= 92.0) {
                                                if (x[0] <= 87.5) {
                                                    if (x[0] <= 86.5) {
                                                        if (x[0] <= 80.5) {
                                                            if (x[0] <= 76.5) {
                                                                if (x[0] <= 72.0) {
                                                                    votes[91] += 1;
                                                                }

                                                                else {
                                                                    votes[50] += 1;
                                                                }
                                                            }

                                                            else {
                                                                votes[51] += 1;
                                                            }
                                                        }

                                                        else {
                                                            if (x[0] <= 82.5) {
                                                                if (x[0] <= 81.5) {
                                                                    votes[47] += 1;
                                                                }

                                                                else {
                                                                    votes[74] += 1;
                                                                }
                                                            }

                                                            else {
                                                                if (x[0] <= 84.0) {
                                                                    votes[84] += 1;
                                                                }

                                                                else {
                                                                    if (x[0] <= 85.5) {
                                                                        votes[79] += 1;
                                                                    }

                                                                    else {
                                                                        votes[78] += 1;
                                                                    }
                                                                }
                                                            }
                                                        }
                                                    }

                                                    else {
                                                        votes[82] += 1;
                                                    }
                                                }

                                                else {
                                                    votes[75] += 1;
                                                }
                                            }

                                            else {
                                                votes[80] += 1;
                                            }
                                        }

                                        else {
                                            if (x[0] <= 139.5) {
                                                if (x[0] <= 134.5) {
                                                    if (x[0] <= 120.5) {
                                                        if (x[0] <= 114.5) {
                                                            if (x[0] <= 104.5) {
                                                                if (x[0] <= 97.5) {
                                                                    votes[76] += 1;
                                                                }

                                                                else {
                                                                    if (x[0] <= 98.5) {
                                                                        votes[77] += 1;
                                                                    }

                                                                    else {
                                                                        if (x[0] <= 100.5) {
                                                                            votes[66] += 1;
                                                                        }

                                                                        else {
                                                                            if (x[0] <= 102.5) {
                                                                                votes[67] += 1;
                                                                            }

                                                                            else {
                                                                                if (x[0] <= 103.5) {
                                                                                    votes[59] += 1;
                                                                                }

                                                                                else {
                                                                                    votes[62] += 1;
                                                                                }
                                                                            }
                                                                        }
                                                                    }
                                                                }
                                                            }

                                                            else {
                                                                if (x[0] <= 109.0) {
                                                                    votes[63] += 1;
                                                                }

                                                                else {
                                                                    if (x[0] <= 113.5) {
                                                                        votes[54] += 1;
                                                                    }

                                                                    else {
                                                                        votes[55] += 1;
                                                                    }
                                                                }
                                                            }
                                                        }

                                                        else {
                                                            if (x[0] <= 116.0) {
                                                                votes[56] += 1;
                                                            }

                                                            else {
                                                                if (x[0] <= 117.5) {
                                                                    votes[61] += 1;
                                                                }

                                                                else {
                                                                    if (x[0] <= 118.5) {
                                                                        votes[60] += 1;
                                                                    }

                                                                    else {
                                                                        if (x[0] <= 119.5) {
                                                                            votes[48] += 1;
                                                                        }

                                                                        else {
                                                                            votes[19] += 1;
                                                                        }
                                                                    }
                                                                }
                                                            }
                                                        }
                                                    }

                                                    else {
                                                        if (x[0] <= 124.5) {
                                                            votes[26] += 1;
                                                        }

                                                        else {
                                                            if (x[0] <= 128.5) {
                                                                votes[30] += 1;
                                                            }

                                                            else {
                                                                if (x[0] <= 130.0) {
                                                                    votes[22] += 1;
                                                                }

                                                                else {
                                                                    if (x[0] <= 132.0) {
                                                                        votes[31] += 1;
                                                                    }

                                                                    else {
                                                                        if (x[0] <= 133.5) {
                                                                            votes[34] += 1;
                                                                        }

                                                                        else {
                                                                            votes[20] += 1;
                                                                        }
                                                                    }
                                                                }
                                                            }
                                                        }
                                                    }
                                                }

                                                else {
                                                    votes[28] += 1;
                                                }
                                            }

                                            else {
                                                if (x[0] <= 144.5) {
                                                    votes[21] += 1;
                                                }

                                                else {
                                                    if (x[0] <= 146.5) {
                                                        if (x[0] <= 145.5) {
                                                            votes[29] += 1;
                                                        }

                                                        else {
                                                            votes[32] += 1;
                                                        }
                                                    }

                                                    else {
                                                        if (x[0] <= 152.5) {
                                                            if (x[0] <= 151.5) {
                                                                if (x[0] <= 149.5) {
                                                                    if (x[0] <= 148.0) {
                                                                        votes[33] += 1;
                                                                    }

                                                                    else {
                                                                        votes[17] += 1;
                                                                    }
                                                                }

                                                                else {
                                                                    if (x[0] <= 150.5) {
                                                                        votes[27] += 1;
                                                                    }

                                                                    else {
                                                                        votes[2] += 1;
                                                                    }
                                                                }
                                                            }

                                                            else {
                                                                votes[3] += 1;
                                                            }
                                                        }

                                                        else {
                                                            if (x[0] <= 154.0) {
                                                                votes[96] += 1;
                                                            }

                                                            else {
                                                                if (x[0] <= 156.0) {
                                                                    votes[98] += 1;
                                                                }

                                                                else {
                                                                    if (x[0] <= 157.5) {
                                                                        votes[100] += 1;
                                                                    }

                                                                    else {
                                                                        if (x[0] <= 158.5) {
                                                                            votes[101] += 1;
                                                                        }

                                                                        else {
                                                                            if (x[0] <= 159.5) {
                                                                                votes[102] += 1;
                                                                            }

                                                                            else {
                                                                                if (x[0] <= 160.5) {
                                                                                    votes[103] += 1;
                                                                                }

                                                                                else {
                                                                                    if (x[0] <= 161.5) {
                                                                                        votes[104] += 1;
                                                                                    }

                                                                                    else {
                                                                                        if (x[0] <= 163.5) {
                                                                                            votes[105] += 1;
                                                                                        }

                                                                                        else {
                                                                                            if (x[0] <= 166.0) {
                                                                                                votes[108] += 1;
                                                                                            }

                                                                                            else {
                                                                                                if (x[0] <= 167.5) {
                                                                                                    votes[110] += 1;
                                                                                                }

                                                                                                else {
                                                                                                    if (x[0] <= 169.5) {
                                                                                                        votes[111] += 1;
                                                                                                    }

                                                                                                    else {
                                                                                                        votes[25] += 1;
                                                                                                    }
                                                                                                }
                                                                                            }
                                                                                        }
                                                                                    }
                                                                                }
                                                                            }
                                                                        }
                                                                    }
                                                                }
                                                            }
                                                        }
                                                    }
                                                }
                                            }
                                        }
                                    }
                                }
                            }
                        }

                        // tree #2
                        if (x[0] <= 15.0) {
                            if (x[0] <= 8.0) {
                                if (x[0] <= 5.0) {
                                    if (x[0] <= 2.5) {
                                        if (x[0] <= 0.5) {
                                            votes[43] += 1;
                                        }

                                        else {
                                            if (x[0] <= 1.5) {
                                                votes[39] += 1;
                                            }

                                            else {
                                                votes[38] += 1;
                                            }
                                        }
                                    }

                                    else {
                                        votes[1] += 1;
                                    }
                                }

                                else {
                                    votes[134] += 1;
                                }
                            }

                            else {
                                votes[72] += 1;
                            }
                        }

                        else {
                            if (x[0] <= 166.5) {
                                if (x[0] <= 160.5) {
                                    if (x[0] <= 88.5) {
                                        if (x[0] <= 71.5) {
                                            if (x[0] <= 69.5) {
                                                if (x[0] <= 58.5) {
                                                    if (x[0] <= 57.5) {
                                                        if (x[0] <= 56.5) {
                                                            if (x[0] <= 28.0) {
                                                                if (x[0] <= 26.0) {
                                                                    if (x[0] <= 19.0) {
                                                                        if (x[0] <= 17.5) {
                                                                            if (x[0] <= 16.5) {
                                                                                votes[133] += 1;
                                                                            }

                                                                            else {
                                                                                votes[85] += 1;
                                                                            }
                                                                        }

                                                                        else {
                                                                            votes[68] += 1;
                                                                        }
                                                                    }

                                                                    else {
                                                                        if (x[0] <= 20.5) {
                                                                            votes[69] += 1;
                                                                        }

                                                                        else {
                                                                            if (x[0] <= 22.0) {
                                                                                votes[87] += 1;
                                                                            }

                                                                            else {
                                                                                if (x[0] <= 24.0) {
                                                                                    votes[88] += 1;
                                                                                }

                                                                                else {
                                                                                    votes[0] += 1;
                                                                                }
                                                                            }
                                                                        }
                                                                    }
                                                                }

                                                                else {
                                                                    votes[123] += 1;
                                                                }
                                                            }

                                                            else {
                                                                if (x[0] <= 35.0) {
                                                                    if (x[0] <= 32.5) {
                                                                        if (x[0] <= 30.0) {
                                                                            votes[118] += 1;
                                                                        }

                                                                        else {
                                                                            votes[120] += 1;
                                                                        }
                                                                    }

                                                                    else {
                                                                        votes[119] += 1;
                                                                    }
                                                                }

                                                                else {
                                                                    if (x[0] <= 42.5) {
                                                                        if (x[0] <= 40.0) {
                                                                            if (x[0] <= 37.5) {
                                                                                votes[128] += 1;
                                                                            }

                                                                            else {
                                                                                votes[124] += 1;
                                                                            }
                                                                        }

                                                                        else {
                                                                            votes[132] += 1;
                                                                        }
                                                                    }

                                                                    else {
                                                                        if (x[0] <= 44.5) {
                                                                            votes[8] += 1;
                                                                        }

                                                                        else {
                                                                            if (x[0] <= 45.5) {
                                                                                votes[9] += 1;
                                                                            }

                                                                            else {
                                                                                if (x[0] <= 46.5) {
                                                                                    votes[10] += 1;
                                                                                }

                                                                                else {
                                                                                    if (x[0] <= 48.5) {
                                                                                        votes[11] += 1;
                                                                                    }

                                                                                    else {
                                                                                        if (x[0] <= 50.5) {
                                                                                            votes[14] += 1;
                                                                                        }

                                                                                        else {
                                                                                            if (x[0] <= 52.0) {
                                                                                                votes[15] += 1;
                                                                                            }

                                                                                            else {
                                                                                                if (x[0] <= 53.5) {
                                                                                                    votes[41] += 1;
                                                                                                }

                                                                                                else {
                                                                                                    if (x[0] <= 54.5) {
                                                                                                        votes[42] += 1;
                                                                                                    }

                                                                                                    else {
                                                                                                        if (x[0] <= 55.5) {
                                                                                                            votes[114] += 1;
                                                                                                        }

                                                                                                        else {
                                                                                                            votes[112] += 1;
                                                                                                        }
                                                                                                    }
                                                                                                }
                                                                                            }
                                                                                        }
                                                                                    }
                                                                                }
                                                                            }
                                                                        }
                                                                    }
                                                                }
                                                            }
                                                        }

                                                        else {
                                                            votes[113] += 1;
                                                        }
                                                    }

                                                    else {
                                                        votes[116] += 1;
                                                    }
                                                }

                                                else {
                                                    if (x[0] <= 59.5) {
                                                        votes[115] += 1;
                                                    }

                                                    else {
                                                        if (x[0] <= 60.5) {
                                                            votes[4] += 1;
                                                        }

                                                        else {
                                                            if (x[0] <= 63.5) {
                                                                votes[5] += 1;
                                                            }

                                                            else {
                                                                if (x[0] <= 66.5) {
                                                                    votes[95] += 1;
                                                                }

                                                                else {
                                                                    if (x[0] <= 67.5) {
                                                                        votes[93] += 1;
                                                                    }

                                                                    else {
                                                                        votes[94] += 1;
                                                                    }
                                                                }
                                                            }
                                                        }
                                                    }
                                                }
                                            }

                                            else {
                                                votes[91] += 1;
                                            }
                                        }

                                        else {
                                            if (x[0] <= 72.5) {
                                                votes[49] += 1;
                                            }

                                            else {
                                                if (x[0] <= 76.5) {
                                                    votes[50] += 1;
                                                }

                                                else {
                                                    if (x[0] <= 82.5) {
                                                        if (x[0] <= 80.5) {
                                                            votes[51] += 1;
                                                        }

                                                        else {
                                                            votes[47] += 1;
                                                        }
                                                    }

                                                    else {
                                                        if (x[0] <= 85.0) {
                                                            votes[83] += 1;
                                                        }

                                                        else {
                                                            if (x[0] <= 87.0) {
                                                                votes[78] += 1;
                                                            }

                                                            else {
                                                                votes[75] += 1;
                                                            }
                                                        }
                                                    }
                                                }
                                            }
                                        }
                                    }

                                    else {
                                        if (x[0] <= 92.5) {
                                            votes[81] += 1;
                                        }

                                        else {
                                            if (x[0] <= 96.5) {
                                                votes[80] += 1;
                                            }

                                            else {
                                                if (x[0] <= 100.5) {
                                                    if (x[0] <= 98.5) {
                                                        if (x[0] <= 97.5) {
                                                            votes[76] += 1;
                                                        }

                                                        else {
                                                            votes[77] += 1;
                                                        }
                                                    }

                                                    else {
                                                        votes[66] += 1;
                                                    }
                                                }

                                                else {
                                                    if (x[0] <= 102.5) {
                                                        votes[67] += 1;
                                                    }

                                                    else {
                                                        if (x[0] <= 118.0) {
                                                            if (x[0] <= 116.5) {
                                                                if (x[0] <= 107.5) {
                                                                    votes[59] += 1;
                                                                }

                                                                else {
                                                                    if (x[0] <= 114.0) {
                                                                        votes[64] += 1;
                                                                    }

                                                                    else {
                                                                        votes[57] += 1;
                                                                    }
                                                                }
                                                            }

                                                            else {
                                                                votes[61] += 1;
                                                            }
                                                        }

                                                        else {
                                                            if (x[0] <= 129.0) {
                                                                if (x[0] <= 124.5) {
                                                                    if (x[0] <= 120.5) {
                                                                        if (x[0] <= 119.5) {
                                                                            votes[48] += 1;
                                                                        }

                                                                        else {
                                                                            votes[19] += 1;
                                                                        }
                                                                    }

                                                                    else {
                                                                        votes[26] += 1;
                                                                    }
                                                                }

                                                                else {
                                                                    votes[30] += 1;
                                                                }
                                                            }

                                                            else {
                                                                if (x[0] <= 150.5) {
                                                                    if (x[0] <= 148.0) {
                                                                        if (x[0] <= 130.5) {
                                                                            votes[16] += 1;
                                                                        }

                                                                        else {
                                                                            if (x[0] <= 131.5) {
                                                                                votes[31] += 1;
                                                                            }

                                                                            else {
                                                                                if (x[0] <= 132.5) {
                                                                                    votes[35] += 1;
                                                                                }

                                                                                else {
                                                                                    if (x[0] <= 133.5) {
                                                                                        votes[34] += 1;
                                                                                    }

                                                                                    else {
                                                                                        if (x[0] <= 134.5) {
                                                                                            votes[20] += 1;
                                                                                        }

                                                                                        else {
                                                                                            if (x[0] <= 136.0) {
                                                                                                votes[28] += 1;
                                                                                            }

                                                                                            else {
                                                                                                if (x[0] <= 140.5) {
                                                                                                    votes[36] += 1;
                                                                                                }

                                                                                                else {
                                                                                                    if (x[0] <= 144.5) {
                                                                                                        votes[21] += 1;
                                                                                                    }

                                                                                                    else {
                                                                                                        if (x[0] <= 146.0) {
                                                                                                            votes[29] += 1;
                                                                                                        }

                                                                                                        else {
                                                                                                            votes[33] += 1;
                                                                                                        }
                                                                                                    }
                                                                                                }
                                                                                            }
                                                                                        }
                                                                                    }
                                                                                }
                                                                            }
                                                                        }
                                                                    }

                                                                    else {
                                                                        if (x[0] <= 149.5) {
                                                                            votes[17] += 1;
                                                                        }

                                                                        else {
                                                                            votes[27] += 1;
                                                                        }
                                                                    }
                                                                }

                                                                else {
                                                                    if (x[0] <= 151.5) {
                                                                        votes[2] += 1;
                                                                    }

                                                                    else {
                                                                        if (x[0] <= 153.0) {
                                                                            votes[3] += 1;
                                                                        }

                                                                        else {
                                                                            if (x[0] <= 154.5) {
                                                                                votes[97] += 1;
                                                                            }

                                                                            else {
                                                                                if (x[0] <= 155.5) {
                                                                                    votes[98] += 1;
                                                                                }

                                                                                else {
                                                                                    if (x[0] <= 156.5) {
                                                                                        votes[99] += 1;
                                                                                    }

                                                                                    else {
                                                                                        if (x[0] <= 158.0) {
                                                                                            votes[100] += 1;
                                                                                        }

                                                                                        else {
                                                                                            if (x[0] <= 159.5) {
                                                                                                votes[102] += 1;
                                                                                            }

                                                                                            else {
                                                                                                votes[103] += 1;
                                                                                            }
                                                                                        }
                                                                                    }
                                                                                }
                                                                            }
                                                                        }
                                                                    }
                                                                }
                                                            }
                                                        }
                                                    }
                                                }
                                            }
                                        }
                                    }
                                }

                                else {
                                    if (x[0] <= 161.5) {
                                        votes[104] += 1;
                                    }

                                    else {
                                        if (x[0] <= 163.5) {
                                            if (x[0] <= 162.5) {
                                                votes[105] += 1;
                                            }

                                            else {
                                                votes[106] += 1;
                                            }
                                        }

                                        else {
                                            if (x[0] <= 164.5) {
                                                votes[107] += 1;
                                            }

                                            else {
                                                if (x[0] <= 165.5) {
                                                    votes[108] += 1;
                                                }

                                                else {
                                                    votes[109] += 1;
                                                }
                                            }
                                        }
                                    }
                                }
                            }

                            else {
                                if (x[0] <= 167.5) {
                                    votes[110] += 1;
                                }

                                else {
                                    if (x[0] <= 168.5) {
                                        votes[111] += 1;
                                    }

                                    else {
                                        votes[23] += 1;
                                    }
                                }
                            }
                        }

                        // tree #3
                        if (x[0] <= 15.5) {
                            if (x[0] <= 9.5) {
                                if (x[0] <= 3.5) {
                                    votes[38] += 1;
                                }

                                else {
                                    if (x[0] <= 6.5) {
                                        votes[45] += 1;
                                    }

                                    else {
                                        votes[135] += 1;
                                    }
                                }
                            }

                            else {
                                votes[72] += 1;
                            }
                        }

                        else {
                            if (x[0] <= 18.5) {
                                if (x[0] <= 17.5) {
                                    if (x[0] <= 16.5) {
                                        votes[133] += 1;
                                    }

                                    else {
                                        votes[85] += 1;
                                    }
                                }

                                else {
                                    votes[68] += 1;
                                }
                            }

                            else {
                                if (x[0] <= 29.5) {
                                    if (x[0] <= 28.5) {
                                        if (x[0] <= 19.5) {
                                            votes[86] += 1;
                                        }

                                        else {
                                            if (x[0] <= 20.5) {
                                                votes[69] += 1;
                                            }

                                            else {
                                                if (x[0] <= 23.0) {
                                                    if (x[0] <= 21.5) {
                                                        votes[87] += 1;
                                                    }

                                                    else {
                                                        votes[70] += 1;
                                                    }
                                                }

                                                else {
                                                    if (x[0] <= 26.0) {
                                                        if (x[0] <= 24.5) {
                                                            votes[71] += 1;
                                                        }

                                                        else {
                                                            votes[0] += 1;
                                                        }
                                                    }

                                                    else {
                                                        if (x[0] <= 27.5) {
                                                            votes[123] += 1;
                                                        }

                                                        else {
                                                            votes[117] += 1;
                                                        }
                                                    }
                                                }
                                            }
                                        }
                                    }

                                    else {
                                        votes[118] += 1;
                                    }
                                }

                                else {
                                    if (x[0] <= 52.5) {
                                        if (x[0] <= 51.5) {
                                            if (x[0] <= 43.0) {
                                                if (x[0] <= 39.0) {
                                                    if (x[0] <= 37.0) {
                                                        if (x[0] <= 34.5) {
                                                            if (x[0] <= 31.5) {
                                                                if (x[0] <= 30.5) {
                                                                    votes[122] += 1;
                                                                }

                                                                else {
                                                                    votes[120] += 1;
                                                                }
                                                            }

                                                            else {
                                                                if (x[0] <= 32.5) {
                                                                    votes[121] += 1;
                                                                }

                                                                else {
                                                                    if (x[0] <= 33.5) {
                                                                        votes[129] += 1;
                                                                    }

                                                                    else {
                                                                        votes[119] += 1;
                                                                    }
                                                                }
                                                            }
                                                        }

                                                        else {
                                                            if (x[0] <= 35.5) {
                                                                votes[127] += 1;
                                                            }

                                                            else {
                                                                votes[128] += 1;
                                                            }
                                                        }
                                                    }

                                                    else {
                                                        votes[131] += 1;
                                                    }
                                                }

                                                else {
                                                    if (x[0] <= 40.5) {
                                                        votes[125] += 1;
                                                    }

                                                    else {
                                                        votes[132] += 1;
                                                    }
                                                }
                                            }

                                            else {
                                                if (x[0] <= 47.0) {
                                                    votes[9] += 1;
                                                }

                                                else {
                                                    if (x[0] <= 50.5) {
                                                        if (x[0] <= 49.5) {
                                                            votes[13] += 1;
                                                        }

                                                        else {
                                                            votes[14] += 1;
                                                        }
                                                    }

                                                    else {
                                                        votes[15] += 1;
                                                    }
                                                }
                                            }
                                        }

                                        else {
                                            votes[40] += 1;
                                        }
                                    }

                                    else {
                                        if (x[0] <= 87.0) {
                                            if (x[0] <= 85.5) {
                                                if (x[0] <= 81.5) {
                                                    if (x[0] <= 76.5) {
                                                        if (x[0] <= 70.5) {
                                                            if (x[0] <= 69.5) {
                                                                if (x[0] <= 53.5) {
                                                                    votes[41] += 1;
                                                                }

                                                                else {
                                                                    if (x[0] <= 55.0) {
                                                                        votes[42] += 1;
                                                                    }

                                                                    else {
                                                                        if (x[0] <= 56.5) {
                                                                            votes[112] += 1;
                                                                        }

                                                                        else {
                                                                            if (x[0] <= 57.5) {
                                                                                votes[113] += 1;
                                                                            }

                                                                            else {
                                                                                if (x[0] <= 59.5) {
                                                                                    votes[116] += 1;
                                                                                }

                                                                                else {
                                                                                    if (x[0] <= 62.5) {
                                                                                        votes[5] += 1;
                                                                                    }

                                                                                    else {
                                                                                        if (x[0] <= 66.5) {
                                                                                            votes[52] += 1;
                                                                                        }

                                                                                        else {
                                                                                            votes[89] += 1;
                                                                                        }
                                                                                    }
                                                                                }
                                                                            }
                                                                        }
                                                                    }
                                                                }
                                                            }

                                                            else {
                                                                votes[90] += 1;
                                                            }
                                                        }

                                                        else {
                                                            if (x[0] <= 72.0) {
                                                                votes[91] += 1;
                                                            }

                                                            else {
                                                                votes[50] += 1;
                                                            }
                                                        }
                                                    }

                                                    else {
                                                        votes[51] += 1;
                                                    }
                                                }

                                                else {
                                                    if (x[0] <= 83.5) {
                                                        votes[84] += 1;
                                                    }

                                                    else {
                                                        if (x[0] <= 84.5) {
                                                            votes[83] += 1;
                                                        }

                                                        else {
                                                            votes[79] += 1;
                                                        }
                                                    }
                                                }
                                            }

                                            else {
                                                votes[78] += 1;
                                            }
                                        }

                                        else {
                                            if (x[0] <= 100.5) {
                                                if (x[0] <= 98.5) {
                                                    if (x[0] <= 97.5) {
                                                        if (x[0] <= 93.0) {
                                                            if (x[0] <= 88.5) {
                                                                votes[75] += 1;
                                                            }

                                                            else {
                                                                votes[81] += 1;
                                                            }
                                                        }

                                                        else {
                                                            votes[76] += 1;
                                                        }
                                                    }

                                                    else {
                                                        votes[77] += 1;
                                                    }
                                                }

                                                else {
                                                    votes[66] += 1;
                                                }
                                            }

                                            else {
                                                if (x[0] <= 103.5) {
                                                    votes[67] += 1;
                                                }

                                                else {
                                                    if (x[0] <= 109.5) {
                                                        votes[63] += 1;
                                                    }

                                                    else {
                                                        if (x[0] <= 118.0) {
                                                            if (x[0] <= 115.5) {
                                                                votes[55] += 1;
                                                            }

                                                            else {
                                                                votes[61] += 1;
                                                            }
                                                        }

                                                        else {
                                                            if (x[0] <= 136.5) {
                                                                if (x[0] <= 135.5) {
                                                                    if (x[0] <= 133.5) {
                                                                        if (x[0] <= 131.5) {
                                                                            if (x[0] <= 128.5) {
                                                                                if (x[0] <= 119.5) {
                                                                                    votes[48] += 1;
                                                                                }

                                                                                else {
                                                                                    if (x[0] <= 124.0) {
                                                                                        votes[19] += 1;
                                                                                    }

                                                                                    else {
                                                                                        votes[30] += 1;
                                                                                    }
                                                                                }
                                                                            }

                                                                            else {
                                                                                if (x[0] <= 130.0) {
                                                                                    votes[22] += 1;
                                                                                }

                                                                                else {
                                                                                    votes[31] += 1;
                                                                                }
                                                                            }
                                                                        }

                                                                        else {
                                                                            votes[35] += 1;
                                                                        }
                                                                    }

                                                                    else {
                                                                        votes[28] += 1;
                                                                    }
                                                                }

                                                                else {
                                                                    votes[37] += 1;
                                                                }
                                                            }

                                                            else {
                                                                if (x[0] <= 149.5) {
                                                                    if (x[0] <= 148.5) {
                                                                        if (x[0] <= 147.5) {
                                                                            if (x[0] <= 140.5) {
                                                                                votes[36] += 1;
                                                                            }

                                                                            else {
                                                                                if (x[0] <= 144.5) {
                                                                                    votes[21] += 1;
                                                                                }

                                                                                else {
                                                                                    if (x[0] <= 146.0) {
                                                                                        votes[29] += 1;
                                                                                    }

                                                                                    else {
                                                                                        votes[33] += 1;
                                                                                    }
                                                                                }
                                                                            }
                                                                        }

                                                                        else {
                                                                            votes[18] += 1;
                                                                        }
                                                                    }

                                                                    else {
                                                                        votes[17] += 1;
                                                                    }
                                                                }

                                                                else {
                                                                    if (x[0] <= 151.0) {
                                                                        votes[27] += 1;
                                                                    }

                                                                    else {
                                                                        if (x[0] <= 152.5) {
                                                                            votes[3] += 1;
                                                                        }

                                                                        else {
                                                                            if (x[0] <= 153.5) {
                                                                                votes[96] += 1;
                                                                            }

                                                                            else {
                                                                                if (x[0] <= 155.0) {
                                                                                    votes[97] += 1;
                                                                                }

                                                                                else {
                                                                                    if (x[0] <= 158.0) {
                                                                                        votes[99] += 1;
                                                                                    }

                                                                                    else {
                                                                                        if (x[0] <= 160.5) {
                                                                                            votes[103] += 1;
                                                                                        }

                                                                                        else {
                                                                                            if (x[0] <= 161.5) {
                                                                                                votes[104] += 1;
                                                                                            }

                                                                                            else {
                                                                                                if (x[0] <= 162.5) {
                                                                                                    votes[105] += 1;
                                                                                                }

                                                                                                else {
                                                                                                    if (x[0] <= 164.5) {
                                                                                                        votes[106] += 1;
                                                                                                    }

                                                                                                    else {
                                                                                                        if (x[0] <= 167.0) {
                                                                                                            votes[109] += 1;
                                                                                                        }

                                                                                                        else {
                                                                                                            if (x[0] <= 169.0) {
                                                                                                                votes[111] += 1;
                                                                                                            }

                                                                                                            else {
                                                                                                                if (x[0] <= 170.5) {
                                                                                                                    votes[24] += 1;
                                                                                                                }

                                                                                                                else {
                                                                                                                    votes[25] += 1;
                                                                                                                }
                                                                                                            }
                                                                                                        }
                                                                                                    }
                                                                                                }
                                                                                            }
                                                                                        }
                                                                                    }
                                                                                }
                                                                            }
                                                                        }
                                                                    }
                                                                }
                                                            }
                                                        }
                                                    }
                                                }
                                            }
                                        }
                                    }
                                }
                            }
                        }

                        // tree #4
                        if (x[0] <= 15.5) {
                            if (x[0] <= 8.5) {
                                if (x[0] <= 0.5) {
                                    votes[43] += 1;
                                }

                                else {
                                    if (x[0] <= 1.5) {
                                        votes[39] += 1;
                                    }

                                    else {
                                        if (x[0] <= 3.5) {
                                            if (x[0] <= 2.5) {
                                                votes[38] += 1;
                                            }

                                            else {
                                                votes[1] += 1;
                                            }
                                        }

                                        else {
                                            if (x[0] <= 4.5) {
                                                votes[46] += 1;
                                            }

                                            else {
                                                if (x[0] <= 6.0) {
                                                    votes[45] += 1;
                                                }

                                                else {
                                                    if (x[0] <= 7.5) {
                                                        votes[134] += 1;
                                                    }

                                                    else {
                                                        votes[135] += 1;
                                                    }
                                                }
                                            }
                                        }
                                    }
                                }
                            }

                            else {
                                votes[72] += 1;
                            }
                        }

                        else {
                            if (x[0] <= 32.5) {
                                if (x[0] <= 31.5) {
                                    if (x[0] <= 27.5) {
                                        if (x[0] <= 18.0) {
                                            votes[85] += 1;
                                        }

                                        else {
                                            if (x[0] <= 23.5) {
                                                if (x[0] <= 22.5) {
                                                    if (x[0] <= 19.5) {
                                                        votes[86] += 1;
                                                    }

                                                    else {
                                                        if (x[0] <= 21.0) {
                                                            votes[69] += 1;
                                                        }

                                                        else {
                                                            votes[70] += 1;
                                                        }
                                                    }
                                                }

                                                else {
                                                    votes[88] += 1;
                                                }
                                            }

                                            else {
                                                if (x[0] <= 24.5) {
                                                    votes[71] += 1;
                                                }

                                                else {
                                                    if (x[0] <= 25.5) {
                                                        votes[0] += 1;
                                                    }

                                                    else {
                                                        if (x[0] <= 26.5) {
                                                            votes[73] += 1;
                                                        }

                                                        else {
                                                            votes[123] += 1;
                                                        }
                                                    }
                                                }
                                            }
                                        }
                                    }

                                    else {
                                        if (x[0] <= 29.5) {
                                            votes[117] += 1;
                                        }

                                        else {
                                            votes[120] += 1;
